svm_type epsilon_svr
kernel_type rbf
gamma 0.25
nr_class 2
total_sv 8757
rho -0.118846
SV
4 0:0.46675647 1:0.43199787 2:0.32634043 3:0.12788795 4:0.13932383 5:0.34347427 6:0.53169367 7:0.39457436 8:0.47424656 9:0.3635127 10:0.55486703 12:0.03185769 13:0.0067249662 14:0.035985394 15:0.13237359 16:0.042553191 18:0.17647059 20:0.050847458 24:0.125 25:0.3 31:0.090909091 36:0.1 37:0.33333333 39:0.125 40:0.28571429 
4 0:0.4780662 1:0.43632324 2:1 3:0.12788795 4:0.23824171 5:0.4291495 6:0.45861513 7:0.32022845 8:0.41721095 9:0.44600254 10:0.35485515 11:0.26402885 12:0.26108832 13:0.29871875 14:0.29216461 15:0.10643719 16:0.085106383 18:0.23529412 20:0.06779661 29:0.16666667 31:0.090909091 34:0.33333333 35:0.16666667 36:0.1 37:0.33333333 38:0.066666667 40:0.28571429 
-4 0:0.50118043 1:0.49407296 2:1 3:0.12788795 4:0.062082838 5:0.39805434 6:0.59945685 7:0.44106262 8:0.4812702 9:0.54286993 10:0.35601098 11:0.30039878 12:0.24308837 13:0.33894084 14:0.27204856 15:0.069322273 16:0.042553191 18:0.17647059 20:0.06779661 21:0.15 24:0.125 25:0.1 29:0.16666667 31:0.090909091 34:0.16666667 37:0.33333333 39:0.125 40:0.14285714 
4 0:0.43126932 1:0.35288171 2:0.2834643 3:0.12788795 4:0.16484515 5:0.29871644 6:0.54138487 7:0.29613358 8:0.40260119 9:0.17042641 10:0.3242456 12:0.03185769 13:0.0067249662 14:0.035985394 15:0.11143326 16:0.085106383 17:0.03030303 18:0.058823529 20:0.033898305 21:0.05 24:0.125 31:0.090909091 34:0.33333333 35:0.083333333 36:0.1 37:0.33333333 39:0.125 
-4 0:0.52209664 1:0.51486614 2:1 3:0.074049276 4:0.17588818 5:0.45825127 6:0.59945685 7:0.38904647 8:0.49992933 9:0.61607688 10:0.37515971 11:0.40742547 12:0.6577738 13:0.10736284 14:0.52361108 15:0.20981849 16:0.042553191 18:0.17647059 20:0.084745763 21:0.05 25:0.2 26:0.16666667 30:0.25 31:0.18181818 36:0.1 38:0.066666667 39:0.375 
-4 0:0.36949801 1:0.1662215 2:0.73981352 3:0.074049276 4:0.11449443 5:0.21269995 6:0.18049509 7:0.084338891 8:0.18715829 9:0.17457601 10:0.14085495 11:0.16491777 12:0.35260626 13:0.012657844 14:0.0062311872 15:0.094104293 16:0.17021277 17:0.15151515 18:0.11764706 20:0.15254237 21:0.05 24:0.125 25:0.3 26:0.16666667 27:0.069767442 28:0.2 30:0.75 34:0.16666667 38:0.066666667 40:0.14285714 
4 0:0.57178655 1:0.39871021 2:0.12788795 3:0.074049276 4:0.18387643 5:0.5584032 6:0.64880142 7:0.24613086 8:0.23700454 9:0.66191583 10:0.16118359 11:0.48591786 12:0.18576392 13:0.14930268 14:0.042330279 15:0.215903 16:0.12765957 17:0.060606061 18:0.41176471 19:0.25 20:0.28813559 21:0.1 24:0.25 25:0.1 27:0.046511628 29:0.33333333 30:0.25 31:0.18181818 34:0.16666667 35:0.083333333 37:0.66666667 38:0.13333333 39:0.375 40:0.28571429 42:0.16666667 
-4 0:0.48911932 1:0.41852557 2:0.32634043 3:0.12788795 4:0.2658772 5:0.42698827 6:0.51240984 7:0.36302308 8:0.31638894 9:0.59526794 10:0.14629553 11:0.50567709 12:0.20857121 13:0.53560122 14:0.14397532 15:0.27863963 16:0.085106383 17:0.03030303 18:0.17647059 20:0.10169492 24:0.125 25:0.2 27:0.046511628 29:0.16666667 31:0.18181818 36:0.1 37:0.33333333 38:0.066666667 39:0.25 
-4 0:0.50657776 1:0.47932411 2:0.49480017 3:0.12788795 4:0.1335269 5:0.35061915 6:0.64880142 7:0.43206443 8:0.23700454 9:0.52086601 10:0.27750167 11:0.45648406 12:0.28793492 13:0.48270498 14:0.27768366 15:0.13814467 16:0.063829787 17:0.03030303 18:0.23529412 19:0.125 20:0.084745763 21:0.1 25:0.1 26:0.16666667 27:0.046511628 31:0.090909091 35:0.16666667 37:0.33333333 40:0.28571429 
-3.38185737089131 0:0.52708477 1:0.45478259 2:0.23699674 3:0.2834643 4:0.062617504 5:0.41470685 6:0.73251965 7:0.16348183 8:0.19778877 9:0.53576657 10:0.30222058 11:0.36332607 12:0.203382 13:0.33162637 14:0.011094762 15:0.17940582 16:0.063829787 17:0.03030303 18:0.23529412 19:0.25 20:0.13559322 21:0.05 24:0.125 25:0.2 28:0.4 29:0.16666667 31:0.18181818 32:0.66666667 36:0.1 38:0.066666667 39:0.125 40:0.14285714 
4 0:0.59027738 1:0.52329187 2:0.29860061 3:0.074049276 4:0.34787213 5:0.54876378 6:1 7:0.25877102 8:0.18715829 9:0.90708797 10:0.25216135 11:0.80829315 12:0.30099056 13:0.34905537 14:0.095672683 15:0.29836986 16:0.12765957 17:0.03030303 18:0.41176471 19:0.375 20:0.16949153 24:0.25 26:0.16666667 27:0.046511628 29:0.33333333 30:0.5 31:0.27272727 34:0.33333333 38:0.066666667 39:0.125 40:0.14285714 
4 0:0.47880333 1:0.41571386 2:0.45979556 3:0.12788795 4:0.21709949 5:0.45180218 6:0.53169367 7:0.19489185 8:0.33802233 9:0.53946386 10:0.15916123 11:0.54367691 12:0.1254 13:0.48771989 14:0.10902265 15:0.2115499 16:0.085106383 17:0.03030303 18:0.17647059 20:0.084745763 24:0.125 25:0.2 27:0.023255814 31:0.18181818 36:0.2 37:0.33333333 38:0.13333333 42:0.16666667 
-4 0:0.43224911 1:0.33716151 2:0.12809941 3:0.12788795 4:0.027940841 5:0.34927861 6:0.51240984 7:0.24256409 8:0.33802233 9:0.3887237 10:0.32685134 12:0.03185769 13:0.0067249662 14:0.035985394 15:0.1068334 16:0.042553191 18:0.11764706 20:0.050847458 24:0.125 27:0.023255814 31:0.090909091 35:0.083333333 37:0.33333333 38:0.13333333 39:0.25 42:0.16666667 
-4 0:0.50028441 1:0.56363031 2:0.23699674 3:0.12788795 4:0.17707735 5:0.40798424 6:0.62446735 7:0.62602491 8:0.54410365 9:0.34110019 10:0.5370495 12:0.03185769 13:0.0067249662 14:0.035985394 15:0.15314132 16:0.042553191 18:0.23529412 19:0.125 20:0.033898305 21:0.05 24:0.125 26:0.16666667 29:0.16666667 31:0.090909091 34:0.16666667 37:0.33333333 38:0.066666667 42:0.16666667 
1.027779528688461 0:0.55844279 1:0.63714004 2:0.29860061 3:0.074049276 4:0.13463123 5:0.57609855 6:0.73251965 7:0.51124598 8:0.39505795 9:0.86699233 10:0.40637682 11:0.78957581 12:0.316731 13:0.87992963 14:0.35434869 15:0.28678095 16:0.042553191 18:0.29411765 19:0.25 20:0.06779661 23:0.14285714 24:0.25 27:0.023255814 29:0.16666667 30:0.25 31:0.27272727 35:0.083333333 42:0.16666667 
-1.094963668373838 0:0.55423255 1:0.58846523 2:0.615229 3:0.074049276 4:0.15546811 5:0.47989843 6:0.73251965 7:0.50069028 8:0.39505795 9:0.5348981 10:0.50732315 11:0.2164869 12:0.14783542 13:0.22050802 14:0.096418562 15:0.19759391 16:0.042553191 18:0.29411765 19:0.25 20:0.084745763 24:0.25 25:0.1 27:0.023255814 29:0.5 30:0.25 31:0.18181818 32:0.33333333 39:0.125 
-4 0:0.66710674 1:0.67741912 2:0.12809941 3:0.12788795 4:0.40159242 5:0.80658723 6:1 7:0.56566143 8:0.11860016 9:0.63698991 10:0.42694837 11:0.37709754 12:0.29755578 13:0.31865351 14:0.037931422 15:0.38281323 16:0.10638298 17:0.03030303 18:0.41176471 19:0.5 20:0.15254237 21:0.05 25:0.2 26:0.16666667 27:0.046511628 28:0.2 29:0.16666667 31:0.45454545 35:0.083333333 37:0.66666667 
-4 0:0.43146241 1:0.37656124 2:0.49480017 3:0.12788795 4:0.20052753 5:0.26344268 6:0.27246823 7:0.33226677 8:0.38084829 9:0.24684985 10:0.41953385 12:0.03185769 13:0.0067249662 14:0.035985394 15:0.084546348 16:0.063829787 18:0.17647059 20:0.016949153 26:0.16666667 27:0.023255814 32:0.33333333 36:0.1 37:0.33333333 39:0.125 40:0.28571429 
-4 0:0.51558106 1:0.45263077 2:0.615229 3:0.074049276 4:0.18176994 5:0.41391356 6:0.46958482 7:0.42434518 8:0.2879803 9:0.59585774 10:0.33097423 11:0.48056624 12:0.33862647 13:0.43115924 14:0.21265018 15:0.16833609 16:0.063829787 18:0.29411765 19:0.125 20:0.11864407 21:0.05 29:0.5 30:0.25 31:0.090909091 35:0.083333333 36:0.2 38:0.2 39:0.125 40:0.14285714 
4 0:0.42044177 1:0.33870128 2:0.39902926 3:0.074049276 4:0.14744147 5:0.27740786 6:0.356987 7:0.38226125 8:0.46094768 9:0.24684985 10:0.41953385 12:0.03185769 13:0.0067249662 14:0.035985394 15:0.062571974 16:0.063829787 18:0.17647059 19:0.25 20:0.016949153 21:0.05 27:0.046511628 29:0.16666667 30:0.25 32:0.33333333 40:0.14285714 42:0.16666667 
4 0:0.46880293 1:0.50483964 2:0.23699674 3:0.074049276 4:0.048777714 5:0.51428396 6:0.81912678 7:0.33526281 8:0.18696251 9:0.24684985 10:0.41953385 12:0.03185769 13:0.0067249662 14:0.035985394 15:0.10399607 16:0.042553191 17:0.03030303 18:0.17647059 19:0.125 20:0.016949153 24:0.125 25:0.1 26:0.16666667 29:0.16666667 30:0.25 31:0.090909091 37:0.33333333 38:0.066666667 
3.293070068906295 0:0.44509021 1:0.3539344 2:1 3:0.23699674 4:0.044552601 5:0.40343001 6:0.62446735 7:0.19076481 8:0.18715829 9:0.46532798 10:0.21734016 11:0.39295265 12:0.22634376 13:0.44129766 14:0.25333544 15:0.052353795 16:0.042553191 17:0.03030303 18:0.17647059 19:0.125 20:0.06779661 27:0.023255814 30:0.25 31:0.090909091 35:0.16666667 38:0.2 39:0.125 40:0.14285714 42:0.16666667 
-4 0:0.55036453 1:0.4152648 2:0.4238179 3:0.074049276 4:0.14133093 5:0.5390445 6:0.64880142 7:0.11741343 8:0.21942217 9:0.71730838 10:0.15166974 11:0.54727329 12:0.57951106 13:0.15852586 14:0.19738794 15:0.29883539 16:0.085106383 18:0.35294118 19:0.25 20:0.22033898 21:0.1 24:0.125 25:0.2 26:0.16666667 28:0.6 29:0.16666667 30:0.25 31:0.18181818 35:0.16666667 38:0.2 40:0.28571429 
0.2537592078213178 0:0.82142846 1:0.45011324 2:0.4238179 3:0.12788795 4:1 5:0.52823619 6:1 7:0.22953692 8:0.19778877 9:0.51234192 10:0.12924554 11:0.5181391 12:0.52109977 13:0.013571334 14:0.00051110178 15:0.76856356 16:0.36170213 17:0.12121212 18:0.70588235 19:0.5 20:0.62711864 21:0.2 24:0.125 25:0.1 26:0.16666667 27:0.11627907 28:0.4 29:0.5 31:0.63636364 34:0.16666667 35:0.16666667 36:0.8 37:0.33333333 38:0.26666667 39:0.375 42:0.16666667 
4 0:0.53072087 1:0.56787823 2:0.23699674 3:0.074049276 4:0.24770381 5:0.63773336 6:1 7:0.32092574 8:0.33100204 9:0.7824872 10:0.48819557 11:0.69882869 12:0.20668105 13:0.77957092 14:0.23136116 15:0.23065948 16:0.085106383 17:0.03030303 18:0.23529412 19:0.125 20:0.06779661 25:0.1 30:0.25 31:0.27272727 34:0.16666667 36:0.2 38:0.066666667 39:0.125 40:0.14285714 
4 0:0.48242671 1:0.36019727 2:0.12809941 3:0.074049276 4:0.073237478 5:0.39060489 6:0.62446735 7:0.12915554 8:0.31638894 9:0.48770319 10:0.31289932 11:0.26696874 12:0.3148259 13:0.17419158 14:0.12030106 15:0.19402321 16:0.12765957 17:0.060606061 18:0.29411765 19:0.25 20:0.15254237 24:0.25 27:0.093023256 30:0.25 31:0.18181818 35:0.083333333 36:0.1 38:0.13333333 40:0.14285714 42:0.33333333 
-4 0:0.54942277 1:0.41397068 2:0.29860061 3:0.074049276 4:0.37632096 5:0.49613736 6:0.62446735 7:0.3471936 8:0.31638894 9:0.5972608 10:0.27890244 11:0.5392861 12:0.28771387 13:0.093472524 14:0.011503247 15:0.30267662 16:0.12765957 17:0.03030303 18:0.35294118 19:0.125 20:0.22033898 21:0.05 24:0.25 25:0.4 26:0.16666667 27:0.046511628 30:0.5 31:0.18181818 36:0.2 39:0.125 40:0.14285714 42:0.33333333 
-4 0:0.43160537 1:0.33539234 2:0.12809941 3:0.074049276 4:0.045921038 5:0.35974091 6:0.51240984 7:0.3529109 8:0.33802233 9:0.42371443 10:0.26090722 12:0.03185769 13:0.0067249662 14:0.035985394 15:0.12243723 16:0.063829787 18:0.058823529 20:0.050847458 21:0.05 24:0.25 27:0.046511628 30:0.25 31:0.090909091 32:0.66666667 38:0.066666667 
-4 0:0.6532821 1:0.49203259 2:0.2834643 3:0.074049276 4:0.30034417 5:0.66884146 6:1 7:0.30824369 8:0.13711626 9:0.74028737 10:0.20028327 11:0.70089001 12:0.36448221 13:0.21240653 14:0.061720902 15:0.3325567 16:0.12765957 17:0.060606061 18:0.41176471 19:0.25 20:0.28813559 21:0.15 25:0.2 26:0.33333333 27:0.046511628 28:0.2 29:0.16666667 30:0.5 31:0.27272727 32:0.66666667 35:0.16666667 36:0.1 38:0.066666667 39:0.125 42:0.16666667 
4 0:0.48646955 1:0.52144443 2:1 3:0.12788795 4:0.0231178 5:0.42073403 6:0.59945685 7:0.38278436 8:0.51079393 9:0.37391012 10:0.57795842 12:0.03185769 13:0.0067249662 14:0.035985394 15:0.055209629 16:0.021276596 18:0.17647059 20:0.033898305 21:0.15 24:0.125 31:0.090909091 37:0.33333333 38:0.066666667 40:0.28571429 
-1.963615047658453 0:0.59869056 1:0.65016706 2:0.52521981 3:0.074049276 4:0.70251154 5:0.64908239 6:0.66994818 7:0.32890093 8:0.18715829 9:0.67451266 10:0.29019176 11:0.53495686 12:0.68293347 13:0.27262013 14:0.55172855 15:0.62148847 16:0.12765957 17:0.060606061 18:0.35294118 19:0.125 20:0.10169492 27:0.069767442 28:0.2 30:0.25 31:0.45454545 34:0.16666667 35:0.083333333 41:0.33333333 
4 0:0.59560991 1:0.4774386 2:0.074049276 3:0.12788795 4:0.32109377 5:0.53632555 6:1 7:0.18386967 8:0.19778877 9:0.52013928 10:0.34130568 11:0.30600223 12:0.66321914 13:0.012512313 14:0.12651218 15:0.28845783 16:0.12765957 17:0.060606061 18:0.41176471 19:0.25 20:0.22033898 21:0.1 24:0.25 28:0.2 29:0.16666667 30:0.25 31:0.27272727 32:0.33333333 36:0.3 37:0.33333333 38:0.13333333 40:0.42857143 
-4 0:0.4997769 1:0.32965926 2:0.32634043 3:0.074049276 4:0.046235599 5:0.2408075 6:0.27390452 7:0.33171521 8:0.2879803 9:0.3123906 10:0.2929343 11:0.10983375 12:0.17230296 13:0.015598284 14:0.002864795 15:0.048585693 16:0.042553191 18:0.11764706 20:0.25423729 21:0.3 24:0.375 25:0.2 27:0.023255814 29:0.16666667 30:0.25 35:0.25 38:0.2 39:0.125 42:0.16666667 
4 0:0.51053657 1:0.5174488 2:0.32634043 3:0.12788795 4:0.17642446 5:0.50287253 6:0.64880142 7:0.35785573 8:0.51098971 9:0.45282852 10:0.42080121 11:0.20248753 12:0.1266377 13:0.2306592 14:0.14190783 15:0.12269193 16:0.063829787 18:0.29411765 19:0.25 20:0.06779661 21:0.1 25:0.1 27:0.023255814 29:0.16666667 31:0.090909091 36:0.1 37:0.33333333 40:0.28571429 41:0.33333333 
-3.559826485926747 0:0.40632218 1:0.27670164 2:1 3:0.12788795 4:0.077186039 5:0.24940912 6:0.59945685 7:0.14407818 8:0.11860016 9:0.26022429 10:0.43620972 12:0.03185769 13:0.0067249662 14:0.035985394 15:0.072023826 16:0.10638298 17:0.090909091 18:0.11764706 20:0.033898305 21:0.05 27:0.069767442 28:0.2 31:0.090909091 35:0.083333333 37:0.33333333 40:0.14285714 
-4 0:0.43818367 1:0.39965124 2:0.73981352 3:0.074049276 4:0.1167407 5:0.36794313 6:0.50188757 7:0.16990711 8:0.18715829 9:0.24684985 10:0.41953385 12:0.03185769 13:0.0067249662 14:0.035985394 15:0.14572527 16:0.063829787 17:0.03030303 18:0.11764706 20:0.016949153 24:0.125 25:0.1 26:0.16666667 27:0.023255814 30:0.25 31:0.090909091 37:0.33333333 39:0.125 
4 0:0.4799855 1:0.41842133 2:0.12809941 3:0.12788795 4:0.15343898 5:0.46464785 6:0.59945685 7:0.24288263 8:0.11860016 9:0.3721938 10:0.45267243 11:0.091511098 12:0.42463374 13:0.091913183 14:0.38342698 15:0.24298882 16:0.085106383 17:0.03030303 18:0.23529412 19:0.125 20:0.084745763 21:0.05 23:0.14285714 24:0.125 27:0.023255814 28:0.4 29:0.16666667 31:0.18181818 37:0.33333333 39:0.125 42:0.16666667 
2.398195684682909 0:0.56986595 1:0.45644737 2:0.4238179 3:0.074049276 4:0.064486362 5:0.54632502 6:1 7:0.29391917 8:0.34501592 9:0.60245412 10:0.20156468 11:0.47244512 12:0.32023622 13:0.16597109 14:0.01654208 15:0.15496935 16:0.063829787 18:0.17647059 19:0.125 20:0.20338983 21:0.3 23:0.42857143 24:0.125 25:0.1 26:0.16666667 30:0.5 31:0.18181818 35:0.083333333 36:0.1 39:0.125 
-4 0:0.54183649 1:0.39236536 2:0.12809941 3:0.074049276 4:0.34501531 5:0.49040677 6:0.59945685 7:0.23936794 8:0.2663469 9:0.62086864 10:0.25364573 11:0.43245091 12:0.80532683 13:0.15397447 14:0.079676979 15:0.3479656 16:0.12765957 17:0.03030303 18:0.23529412 20:0.23728814 21:0.05 23:0.28571429 25:0.3 27:0.046511628 30:0.25 31:0.27272727 32:0.33333333 34:0.16666667 35:0.083333333 36:0.1 37:0.33333333 38:0.2 40:0.14285714 
-2.791241587172645 0:0.5551388 1:0.53028527 2:0.73981352 3:0.12788795 4:0.26598446 5:0.52401049 6:0.81912678 7:0.2852404 8:0.40260119 9:0.48839491 10:0.28558123 11:0.3724411 12:0.42811739 13:0.1773616 14:0.05898826 15:0.20690725 16:0.085106383 17:0.03030303 18:0.35294118 19:0.25 20:0.11864407 24:0.125 26:0.33333333 27:0.023255814 31:0.18181818 34:0.16666667 36:0.1 37:0.33333333 38:0.2 40:0.28571429 
4 0:0.50299702 1:0.68710271 2:0.615229 3:0.12788795 4:0.16105567 5:0.57265964 6:0.55164643 7:0.62804028 8:0.43345196 9:0.24684985 10:0.41953385 12:0.03185769 13:0.0067249662 14:0.035985394 15:0.11896749 16:0.042553191 18:0.23529412 19:0.25 26:0.16666667 29:0.33333333 31:0.090909091 34:0.16666667 35:0.083333333 37:0.33333333 
4 0:0.54615552 1:0.65020979 2:1 3:0.12788795 4:0.004302478 5:0.53326609 6:1 7:0.62552216 8:0.38084829 9:0.38372295 10:0.58762067 12:0.03185769 13:0.0067249662 14:0.035985394 15:0.13847152 16:0.021276596 18:0.17647059 19:0.125 20:0.050847458 21:0.05 23:0.14285714 24:0.125 25:0.2 31:0.27272727 37:0.33333333 39:0.125 
-4 0:0.42589752 1:0.3574438 2:0.615229 3:0.074049276 4:0.10760573 5:0.31914102 6:0.4650393 7:0.44281381 8:0.18715829 9:0.24684985 10:0.41953385 12:0.03185769 13:0.0067249662 14:0.035985394 15:0.04049101 16:0.085106383 17:0.060606061 18:0.17647059 19:0.125 20:0.016949153 25:0.1 27:0.023255814 29:0.5 30:0.25 36:0.2 
-4 0:0.47071331 1:0.41795243 2:0.32634043 3:0.074049276 4:0.17922783 5:0.36063814 6:0.64880142 7:0.31645913 8:0.42423458 9:0.43355271 10:0.38952319 11:0.36646325 12:0.17160175 13:0.4120026 14:0.19215791 15:0.10976304 16:0.063829787 18:0.17647059 19:0.125 20:0.06779661 21:0.1 25:0.1 30:0.25 31:0.090909091 34:0.33333333 38:0.066666667 39:0.125 40:0.28571429 
4 0:0.48623816 1:0.3950287 3:0.074049276 4:0.11657856 5:0.43696981 6:0.59945685 7:0.35036184 8:0.38360571 9:0.43761474 10:0.31797743 11:0.19302715 12:0.58567913 13:0.14503326 14:0.40390067 15:0.17787225 16:0.063829787 18:0.23529412 20:0.11864407 21:0.1 27:0.023255814 28:0.2 29:0.33333333 30:0.25 31:0.090909091 35:0.16666667 38:0.13333333 39:0.125 42:0.16666667 
4 0:0.54554497 1:0.48860528 2:0.22121681 3:0.074049276 4:0.35751954 5:0.67213864 6:1 7:0.21248379 8:0.18715829 9:0.63602311 10:0.24873161 11:0.39696461 12:0.38271794 13:0.37510401 14:0.18119032 15:0.22091725 16:0.14893617 17:0.060606061 18:0.23529412 19:0.25 20:0.13559322 21:0.1 25:0.1 26:0.16666667 27:0.093023256 30:0.25 31:0.27272727 34:0.33333333 35:0.083333333 
4 0:0.51983574 1:0.46098299 2:0.12809941 3:0.074049276 4:0.0231178 5:0.54311864 6:0.55164643 7:0.41480458 8:0.33802233 9:0.57109527 10:0.33567689 11:0.37002227 12:0.066086472 13:0.17649646 14:0.0050591217 15:0.081633833 16:0.042553191 18:0.35294118 19:0.5 20:0.11864407 21:0.05 24:0.125 25:0.1 26:0.33333333 27:0.023255814 29:0.33333333 30:0.25 38:0.2 40:0.28571429 
4 0:0.58882346 1:0.6676869 2:0.4238179 3:0.074049276 4:0.18895568 5:0.71212438 6:1 7:0.51005361 8:0.39238955 9:0.69113974 10:0.38609431 11:0.62407361 12:0.3640838 13:0.64966051 14:0.40546137 15:0.29809514 16:0.042553191 18:0.35294118 19:0.375 20:0.084745763 21:0.1 24:0.125 26:0.16666667 28:0.2 30:0.25 31:0.27272727 38:0.066666667 40:0.14285714 42:0.16666667 
-4 0:0.43984985 1:0.43917845 2:0.4238179 3:0.12788795 4:0.12123032 5:0.29877504 6:0.55164643 7:0.48497888 8:0.32341257 9:0.24684985 10:0.41953385 12:0.03185769 13:0.0067249662 14:0.035985394 15:0.052592766 16:0.063829787 17:0.03030303 18:0.17647059 19:0.25 21:0.05 26:0.16666667 27:0.023255814 29:0.16666667 34:0.16666667 37:0.33333333 40:0.14285714 
4 0:0.46153993 1:0.33469159 2:0.45979556 3:0.074049276 4:0.17876498 5:0.38153341 6:0.4650393 7:0.11599995 8:0.11860016 9:0.33882492 10:0.28803077 11:0.17729133 12:0.26878856 13:0.058904672 14:0.03398034 15:0.082932368 16:0.12765957 17:0.060606061 18:0.35294118 19:0.375 20:0.13559322 21:0.05 25:0.2 27:0.069767442 28:0.2 29:0.5 30:0.25 36:0.1 40:0.14285714 41:0.33333333 42:0.16666667 
-4 0:0.57032775 1:0.47313553 2:0.23699674 3:0.074049276 4:0.088637717 5:0.56325822 6:1 7:0.29411678 8:0.31638894 9:0.47822777 10:0.37639093 11:0.24087296 12:0.20249557 13:0.074037341 14:0.002715436 15:0.13005331 16:0.063829787 17:0.03030303 18:0.29411765 19:0.25 20:0.18644068 21:0.05 24:0.25 25:0.1 27:0.023255814 29:0.33333333 30:0.25 31:0.18181818 32:0.33333333 35:0.25 36:0.1 38:0.066666667 39:0.125 42:0.16666667 
-4 0:0.67549503 1:0.60923671 2:0.49480017 3:0.074049276 4:0.33801229 5:0.51917512 6:0.64880142 7:0.56592032 8:0.33100204 9:0.68803522 10:0.49860072 11:0.47207978 12:0.43852361 13:0.23682834 14:0.025308406 15:0.37093979 16:0.085106383 17:0.03030303 18:0.47058824 19:0.375 20:0.20338983 21:0.05 25:0.1 26:0.5 30:0.25 31:0.27272727 35:0.16666667 36:0.3 38:0.066666667 39:0.25 40:0.28571429 
-1.816620799972141 0:0.47140897 1:0.29422135 2:0.45979556 3:0.074049276 4:0.22127796 5:0.23113202 6:0.27390452 7:0.28636585 8:0.23720032 9:0.29284282 10:0.23686225 11:0.20678848 12:0.36525684 13:0.022473583 14:0.089554855 15:0.099714651 16:0.17021277 17:0.090909091 18:0.41176471 20:0.25423729 24:0.125 27:0.093023256 29:0.16666667 30:0.25 34:0.16666667 35:0.33333333 36:0.2 39:0.25 40:0.57142857 42:0.33333333 
4 0:0.60127674 1:0.5410739 2:0.4238179 3:0.074049276 4:0.17216948 5:0.43658065 6:0.81912678 7:0.47316154 8:0.27337054 9:0.46967127 10:0.35224916 11:0.20040298 12:0.29988815 13:0.083426595 14:0.019398791 15:0.16467601 16:0.063829787 17:0.03030303 18:0.41176471 19:0.5 20:0.16949153 21:0.1 23:0.14285714 24:0.25 26:0.5 29:0.16666667 30:0.25 31:0.090909091 34:0.33333333 35:0.083333333 39:0.125 42:0.33333333 
-1.795950521393059 0:0.62717222 1:0.48880461 2:1 3:0.12788795 4:0.30616752 5:0.5317588 6:0.64880142 7:0.37158854 8:0.39505795 9:0.60468108 10:0.31270421 11:0.33289252 12:0.50611499 13:0.12540963 14:0.016226437 15:0.26980722 16:0.10638298 18:0.52941176 19:0.375 20:0.25423729 24:0.375 25:0.1 26:0.33333333 27:0.046511628 31:0.18181818 34:0.16666667 35:0.16666667 37:0.66666667 39:0.25 40:0.42857143 41:0.66666667 
1.397290274605112 0:0.48609267 1:0.29043961 2:0.12788795 3:0.074049276 4:0.36876393 5:0.38328746 6:0.64880142 7:0.11420015 8:0.18715829 9:0.49553247 10:0.17604683 11:0.41781214 12:0.31834559 13:0.10363942 14:0.0090996544 15:0.29910483 16:0.23404255 17:0.090909091 18:0.29411765 19:0.125 20:0.3220339 21:0.1 23:0.14285714 25:0.1 26:0.16666667 27:0.11627907 28:0.2 30:0.5 31:0.18181818 35:0.25 36:0.2 37:0.33333333 38:0.2 40:0.14285714 42:0.16666667 
-4 0:0.50686474 1:0.38844337 2:0.23699674 3:0.12788795 4:0.097555427 5:0.35723608 6:0.46958482 7:0.2846672 8:0.40260119 9:0.46269982 10:0.25352587 11:0.36039668 12:0.43300026 13:0.19795654 14:0.22517801 15:0.16066553 16:0.063829787 17:0.03030303 18:0.23529412 19:0.125 20:0.16949153 21:0.1 24:0.125 25:0.1 29:0.33333333 31:0.090909091 34:0.16666667 36:0.1 37:0.33333333 38:0.33333333 39:0.125 40:0.14285714 
-4 0:0.5211334 1:0.51266008 2:0.32634043 3:0.074049276 4:0.30888041 5:0.50981422 6:0.59945685 7:0.41389682 8:0.33802233 9:0.62673522 10:0.27222779 11:0.60689397 12:0.12456726 13:0.58316946 14:0.10163689 15:0.2517094 16:0.085106383 18:0.23529412 19:0.125 20:0.084745763 21:0.05 25:0.2 26:0.16666667 27:0.023255814 30:0.25 31:0.18181818 36:0.2 38:0.066666667 40:0.14285714 
-2.447491746809398 0:0.44481772 1:0.33787849 2:0.2834643 3:0.074049276 4:0.23593402 5:0.42013932 6:0.51240984 7:0.19495384 8:0.31504759 9:0.51162098 10:0.1227279 11:0.46013569 12:0.54447688 13:0.50224849 14:0.55501063 15:0.28884437 16:0.085106383 18:0.11764706 20:0.084745763 24:0.375 27:0.023255814 28:0.2 30:0.5 31:0.18181818 35:0.083333333 39:0.25 
-1.040967485296982 0:0.38343239 1:0.20680402 2:0.21363062 3:0.12788795 5:0.21039078 6:0.38132107 7:0.21653556 8:0.20481241 9:0.15932807 10:0.31040768 12:0.03185769 13:0.0067249662 14:0.035985394 15:0.027086315 16:0.085106383 17:0.060606061 18:0.11764706 19:0.125 20:0.033898305 23:0.14285714 28:0.2 29:0.16666667 34:0.16666667 36:0.1 37:0.33333333 38:0.066666667 39:0.125 40:0.14285714 
-4 0:0.56505501 1:0.48251629 2:0.615229 3:0.074049276 4:0.18813436 5:0.47851672 6:1 7:0.29217819 8:0.42074071 9:0.60026921 10:0.31695359 11:0.46674036 12:0.14978741 13:0.32540809 14:0.00022511351 15:0.18513341 16:0.063829787 18:0.29411765 19:0.125 20:0.16949153 25:0.2 26:0.16666667 27:0.023255814 29:0.16666667 30:0.25 31:0.18181818 32:0.33333333 34:0.16666667 35:0.083333333 38:0.066666667 39:0.5 41:0.33333333 
4 0:0.50171563 1:0.42541201 2:0.49480017 3:0.074049276 4:0.3249147 5:0.52384301 6:0.51240984 7:0.39445321 8:0.18715829 9:0.43417899 10:0.32668283 11:0.16942826 12:0.54962448 13:0.055090908 14:0.57005929 15:0.26956112 16:0.085106383 17:0.03030303 18:0.23529412 20:0.11864407 24:0.25 27:0.023255814 30:0.5 31:0.18181818 32:0.33333333 34:0.16666667 35:0.16666667 38:0.066666667 40:0.28571429 
4 0:0.38302029 1:0.19885589 2:0.12788795 3:0.074049276 4:0.027260217 5:0.25526283 6:0.53169367 7:0.14091413 8:0.11840438 9:0.35240606 10:0.13709093 11:0.34040911 12:0.16927858 13:0.3831889 14:0.18956162 15:0.11338557 16:0.10638298 17:0.03030303 18:0.058823529 20:0.06779661 25:0.1 27:0.023255814 28:0.2 30:0.25 31:0.090909091 33:0.5 34:0.16666667 37:0.33333333 38:0.066666667 39:0.25 
0.8597864597117887 0:0.55833165 1:0.59785318 2:1 3:0.074049276 4:0.14689024 5:0.45759354 6:0.81912678 7:0.49693474 8:0.63816463 9:0.52870012 10:0.54752115 11:0.29717218 12:0.21561195 13:0.058655474 14:0.029468252 15:0.086344011 16:0.042553191 18:0.35294118 19:0.125 20:0.084745763 21:0.1 25:0.2 26:0.16666667 29:0.33333333 30:0.25 31:0.090909091 36:0.1 40:0.14285714 42:0.16666667 
-4 0:0.67768861 1:0.44973526 2:0.12809941 3:0.074049276 4:0.42043289 5:0.459724 6:0.73251965 7:0.25743689 8:0.27645779 9:0.59244998 10:0.13346492 11:0.61787021 12:0.46614223 13:0.18077777 14:0.00088665987 15:0.35944144 16:0.17021277 17:0.03030303 18:0.58823529 19:0.25 20:0.38983051 21:0.2 24:0.125 25:0.4 26:0.33333333 27:0.069767442 28:0.2 29:0.33333333 30:0.25 31:0.18181818 33:0.5 35:0.16666667 36:0.3 40:0.28571429 42:0.33333333 
4 0:0.4682512 1:0.43610584 2:0.29860061 3:0.074049276 4:0.24580485 5:0.39928886 6:0.59945685 7:0.40155015 8:0.30214055 9:0.58048966 10:0.38862952 12:0.03185769 13:0.0067249662 14:0.035985394 15:0.27830528 16:0.063829787 18:0.11764706 20:0.050847458 21:0.05 24:0.125 25:0.1 28:0.2 30:0.25 31:0.18181818 35:0.083333333 36:0.1 38:0.066666667 
-4 0:0.568015 1:0.62003042 2:0.615229 3:0.074049276 4:0.23870873 5:0.57775616 6:0.62446735 7:0.50868187 8:0.33802233 9:0.54945518 10:0.52781326 11:0.2347118 12:0.12110784 13:0.2267431 14:0.066548853 15:0.31045235 16:0.063829787 18:0.35294118 19:0.25 20:0.084745763 21:0.05 25:0.1 27:0.046511628 29:0.16666667 30:0.25 31:0.27272727 38:0.066666667 42:0.33333333 
4 0:0.61196103 1:0.45671328 2:0.12788795 3:0.074049276 4:0.14167708 5:0.37887029 6:0.4679282 7:0.38523188 8:0.46725633 9:0.44107649 10:0.39033803 11:0.19594839 12:0.24718157 13:0.018784364 14:0.0067440769 15:0.10420869 16:0.063829787 18:0.47058824 19:0.375 20:0.27118644 21:0.3 23:0.14285714 25:0.1 26:0.16666667 29:0.5 30:0.25 34:0.16666667 35:0.083333333 37:0.33333333 38:0.066666667 39:0.25 40:0.57142857 
-4 0:0.48625972 1:0.62138984 2:1 3:0.074049276 4:0.10035879 5:0.55599238 6:0.59945685 7:0.52292888 8:0.2663469 9:0.24684985 10:0.41953385 12:0.03185769 13:0.0067249662 14:0.035985394 15:0.12544607 16:0.042553191 17:0.03030303 18:0.11764706 21:0.1 30:0.25 31:0.18181818 36:0.1 39:0.125 
-4 0:0.49802224 1:0.6052187 2:0.32634043 3:0.074049276 4:0.0063315997 5:0.55857067 6:0.81912678 7:0.64326292 8:0.34501592 9:0.24684985 10:0.41953385 12:0.03185769 13:0.0067249662 14:0.035985394 15:0.11744643 16:0.021276596 18:0.17647059 19:0.125 20:0.016949153 21:0.05 24:0.125 25:0.1 26:0.33333333 30:0.25 31:0.090909091 38:0.066666667 
-4 0:0.54739554 1:0.47179316 2:0.12788795 3:0.12788795 4:0.38993569 5:0.42200086 6:0.64880142 7:0.31902201 8:0.41721095 9:0.5456177 10:0.35834779 11:0.35372143 12:0.32591881 13:0.040465883 14:0.09238549 15:0.26639177 16:0.12765957 18:0.35294118 19:0.125 20:0.15254237 21:0.05 24:0.25 29:0.33333333 31:0.18181818 34:0.16666667 36:0.3 37:0.66666667 38:0.066666667 40:0.14285714 42:0.16666667 
0.1845200603088481 0:0.41773021 1:0.27584146 2:0.49480017 3:0.074049276 4:0.079403704 5:0.20450928 6:0.23102601 7:0.29682965 8:0.33802233 9:0.23409989 10:0.25985589 11:0.24935822 12:0.046132544 13:0.21690668 14:0.02742117 15:0.041686997 16:0.063829787 18:0.11764706 20:0.084745763 21:0.1 25:0.1 27:0.023255814 30:0.25 32:0.33333333 36:0.1 38:0.2 40:0.28571429 
-4 0:0.45489789 1:0.42503534 2:1 3:0.12788795 4:0.063130496 5:0.28899291 6:0.50188757 7:0.33576594 8:0.46023269 9:0.39791045 10:0.60788313 12:0.03185769 13:0.0067249662 14:0.035985394 15:0.085366028 16:0.042553191 18:0.11764706 20:0.033898305 25:0.2 29:0.16666667 31:0.090909091 35:0.083333333 36:0.1 37:0.33333333 38:0.066666667 39:0.125 
-4 0:0.52113429 1:0.54392667 2:0.074049276 3:0.074049276 4:0.23575455 5:0.46470036 6:1 7:0.33379475 8:0.51283636 9:0.67844155 10:0.42840944 11:0.66526125 12:0.23209749 13:0.74244815 14:0.25976559 15:0.26834238 16:0.063829787 18:0.17647059 19:0.125 20:0.06779661 21:0.05 25:0.1 30:0.5 31:0.27272727 35:0.083333333 36:0.1 38:0.13333333 
-4 0:0.70109097 1:0.6007835 2:0.615229 3:0.074049276 4:0.17225431 5:0.78760511 6:1 7:0.3672301 8:0.068558128 9:0.67107727 10:0.28665883 11:0.4156208 12:0.58041859 13:0.066739881 14:0.0050739027 15:0.28096579 16:0.063829787 17:0.03030303 18:0.58823529 19:0.625 20:0.23728814 21:0.05 24:0.375 25:0.2 26:0.33333333 28:0.2 29:0.66666667 30:0.5 31:0.27272727 38:0.13333333 40:0.14285714 
2.213280787408415 0:0.36647959 1:0.15993461 2:0.12788795 3:0.12788795 4:0.027015982 5:0.17614383 6:0.1989137 7:0.10908704 8:0.20481241 9:0.17605786 10:0.2291707 11:0.03404897 12:0.17761854 13:0.030434136 14:0.048339243 15:0.023055133 16:0.12765957 17:0.090909091 20:0.11864407 21:0.1 23:0.14285714 24:0.125 25:0.1 27:0.023255814 28:0.2 34:0.33333333 35:0.083333333 37:0.66666667 39:0.25 
-0.2383668306917822 0:0.5676005 1:0.66002011 2:0.73981352 3:0.12788795 4:0.070624584 5:0.58191822 6:0.73251965 7:0.57805537 8:0.50695297 9:0.83237233 10:0.31878505 11:0.61708856 12:0.32627612 13:0.68917319 14:0.36501595 15:0.16308046 16:0.042553191 18:0.35294118 19:0.375 20:0.06779661 25:0.2 26:0.16666667 29:0.16666667 31:0.18181818 34:0.16666667 37:0.33333333 39:0.125 40:0.14285714 42:0.16666667 
-2.238366774537937 0:0.53386263 1:0.51311614 2:0.615229 3:0.074049276 4:0.30107638 5:0.43359226 6:0.46958482 7:0.43838275 8:0.2663469 9:0.71735347 10:0.18353936 11:0.76888781 12:0.30645984 13:0.75874426 14:0.18396932 15:0.34999129 16:0.085106383 17:0.03030303 18:0.23529412 20:0.10169492 25:0.1 29:0.16666667 30:0.25 31:0.27272727 34:0.16666667 36:0.2 38:0.26666667 
-4 0:0.5111024 1:0.65015383 2:1 3:0.12788795 4:0.011919163 5:0.55725921 6:0.73251965 7:0.45358564 8:0.43345196 9:0.24684985 10:0.41953385 12:0.03185769 13:0.0067249662 14:0.035985394 15:0.14000403 16:0.021276596 18:0.17647059 19:0.125 20:0.016949153 21:0.05 29:0.16666667 31:0.18181818 35:0.083333333 37:0.33333333 38:0.066666667 39:0.125 
-3.031470608384634 0:0.48393449 1:0.37572283 2:0.25695295 3:0.074049276 4:0.18162539 5:0.42394764 6:0.66994818 7:0.31383734 8:0.18696251 9:0.51904355 10:0.30203105 11:0.41585382 12:0.11559559 13:0.41128523 14:0.012166413 15:0.1222677 16:0.10638298 17:0.03030303 18:0.23529412 19:0.125 20:0.13559322 21:0.05 24:0.25 25:0.1 29:0.16666667 30:0.25 31:0.090909091 33:0.5 36:0.3 37:0.33333333 39:0.125 41:0.66666667 
-2.126140169241139 0:0.60422677 1:0.56941123 2:0.29860061 3:0.074049276 4:0.36389903 5:0.67093526 6:1 7:0.30248541 8:0.39505795 9:0.63626828 10:0.46691775 11:0.30625229 12:0.42443031 13:0.2085972 14:0.13644092 15:0.29644625 16:0.10638298 18:0.29411765 19:0.25 20:0.15254237 21:0.05 24:0.375 25:0.1 27:0.023255814 29:0.16666667 30:0.5 31:0.36363636 32:0.33333333 34:0.33333333 
4 0:0.52537781 1:0.59310654 2:1 3:0.12788795 4:0.10035879 5:0.5214322 6:1 7:0.34808347 8:0.23700454 9:0.4380828 10:0.26604272 12:0.03185769 13:0.0067249662 14:0.035985394 15:0.15939654 16:0.042553191 17:0.03030303 18:0.17647059 19:0.125 20:0.050847458 21:0.05 24:0.125 27:0.023255814 31:0.27272727 37:0.33333333 38:0.13333333 39:0.125 
4 0:0.51246811 1:0.52227465 2:0.49480017 3:0.12788795 4:0.11227795 5:0.51366191 6:0.59945685 7:0.4848029 8:0.33782655 9:0.55157414 10:0.2355433 11:0.49384435 12:0.011067599 13:0.55287543 14:0.012751199 15:0.19126006 16:0.042553191 18:0.17647059 20:0.06779661 21:0.05 31:0.18181818 35:0.25 36:0.1 37:0.33333333 38:0.066666667 39:0.125 40:0.14285714 
4 0:0.61020301 1:0.60707147 2:0.615229 3:0.074049276 4:0.21076789 5:0.4731702 6:0.73251965 7:0.45488055 8:0.50695297 9:0.64144837 10:0.31087277 11:0.55417859 12:0.21822213 13:0.16414482 14:0.022187141 15:0.31203777 16:0.042553191 18:0.35294118 19:0.25 20:0.13559322 24:0.375 25:0.1 29:0.5 30:0.25 31:0.27272727 34:0.16666667 39:0.375 
-4 0:0.47734358 1:0.46109437 2:0.73981352 3:0.074049276 4:0.23773339 5:0.39805434 6:0.46958482 7:0.40003184 8:0.27337054 9:0.2972797 10:0.26043992 12:0.03185769 13:0.0067249662 14:0.035985394 15:0.16908913 16:0.085106383 17:0.03030303 18:0.17647059 20:0.050847458 21:0.05 24:0.125 26:0.16666667 29:0.16666667 30:0.25 31:0.090909091 34:0.33333333 36:0.1 38:0.066666667 
-4 0:0.58690753 1:0.62525689 2:0.4238179 3:0.12788795 4:0.15918681 5:0.51673227 6:0.81912678 7:0.54750926 8:0.40962482 9:0.59018213 10:0.34569668 11:0.30610579 12:0.21523413 13:0.12846778 14:0.042026854 15:0.18988117 16:0.063829787 17:0.03030303 18:0.35294118 19:0.375 20:0.10169492 21:0.05 24:0.125 25:0.2 26:0.16666667 29:0.33333333 31:0.18181818 34:0.33333333 37:0.33333333 42:0.16666667 
-4 0:0.68329563 1:0.40074111 2:0.21363062 3:0.12788795 4:0.29763778 5:0.70153676 6:0.81912678 7:0.18703202 8:0.11840438 9:0.54076209 10:0.19691926 11:0.35662525 12:0.55122899 13:0.034336137 14:0.037938887 15:0.33964126 16:0.27659574 17:0.12121212 18:0.64705882 19:0.5 20:0.50847458 21:0.1 24:0.5 25:0.2 26:0.33333333 27:0.093023256 28:0.2 29:0.33333333 30:0.25 31:0.27272727 34:0.5 35:0.083333333 36:0.3 37:0.33333333 38:0.066666667 39:0.375 40:0.42857143 42:0.16666667 
-4 0:0.60700807 1:0.88952807 2:0.49480017 3:0.074049276 4:0.10035879 5:0.73070119 6:1 7:0.89478771 8:0.69453011 9:0.67720517 10:0.95612058 12:0.03185769 13:0.0067249662 14:0.035985394 15:0.26216961 16:0.021276596 18:0.29411765 19:0.25 20:0.033898305 21:0.05 25:0.1 30:0.25 31:0.36363636 35:0.083333333 40:0.14285714 
4 0:0.52311696 1:0.44751277 2:0.29860061 3:0.12788795 4:0.23988071 5:0.57587109 6:1 7:0.35591257 8:0.11860016 9:0.58811473 10:0.24292513 11:0.40221386 12:0.23225224 13:0.20007981 14:0.015356149 15:0.17596844 16:0.10638298 17:0.03030303 18:0.35294118 19:0.375 20:0.13559322 24:0.125 25:0.1 27:0.023255814 28:0.4 29:0.33333333 31:0.18181818 35:0.16666667 36:0.1 37:0.33333333 40:0.14285714 42:0.16666667 
3.224482403560587 0:0.48465742 1:0.27649109 2:0.2834643 3:0.074049276 4:0.2333871 5:0.37044386 6:0.54138487 7:0.20827864 8:0.20481241 9:0.36024229 10:0.24207616 11:0.2728046 12:0.21615655 13:0.024042109 14:0.005315672 15:0.20871029 16:0.17021277 17:0.03030303 18:0.29411765 20:0.37288136 24:0.25 25:0.3 27:0.023255814 28:0.4 29:0.16666667 30:0.25 31:0.090909091 34:0.33333333 35:0.33333333 36:0.1 37:0.33333333 38:0.066666667 39:0.75 40:0.28571429 42:0.16666667 
4 0:0.45160521 1:0.35342351 2:0.32634043 3:0.12788795 4:0.18618383 5:0.38359875 6:0.64880142 7:0.22153353 8:0.31619315 9:0.34510576 10:0.32290733 11:0.20965 12:0.052045781 13:0.22539749 14:0.040556128 15:0.1084986 16:0.10638298 17:0.060606061 18:0.11764706 19:0.125 20:0.084745763 21:0.05 25:0.1 27:0.023255814 31:0.090909091 32:0.66666667 36:0.3 37:0.33333333 38:0.066666667 40:0.14285714 
1.88148095298854 0:0.45775162 1:0.38556831 2:0.29860061 3:0.12788795 4:0.010634078 5:0.47404689 6:0.51240984 7:0.23977049 8:0.23700454 9:0.3685397 10:0.1780775 11:0.17928387 12:0.43659985 13:0.2049979 14:0.48830944 15:0.19871742 16:0.085106383 17:0.060606061 18:0.11764706 20:0.06779661 24:0.375 27:0.046511628 31:0.18181818 36:0.1 37:0.33333333 38:0.066666667 39:0.125 
4 0:0.51557111 1:0.6103107 2:0.4238179 3:0.12788795 4:0.027940841 5:0.56236932 6:0.81912678 7:0.70832428 8:0.31619315 9:0.42923339 10:0.646938 12:0.03185769 13:0.0067249662 14:0.035985394 15:0.04273265 16:0.042553191 17:0.03030303 18:0.29411765 19:0.5 20:0.033898305 21:0.1 26:0.16666667 31:0.090909091 36:0.1 37:0.33333333 40:0.14285714 42:0.33333333 
-4 0:0.39583407 1:0.25416482 2:0.23699674 3:0.12788795 4:0.081700727 5:0.20952476 6:0.2887116 7:0.24572505 8:0.23700454 9:0.24684985 10:0.41953385 12:0.03185769 13:0.0067249662 14:0.035985394 15:0.052249591 16:0.063829787 17:0.03030303 18:0.058823529 20:0.016949153 24:0.125 26:0.16666667 27:0.023255814 35:0.083333333 36:0.1 37:0.33333333 38:0.066666667 39:0.125 
0.08435765748376584 0:0.488703 1:0.46289873 2:0.73981352 3:0.12788795 4:0.10889992 5:0.31431353 6:0.40135136 7:0.41484225 8:0.43345196 9:0.3561303 10:0.43467988 11:0.10030486 12:0.12532661 13:0.11765373 14:0.14044261 15:0.066700699 16:0.063829787 18:0.23529412 20:0.06779661 26:0.33333333 32:0.33333333 34:0.33333333 35:0.25 37:0.33333333 40:0.28571429 
4 0:0.56189004 1:0.40725251 2:0.12809941 3:0.12788795 4:0.28631385 5:0.52402065 6:0.64880142 7:0.32490788 8:0.33802233 9:0.6796105 10:0.26658406 11:0.5635587 12:0.37751795 13:0.12634719 14:0.030175831 15:0.25379363 16:0.10638298 18:0.29411765 19:0.125 20:0.25423729 21:0.2 25:0.1 27:0.046511628 31:0.18181818 32:0.33333333 36:0.2 37:0.33333333 38:0.2 39:0.375 40:0.42857143 
-1.269092365120503 0:0.56111897 1:0.74939836 2:1 3:0.074049276 4:0.37660577 5:0.6260273 6:0.81912678 7:0.58743903 8:0.49992933 9:0.62854259 10:0.89544584 12:0.03185769 13:0.0067249662 14:0.035985394 15:0.25438175 16:0.063829787 18:0.23529412 19:0.125 20:0.033898305 21:0.05 25:0.1 26:0.16666667 30:0.25 31:0.27272727 34:0.16666667 36:0.1 
-4 0:0.42304976 1:0.34766068 2:0.21363062 3:0.12788795 4:0.055751238 5:0.24245909 6:0.24825827 7:0.39843338 8:0.51079393 9:0.24684985 10:0.41953385 12:0.03185769 13:0.0067249662 14:0.035985394 15:0.015987231 16:0.042553191 18:0.058823529 20:0.016949153 21:0.15 25:0.2 36:0.1 37:0.33333333 40:0.14285714 
4 0:0.60805173 1:0.5759813 2:0.21363062 3:0.074049276 4:0.35285554 5:0.51974412 6:0.54138487 7:0.39086991 8:0.38360571 9:0.6693054 10:0.43623767 11:0.43215566 12:0.5267141 13:0.010726651 14:0.22110579 15:0.42801455 16:0.085106383 18:0.35294118 19:0.125 20:0.15254237 25:0.1 30:0.25 31:0.36363636 35:0.16666667 36:0.3 38:0.13333333 39:0.125 40:0.14285714 42:0.16666667 
4 0:0.51965648 1:0.46063109 2:1 3:0.074049276 4:0.10896375 5:0.43037258 6:0.81912678 7:0.23206184 8:0.18696251 9:0.45573317 10:0.33217407 11:0.29146041 12:0.14762987 13:0.054826482 14:0.12741077 15:0.12332308 16:0.063829787 17:0.03030303 18:0.17647059 19:0.125 20:0.11864407 25:0.4 26:0.16666667 30:0.25 31:0.18181818 34:0.16666667 35:0.083333333 37:0.33333333 39:0.375 
-4 0:0.43360064 1:0.38390686 2:0.12788795 3:0.12788795 4:0.014352783 5:0.38965243 6:0.64880142 7:0.53626574 8:0.23700454 9:0.24684985 10:0.41953385 12:0.03185769 13:0.0067249662 14:0.035985394 15:0.07839989 16:0.063829787 17:0.03030303 18:0.11764706 19:0.125 20:0.016949153 21:0.05 25:0.1 27:0.023255814 31:0.090909091 37:0.66666667 39:0.125 40:0.14285714 
-4 0:0.501261 1:0.46714742 2:0.49480017 3:0.074049276 4:0.095013313 5:0.52336293 6:0.81912678 7:0.29609701 8:0.19778877 9:0.39283109 10:0.47698829 11:0.21601937 12:0.18956651 13:0.24070976 14:0.18771738 15:0.1110577 16:0.085106383 17:0.060606061 18:0.29411765 19:0.25 20:0.084745763 21:0.1 26:0.16666667 27:0.023255814 28:0.2 29:0.16666667 30:0.25 31:0.090909091 36:0.1 39:0.125 40:0.28571429 
-4 0:0.45777743 1:0.50956453 2:0.4238179 3:0.12788795 4:0.010050305 5:0.39688955 6:0.64880142 7:0.55527575 8:0.42054493 9:0.24684985 10:0.41953385 12:0.03185769 13:0.0067249662 14:0.035985394 15:0.063971546 16:0.021276596 18:0.11764706 19:0.125 21:0.05 25:0.1 31:0.090909091 32:0.33333333 37:0.33333333 38:0.066666667 40:0.14285714 
-4 0:0.55797574 1:0.53585436 2:0.29860061 3:0.12788795 4:0.15606498 5:0.51813165 6:0.73251965 7:0.56598807 8:0.34501592 9:0.54847957 10:0.43816775 11:0.16220364 12:0.29069055 13:0.093653855 14:0.17074816 15:0.18464166 16:0.063829787 18:0.29411765 19:0.375 20:0.11864407 21:0.05 24:0.375 26:0.16666667 27:0.023255814 29:0.16666667 30:0.25 31:0.18181818 35:0.16666667 37:0.33333333 41:0.33333333 
-0.9120309382247825 0:0.4529483 1:0.37356746 2:0.49480017 3:0.12788795 4:0.042112599 5:0.34313076 6:0.51240984 7:0.35082966 8:0.33802233 9:0.46328069 10:0.18698709 11:0.40588438 12:0.19220782 13:0.45559907 14:0.21518645 15:0.11082423 16:0.063829787 18:0.11764706 20:0.06779661 21:0.1 24:0.375 27:0.023255814 31:0.090909091 36:0.1 37:0.33333333 38:0.066666667 40:0.14285714 
-4 0:0.50151837 1:0.61722917 2:0.32634043 3:0.074049276 4:0.048777714 5:0.53789752 6:0.73251965 7:0.74351187 8:0.63816463 9:0.24684985 10:0.41953385 12:0.03185769 13:0.0067249662 14:0.035985394 15:0.091155708 16:0.021276596 18:0.23529412 19:0.25 20:0.016949153 21:0.05 25:0.1 29:0.33333333 30:0.25 31:0.090909091 35:0.083333333 40:0.14285714 
-4 0:0.51777419 1:0.35214192 2:0.49480017 3:0.12788795 4:0.26627654 5:0.32295205 6:0.55164643 7:0.22368865 8:0.11860016 9:0.46692975 10:0.18633887 11:0.43319373 12:0.32419652 13:0.18959207 14:0.014728694 15:0.11183611 16:0.17021277 17:0.090909091 18:0.35294118 19:0.375 20:0.25423729 21:0.15 25:0.1 26:0.16666667 27:0.046511628 28:0.2 29:0.5 34:0.66666667 35:0.16666667 37:0.33333333 38:0.066666667 39:0.125 40:0.28571429 
1.614309030528304 0:0.61922548 1:0.69357935 2:0.2834643 3:0.12788795 4:0.35997517 5:0.86122172 6:1 7:0.48299788 8:0.39505795 9:0.91302354 10:0.35361052 11:0.64944401 12:0.91694666 13:0.39489035 14:0.79328616 15:0.38104242 16:0.085106383 18:0.29411765 19:0.25 20:0.10169492 21:0.05 24:0.125 27:0.046511628 31:0.45454545 36:0.1 37:0.33333333 38:0.066666667 39:0.125 
4 0:0.50576147 1:0.63180579 2:0.4238179 3:0.12788795 4:0.14327131 5:0.51982985 6:0.81912678 7:0.45239775 8:0.4878435 9:0.24684985 10:0.41953385 12:0.03185769 13:0.0067249662 14:0.035985394 15:0.090319093 16:0.042553191 18:0.17647059 19:0.125 20:0.016949153 21:0.1 26:0.16666667 29:0.16666667 31:0.090909091 32:0.33333333 34:0.16666667 37:0.33333333 
-1.453823078592505 0:0.35623027 1:0.15568357 2:0.12809941 3:0.074049276 4:0.15162337 5:0.17915317 6:0.15616102 7:0.063156955 8:0.11860016 9:0.23548379 10:0.14457274 11:0.20289604 12:0.19795957 13:0.077272766 14:0.0013901781 15:0.076634151 16:0.31914894 17:0.24242424 18:0.35294118 20:0.40677966 24:0.125 25:0.1 27:0.18604651 28:0.2 30:0.25 34:0.66666667 35:0.083333333 36:0.1 38:0.46666667 42:1 
-4 0:0.51530795 1:0.43320515 2:0.49480017 3:0.12788795 4:0.20651918 5:0.37985704 6:0.81912678 7:0.15675928 8:0.11860016 9:0.50543896 10:0.11494346 11:0.52899016 12:0.34198477 13:0.46603313 14:0.076199651 15:0.22224142 16:0.10638298 17:0.03030303 18:0.29411765 19:0.25 20:0.13559322 23:0.14285714 26:0.16666667 27:0.046511628 28:0.2 29:0.16666667 31:0.18181818 34:0.16666667 35:0.083333333 37:0.33333333 38:0.066666667 39:0.25 40:0.14285714 
-4 0:0.43234838 1:0.40972667 2:0.23699674 3:0.12788795 4:0.048777714 5:0.32054124 6:0.3319765 7:0.49062252 8:0.53446976 9:0.24684985 10:0.41953385 12:0.03185769 13:0.0067249662 14:0.035985394 15:0.044480079 16:0.021276596 18:0.11764706 21:0.05 29:0.33333333 35:0.083333333 37:0.33333333 38:0.066666667 39:0.125 
4 0:0.59902902 1:0.49863089 2:0.074049276 3:0.12788795 4:0.38617634 5:0.62450374 6:1 7:0.29810457 8:0.23680876 9:0.7123975 10:0.32755687 11:0.60360158 12:0.43150832 13:0.31373724 14:0.034456765 15:0.36233286 16:0.14893617 17:0.060606061 18:0.35294118 19:0.125 20:0.20338983 21:0.05 24:0.125 25:0.1 27:0.069767442 29:0.16666667 30:0.25 31:0.36363636 34:0.16666667 35:0.16666667 37:0.66666667 39:0.125 40:0.14285714 
-4 0:0.45880933 1:0.38821093 2:0.73981352 3:0.074049276 4:0.14641051 5:0.28882623 6:0.41858363 7:0.34189323 8:0.40260119 9:0.3216647 10:0.46136865 11:0.097654675 12:0.22869677 13:0.11472285 14:0.25596507 15:0.073764847 16:0.085106383 17:0.03030303 18:0.23529412 20:0.06779661 21:0.05 26:0.16666667 27:0.023255814 29:0.16666667 30:0.25 34:0.16666667 35:0.083333333 36:0.1 39:0.125 40:0.28571429 
-4 0:0.63192853 1:0.52734572 2:0.615229 3:0.074049276 4:0.22383538 5:0.42706864 6:0.73251965 7:0.37074164 8:0.33802233 9:0.55320744 10:0.34864447 11:0.25318936 12:0.65631474 13:0.06933466 14:0.061162312 15:0.32190593 16:0.085106383 17:0.03030303 18:0.35294118 19:0.125 20:0.22033898 21:0.15 24:0.25 25:0.1 27:0.023255814 29:0.5 30:0.25 31:0.27272727 34:0.33333333 35:0.083333333 38:0.13333333 39:0.125 
-4 0:0.48169734 1:0.28579359 2:0.12809941 3:0.074049276 4:0.29542985 5:0.29235155 6:0.46958482 7:0.16612064 8:0.23700454 9:0.44509863 10:0.17259914 11:0.421373 12:0.43860879 13:0.13872172 14:0.019969938 15:0.21630516 16:0.23404255 17:0.090909091 18:0.35294118 19:0.25 20:0.3220339 24:0.25 25:0.2 27:0.093023256 29:0.5 30:0.5 31:0.090909091 32:0.33333333 34:0.16666667 36:0.3 37:0.33333333 38:0.2 39:0.125 40:0.28571429 
4 0:0.48963302 1:0.46522234 2:0.32634043 3:0.074049276 4:0.14304254 5:0.54316726 6:0.59945685 7:0.26149161 8:0.33782655 9:0.4510054 10:0.47059933 11:0.25146135 12:0.12835532 13:0.28482015 14:0.14382738 15:0.22309125 16:0.063829787 18:0.17647059 20:0.06779661 21:0.1 25:0.1 27:0.023255814 30:0.25 31:0.18181818 37:0.33333333 38:0.13333333 40:0.14285714 
-4 0:0.55035977 1:0.49742694 2:0.2834643 3:0.12788795 4:0.049910308 5:0.52171375 6:1 7:0.27459487 8:0.31619315 9:0.66645418 10:0.1861167 11:0.56592837 12:0.46605385 13:0.42189974 14:0.19809414 15:0.1929562 16:0.085106383 17:0.03030303 18:0.23529412 19:0.125 20:0.13559322 23:0.14285714 25:0.1 31:0.27272727 34:0.16666667 35:0.25 36:0.2 37:0.33333333 38:0.066666667 39:0.125 42:0.16666667 
1.268573358359219 0:0.51138475 1:0.40993802 2:0.12788795 3:0.074049276 4:0.045807793 5:0.69734895 6:0.81912678 7:0.14057234 8:0.11840438 9:0.43658716 10:0.44287598 11:0.22193353 12:0.10658722 13:0.12005943 14:0.059251515 15:0.075319661 16:0.085106383 17:0.03030303 18:0.23529412 19:0.375 20:0.15254237 21:0.05 23:0.14285714 25:0.1 26:0.5 28:0.2 30:0.25 31:0.090909091 35:0.25 37:0.66666667 38:0.13333333 
-4 0:0.6625706 1:0.53302513 2:0.39902926 3:0.12788795 4:0.30434342 5:0.5563094 6:0.64880142 7:0.35340479 8:0.4812702 9:0.60019184 10:0.33698862 11:0.39608595 12:0.5192884 13:0.10451738 14:0.040974211 15:0.3272293 16:0.085106383 18:0.41176471 19:0.25 20:0.25423729 21:0.2 24:0.375 27:0.023255814 29:0.33333333 31:0.27272727 32:0.33333333 34:0.16666667 35:0.083333333 36:0.1 37:0.33333333 38:0.066666667 39:0.125 40:0.14285714 42:0.16666667 
4 0:0.58666138 1:0.51744608 2:0.22121681 3:0.12788795 4:0.22383538 5:0.54263253 6:0.64880142 7:0.32490788 8:0.23700454 9:0.5830579 10:0.45069452 11:0.27604826 12:0.31849523 13:0.038553042 14:0.014732715 15:0.32150372 16:0.085106383 17:0.03030303 18:0.35294118 19:0.25 20:0.16949153 21:0.15 27:0.046511628 31:0.27272727 34:0.16666667 35:0.083333333 37:0.33333333 38:0.2 40:0.28571429 42:0.16666667 
-4 0:0.61763205 1:0.50770026 2:1 3:0.074049276 4:0.41561533 5:0.48885177 6:1 7:0.29472534 8:0.31638894 9:0.58187695 10:0.23117058 11:0.47102485 12:0.74486191 13:0.21040099 14:0.17924045 15:0.33582981 16:0.14893617 17:0.03030303 18:0.35294118 19:0.125 20:0.22033898 25:0.3 27:0.046511628 29:0.16666667 30:0.25 31:0.36363636 34:0.33333333 35:0.25 36:0.2 38:0.066666667 41:0.33333333 
-4 0:0.49744563 1:0.51634071 2:0.4238179 3:0.12788795 4:0.010050305 5:0.43472488 6:0.59945685 7:0.56386086 8:0.42054493 9:0.50171865 10:0.48548946 12:0.03185769 13:0.0067249662 14:0.035985394 15:0.08490955 16:0.021276596 18:0.11764706 20:0.050847458 21:0.15 25:0.3 29:0.16666667 31:0.090909091 35:0.083333333 37:0.33333333 
4 0:0.50444094 1:0.47443027 2:1 3:0.12788795 4:0.2329609 5:0.37517573 6:0.46958482 7:0.46587 8:0.38084829 9:0.46148011 10:0.36622933 11:0.37924847 12:0.21141898 13:0.14715833 14:0.0048159455 15:0.22145433 16:0.063829787 18:0.23529412 20:0.084745763 23:0.14285714 27:0.023255814 29:0.16666667 31:0.18181818 35:0.083333333 36:0.1 37:0.33333333 38:0.066666667 39:0.25 42:0.16666667 
4 0:0.5602434 1:0.40519549 2:0.615229 3:0.12788795 4:0.52065099 5:0.50792916 6:0.73251965 7:0.24541481 8:0.23001484 9:0.44545958 10:0.20185919 11:0.27910443 12:0.68081894 13:0.065360562 14:0.0078068225 15:0.29816375 16:0.17021277 17:0.03030303 18:0.29411765 19:0.125 20:0.25423729 21:0.2 23:0.14285714 24:0.125 25:0.1 27:0.023255814 28:0.2 29:0.33333333 31:0.18181818 32:0.33333333 36:0.5 37:0.33333333 38:0.066666667 40:0.14285714 
-0.3477501265129299 0:0.46633183 1:0.38715108 2:0.21363062 3:0.12788795 4:0.18585528 5:0.32673709 6:0.4679282 7:0.3223516 8:0.19778877 9:0.60751149 10:0.23169044 11:0.5219473 12:0.29152682 13:0.55377499 14:0.26639166 15:0.14033371 16:0.10638298 17:0.03030303 18:0.29411765 19:0.25 20:0.084745763 24:0.125 26:0.33333333 28:0.2 29:0.16666667 36:0.3 37:0.33333333 38:0.066666667 40:0.28571429 
-4 0:0.42592812 1:0.33657151 2:0.2834643 3:0.12788795 4:0.024403088 5:0.29121233 6:0.38132107 7:0.24118336 8:0.31619315 9:0.14763971 10:0.29583409 12:0.03185769 13:0.0067249662 14:0.035985394 15:0.012685496 16:0.063829787 17:0.03030303 18:0.17647059 19:0.25 20:0.033898305 25:0.1 29:0.16666667 36:0.2 37:0.33333333 39:0.25 40:0.28571429 
-4 0:0.5098946 1:0.64600462 2:0.49480017 3:0.12788795 4:0.1204594 5:0.61432144 6:0.64880142 7:0.55575863 8:0.42054493 9:0.24684985 10:0.41953385 12:0.03185769 13:0.0067249662 14:0.035985394 15:0.14908084 16:0.042553191 18:0.17647059 19:0.125 20:0.016949153 21:0.1 25:0.1 31:0.18181818 36:0.1 37:0.33333333 40:0.14285714 
-4 0:0.54028333 1:0.42726281 2:0.49480017 3:0.12788795 4:0.10361825 5:0.48506774 6:0.73251965 7:0.12649566 8:0.11860016 9:0.5148879 10:0.25883237 11:0.38850974 12:0.26415214 13:0.090270778 14:0.015013339 15:0.16585773 16:0.10638298 17:0.03030303 18:0.35294118 19:0.375 20:0.18644068 21:0.05 23:0.14285714 24:0.125 25:0.1 27:0.023255814 28:0.2 29:0.16666667 30:0.25 31:0.18181818 35:0.25 36:0.1 37:0.33333333 40:0.42857143 
4 0:0.51899529 1:0.3947596 2:0.12788795 3:0.074049276 4:0.033168104 5:0.43643194 6:0.4650393 7:0.21764123 8:0.2879803 9:0.56188582 10:0.31824095 11:0.36129335 12:0.09073838 13:0.081854892 14:0.019122138 15:0.068024618 16:0.063829787 18:0.35294118 19:0.375 20:0.18644068 21:0.05 23:0.14285714 24:0.125 25:0.3 29:0.83333333 30:0.25 34:0.16666667 37:0.33333333 38:0.2 40:0.14285714 
-4 0:0.47232971 1:0.36772547 2:0.4238179 3:0.12788795 5:0.27667575 6:0.1989137 7:0.24911496 8:0.31619315 9:0.34196118 10:0.34699379 11:0.068373762 12:0.050878943 13:0.031315577 14:0.0013747292 16:0.042553191 17:0.03030303 20:0.11864407 21:0.4 25:0.1 32:0.33333333 36:0.1 37:0.33333333 38:0.066666667 39:0.125 
-4 0:0.51567187 1:0.47465957 2:0.45979556 3:0.074049276 4:0.24540696 5:0.48048196 6:0.81912678 7:0.28503887 8:0.13711626 9:0.56093776 10:0.22538789 11:0.51448189 12:0.11233501 13:0.44029472 14:0.034631913 15:0.2072872 16:0.10638298 17:0.03030303 18:0.35294118 19:0.375 20:0.10169492 24:0.25 26:0.16666667 27:0.023255814 30:0.75 31:0.18181818 36:0.1 40:0.28571429 42:0.16666667 
4 0:0.43834468 1:0.28447829 2:0.2834643 3:0.12788795 4:0.15720516 5:0.40843635 6:1 7:0.16888988 8:0.23720032 9:0.45339378 10:0.13157339 11:0.33724128 12:0.20837897 13:0.13868775 14:0.012657562 15:0.14749042 16:0.12765957 17:0.03030303 18:0.11764706 19:0.125 20:0.15254237 25:0.1 27:0.093023256 28:0.2 31:0.18181818 33:0.5 35:0.16666667 37:0.33333333 38:0.066666667 39:0.375 
-3.177935954564655 0:0.43727865 1:0.35098417 2:0.73981352 3:0.074049276 5:0.45603724 6:0.63825355 7:0.08302398 8:0.11860016 9:0.39738581 10:0.40947287 12:0.03185769 13:0.0067249662 14:0.035985394 15:0.030256861 16:0.063829787 17:0.03030303 18:0.17647059 19:0.125 20:0.050847458 21:0.05 23:0.28571429 26:0.33333333 27:0.023255814 28:0.2 30:0.25 35:0.083333333 41:0.33333333 
-4 0:0.46567929 1:0.49410877 2:0.12809941 3:0.074049276 4:0.038965038 5:0.48481533 6:0.64880142 7:0.65406948 8:0.39505795 9:0.24684985 10:0.41953385 12:0.03185769 13:0.0067249662 14:0.035985394 15:0.07638777 16:0.042553191 18:0.23529412 19:0.25 20:0.016949153 21:0.05 24:0.125 27:0.023255814 30:0.25 31:0.090909091 40:0.28571429 42:0.16666667 
2.196648085157491 0:0.4760041 1:0.45741308 2:0.45979556 3:0.12788795 4:0.075317181 5:0.35499115 6:0.53169367 7:0.47801048 8:0.49992933 9:0.46203141 10:0.48441074 12:0.03185769 13:0.0067249662 14:0.035985394 15:0.10676006 16:0.042553191 18:0.17647059 20:0.050847458 21:0.05 25:0.4 31:0.090909091 36:0.1 37:0.33333333 40:0.14285714 42:0.16666667 
4 0:0.52880392 1:0.4239112 2:0.32634043 3:0.074049276 4:0.17353959 5:0.40399982 6:0.53169367 7:0.27260147 8:0.32321679 9:0.55527971 10:0.30842693 11:0.53174055 12:0.40610479 13:0.15393657 14:0.12229147 15:0.27168329 16:0.085106383 17:0.03030303 18:0.29411765 20:0.16949153 21:0.05 24:0.125 25:0.3 29:0.16666667 30:0.25 31:0.18181818 34:0.16666667 37:0.66666667 38:0.13333333 39:0.125 42:0.33333333 
-3.098986433896832 0:0.46464238 1:0.36677954 2:0.2834643 3:0.074049276 4:0.030169925 5:0.40576507 6:0.51240984 7:0.32822082 8:0.38360571 9:0.47302372 10:0.36049735 11:0.24956769 12:0.36049959 13:0.26068261 14:0.2872962 15:0.1154908 16:0.042553191 18:0.17647059 20:0.10169492 24:0.5 30:0.25 31:0.090909091 35:0.083333333 36:0.1 38:0.066666667 39:0.25 40:0.28571429 
-4 0:0.43465804 1:0.38753941 2:0.32634043 3:0.074049276 4:0.10035879 5:0.33033214 6:0.59945685 7:0.40238162 8:0.2663469 9:0.24684985 10:0.41953385 12:0.03185769 13:0.0067249662 14:0.035985394 15:0.092537006 16:0.042553191 17:0.03030303 18:0.058823529 20:0.016949153 21:0.05 25:0.3 30:0.25 31:0.090909091 36:0.1 38:0.066666667 
4 0:0.46761431 1:0.41020972 2:0.615229 3:0.12788795 4:0.19235491 5:0.42394764 6:0.66994818 7:0.25979277 8:0.31638894 9:0.41932566 10:0.36334012 11:0.23442624 12:0.315253 13:0.26598074 14:0.35269694 15:0.11421827 16:0.085106383 17:0.03030303 18:0.17647059 19:0.125 20:0.06779661 21:0.05 24:0.125 25:0.1 27:0.023255814 29:0.16666667 31:0.090909091 36:0.2 37:0.33333333 39:0.125 41:0.33333333 
4 0:0.46128296 1:0.41695506 2:0.22121681 3:0.12788795 4:0.14340178 5:0.35517637 6:0.51240984 7:0.3244093 8:0.33802233 9:0.29384006 10:0.3979782 12:0.03185769 13:0.0067249662 14:0.035985394 15:0.18454651 16:0.063829787 18:0.17647059 20:0.050847458 24:0.25 26:0.16666667 27:0.023255814 31:0.090909091 34:0.16666667 37:0.33333333 38:0.13333333 41:0.33333333 
-4 0:0.47421904 1:0.45250723 2:0.49480017 3:0.074049276 4:0.010050305 5:0.3330025 6:0.4679282 7:0.41480458 8:0.37069868 9:0.46152067 10:0.380131 12:0.03185769 13:0.0067249662 14:0.035985394 15:0.060837827 16:0.021276596 18:0.23529412 19:0.125 20:0.050847458 21:0.05 25:0.2 26:0.16666667 29:0.16666667 30:0.25 38:0.13333333 40:0.14285714 41:0.33333333 
-4 0:0.72797868 1:0.59534397 3:0.074049276 4:0.20932254 5:0.71171907 6:1 7:0.32013284 8:0.26244392 9:0.89430775 10:0.31831059 11:0.71783542 12:0.26487361 13:0.083520001 14:0.02042604 15:0.36904695 16:0.063829787 18:0.52941176 19:0.625 20:0.27118644 24:0.375 25:0.2 26:0.16666667 28:0.2 29:0.33333333 30:0.25 31:0.45454545 35:0.083333333 36:0.1 38:0.2 39:0.25 40:0.14285714 
-1.280076948428999 0:0.34484838 1:0.10348533 3:0.074049276 4:0.066763791 5:0.14212938 6:0.13225916 7:0.11758239 8:0.19778877 9:0.14671371 10:0.13446839 11:0.053556266 12:0.40114829 13:0.065953708 14:0.44869016 15:0.044943362 16:0.14893617 17:0.12121212 18:0.11764706 20:0.06779661 27:0.069767442 28:0.2 30:0.25 33:1 36:0.2 40:0.28571429 
-4 0:0.45446547 1:0.49656134 2:0.29860061 3:0.12788795 5:0.40839305 6:0.58222459 7:0.65333872 8:0.33782655 9:0.24684985 10:0.41953385 12:0.03185769 13:0.0067249662 14:0.035985394 15:0.10026325 16:0.021276596 18:0.11764706 24:0.125 29:0.16666667 31:0.090909091 32:0.33333333 37:0.33333333 38:0.066666667 39:0.125 
4 0:0.58263726 1:0.4457618 2:0.4238179 3:0.074049276 4:0.19243228 5:0.47135535 6:0.59945685 7:0.26603958 8:0.33100204 9:0.43622872 10:0.26272331 11:0.22257769 12:0.49960763 13:0.047586238 14:0.15276823 15:0.14673181 16:0.085106383 18:0.35294118 19:0.25 20:0.23728814 21:0.2 24:0.25 25:0.1 26:0.16666667 29:0.16666667 30:0.25 31:0.090909091 34:0.16666667 35:0.083333333 36:0.2 38:0.066666667 39:0.25 40:0.42857143 
4 0:0.5797435 1:0.61011161 2:0.22121681 3:0.074049276 4:0.081411152 5:0.58741749 6:0.64880142 7:0.47395928 8:0.61718814 9:0.58731679 10:0.49121728 11:0.20717346 12:0.43928663 13:0.14763859 14:0.36755506 15:0.19418987 16:0.042553191 18:0.35294118 19:0.25 20:0.10169492 21:0.05 25:0.2 29:0.33333333 30:0.25 31:0.18181818 34:0.16666667 35:0.16666667 40:0.28571429 
4 0:0.42516869 1:0.30416152 2:1 3:0.074049276 4:0.18143643 5:0.25749642 6:0.39388292 7:0.252013 8:0.34501592 9:0.42310217 10:0.15454887 11:0.31372612 12:0.2449718 13:0.35367976 14:0.27415341 15:0.11436678 16:0.085106383 18:0.11764706 20:0.06779661 21:0.05 24:0.375 25:0.1 27:0.046511628 30:0.5 31:0.090909091 40:0.14285714 
-4 0:0.45466244 1:0.49733465 2:0.4238179 3:0.074049276 4:0.10035879 5:0.42839026 6:0.64880142 7:0.56415313 8:0.27337054 9:0.24684985 10:0.41953385 12:0.03185769 13:0.0067249662 14:0.035985394 15:0.085492878 16:0.042553191 17:0.03030303 18:0.11764706 19:0.125 21:0.1 25:0.1 30:0.25 31:0.090909091 34:0.16666667 40:0.14285714 
-2.117373002649142 0:0.65299124 1:0.59934862 2:0.32634043 3:0.12788795 4:0.15918681 5:0.56143686 6:1 7:0.43234425 8:0.37069868 9:0.6023788 10:0.37551078 11:0.37295137 12:0.61404888 13:0.021480877 14:0.30529448 15:0.30198734 16:0.042553191 18:0.47058824 19:0.375 20:0.18644068 24:0.25 25:0.2 26:0.16666667 29:0.5 30:0.25 31:0.27272727 35:0.083333333 37:0.33333333 38:0.2 40:0.14285714 
4 0:0.41504646 1:0.28988359 2:0.4238179 3:0.12788795 4:0.017130362 5:0.2410571 6:0.51240984 7:0.24276262 8:0.23700454 9:0.17410659 10:0.186155 12:0.03185769 13:0.0067249662 14:0.035985394 15:0.11089507 16:0.085106383 17:0.060606061 18:0.058823529 20:0.050847458 21:0.05 24:0.125 25:0.1 27:0.046511628 31:0.090909091 33:0.5 34:0.16666667 37:0.33333333 38:0.066666667 
-4 0:0.49303206 1:0.39239135 2:0.21363062 3:0.074049276 4:0.14913651 5:0.39628751 6:0.64880142 7:0.20161292 8:0.18715829 9:0.56349612 10:0.23085942 11:0.38525668 12:0.46789426 13:0.16078438 14:0.19856967 15:0.18403684 16:0.14893617 17:0.090909091 18:0.29411765 19:0.375 20:0.13559322 23:0.14285714 27:0.046511628 29:0.16666667 30:0.25 31:0.18181818 34:0.33333333 36:0.2 38:0.13333333 40:0.28571429 
-4 0:0.53968942 1:0.47787677 2:0.39902926 3:0.12788795 4:0.069569355 5:0.50727331 6:0.59945685 7:0.45552872 8:0.23700454 9:0.68003928 10:0.39062965 11:0.45560937 12:0.70095024 13:0.29144088 14:0.45134254 15:0.21217497 16:0.063829787 17:0.03030303 18:0.23529412 20:0.13559322 21:0.1 24:0.125 27:0.046511628 31:0.18181818 32:0.66666667 33:0.5 35:0.083333333 37:0.33333333 39:0.125 40:0.28571429 
4 0:0.52422147 1:0.46959249 2:0.32634043 3:0.074049276 4:0.15694054 5:0.42788317 6:0.55164643 7:0.26946825 8:0.2879803 9:0.49403614 10:0.25651132 11:0.33139122 12:0.15181992 13:0.20586142 14:0.022123852 15:0.17375699 16:0.085106383 17:0.03030303 18:0.29411765 19:0.125 20:0.11864407 25:0.3 26:0.16666667 27:0.023255814 29:0.33333333 30:0.25 31:0.090909091 32:0.33333333 34:0.33333333 38:0.066666667 40:0.14285714 
0.8786775337911292 0:0.62754083 1:0.43995542 2:0.4238179 3:0.12788795 4:0.2295087 5:0.49613736 6:0.62446735 7:0.2364851 8:0.27645779 9:0.58057832 10:0.2231902 11:0.53020622 12:0.23384694 13:0.18229918 14:0.012619348 15:0.24209331 16:0.14893617 17:0.03030303 18:0.58823529 19:0.625 20:0.3220339 21:0.05 24:0.25 25:0.2 27:0.023255814 28:0.2 29:0.16666667 31:0.18181818 32:0.33333333 34:0.33333333 35:0.25 36:0.2 37:0.33333333 40:0.71428571 42:0.33333333 
-4 0:0.47948013 1:0.39814762 2:0.615229 3:0.12788795 4:0.18810154 5:0.32529517 6:0.59945685 7:0.28575726 8:0.23720032 9:0.38155132 10:0.30115438 11:0.22835251 12:0.22209473 13:0.22733194 14:0.003126987 15:0.15727852 16:0.085106383 17:0.03030303 18:0.23529412 20:0.10169492 21:0.05 23:0.14285714 24:0.25 27:0.046511628 29:0.33333333 31:0.090909091 36:0.1 37:0.33333333 38:0.066666667 40:0.14285714 
4 0:0.4566233 1:0.36491616 2:0.074049276 3:0.12788795 4:0.22081819 5:0.45180218 6:0.53169367 7:0.48441075 8:0.2663469 9:0.50544484 10:0.25775592 11:0.41994361 12:0.078034109 13:0.45067304 14:0.023958498 15:0.20682504 16:0.14893617 17:0.12121212 18:0.11764706 20:0.084745763 25:0.3 30:0.25 31:0.18181818 36:0.5 37:0.33333333 
-0.3921158740387717 0:0.50406479 1:0.39736465 2:0.12809941 3:0.12788795 4:0.071570839 5:0.42332248 6:0.64880142 7:0.1789211 8:0.35649868 9:0.46194178 10:0.34553737 11:0.27030875 12:0.27987004 13:0.16372842 14:0.07693178 15:0.10665849 16:0.085106383 18:0.29411765 19:0.25 20:0.15254237 21:0.15 27:0.069767442 31:0.090909091 33:0.5 35:0.16666667 37:0.33333333 38:0.066666667 40:0.57142857 
-4 0:0.4936121 1:0.35600378 2:0.074049276 3:0.074049276 4:0.39149483 5:0.29486875 6:0.53169367 7:0.21942062 8:0.068558128 9:0.55772192 10:0.18892199 11:0.61059249 12:0.44971662 13:0.25400795 14:0.14947857 15:0.32731631 16:0.14893617 17:0.03030303 18:0.29411765 20:0.18644068 21:0.05 23:0.14285714 25:0.3 27:0.023255814 28:0.2 29:0.16666667 30:0.75 31:0.18181818 34:0.16666667 36:0.1 39:0.125 40:0.14285714 42:0.16666667 
-4 0:0.58723024 1:0.56498087 2:0.21363062 3:0.12788795 4:0.36687792 5:0.69229332 6:1 7:0.3195514 8:0.23700454 9:0.75278541 10:0.32291863 11:0.55490061 12:0.60902844 13:0.45650492 14:0.34848968 15:0.32393124 16:0.14893617 17:0.090909091 18:0.29411765 19:0.125 20:0.13559322 21:0.05 24:0.125 25:0.1 27:0.023255814 31:0.36363636 34:0.33333333 36:0.3 37:0.33333333 40:0.14285714 
-4 0:0.54609213 1:0.38751738 2:0.2834643 3:0.074049276 4:0.29753675 5:0.36923301 6:0.53169367 7:0.25711835 8:0.11860016 9:0.5798563 10:0.12177857 11:0.59661808 12:0.49104134 13:0.29173989 14:0.0017880855 15:0.33309617 16:0.10638298 17:0.03030303 18:0.35294118 19:0.25 20:0.25423729 25:0.6 26:0.16666667 27:0.069767442 28:0.2 29:0.16666667 30:0.25 31:0.18181818 38:0.13333333 39:0.375 40:0.14285714 42:0.16666667 
-4 0:0.55937887 1:0.45641845 2:0.12809941 3:0.074049276 4:0.23477538 5:0.51547756 6:0.81912678 7:0.3014535 8:0.11860016 9:0.86063195 10:0.2892909 11:0.62738788 12:0.50016242 13:0.29021319 14:0.3119684 15:0.24102617 16:0.12765957 17:0.03030303 18:0.35294118 19:0.25 20:0.18644068 24:0.125 26:0.33333333 27:0.069767442 28:0.2 29:0.16666667 30:0.25 31:0.18181818 32:0.33333333 34:0.16666667 35:0.25 39:0.125 42:0.16666667 
-4 0:0.61542316 1:0.56394362 3:0.12788795 4:0.43749 5:0.61123298 6:1 7:0.40131272 8:0.34841921 9:0.7210739 10:0.32771575 11:0.64808575 12:0.360913 13:0.1904573 14:0.027954804 15:0.3538182 16:0.12765957 18:0.41176471 19:0.25 20:0.16949153 21:0.05 23:0.14285714 25:0.1 26:0.33333333 27:0.023255814 28:0.2 29:0.16666667 31:0.27272727 34:0.5 37:0.33333333 39:0.125 40:0.14285714 
4 0:0.48821745 1:0.52678192 2:1 3:0.074049276 4:0.010050305 5:0.51853697 6:0.62446735 7:0.27103732 8:0.2663469 9:0.32807746 10:0.52081215 12:0.03185769 13:0.0067249662 14:0.035985394 15:0.13576673 16:0.042553191 17:0.03030303 18:0.17647059 19:0.125 20:0.033898305 24:0.125 25:0.1 30:0.25 31:0.18181818 35:0.083333333 36:0.1 38:0.066666667 42:0.16666667 
-4 0:0.42039167 1:0.29222636 2:0.32634043 3:0.074049276 4:0.13782937 5:0.27709547 6:0.59945685 7:0.25893635 8:0.21942217 9:0.32447651 10:0.18160646 11:0.29512903 12:0.19635371 13:0.33311294 14:0.21981973 15:0.14683439 16:0.085106383 17:0.03030303 18:0.11764706 20:0.06779661 21:0.05 25:0.1 28:0.2 30:0.25 31:0.090909091 34:0.16666667 36:0.1 38:0.13333333 39:0.125 42:0.16666667 
-4 0:0.49759628 1:0.3344677 2:0.21363062 3:0.12788795 4:0.075317181 5:0.40373125 6:0.64880142 7:0.15283255 8:0.31638894 9:0.47596373 10:0.17102652 11:0.3009162 12:0.21796672 13:0.24269478 14:0.045780402 15:0.12643378 16:0.14893617 17:0.12121212 18:0.29411765 19:0.25 20:0.23728814 21:0.15 25:0.1 27:0.046511628 31:0.090909091 34:0.16666667 36:0.3 37:0.33333333 38:0.2 39:0.25 40:0.57142857 
4 0:0.51702805 1:0.47752663 2:1 3:0.074049276 4:0.16616033 5:0.32197302 6:0.64880142 7:0.36800605 8:0.42780361 9:0.43991352 10:0.31957801 11:0.30757061 12:0.28734006 13:0.28001869 14:0.23376021 15:0.16690967 16:0.063829787 18:0.17647059 19:0.125 20:0.10169492 21:0.1 23:0.14285714 24:0.125 25:0.3 30:0.25 31:0.18181818 36:0.2 40:0.14285714 
3.746284673370725 0:0.55990694 1:0.41601437 2:0.73981352 3:0.12788795 4:0.23282858 5:0.43699853 6:0.62446735 7:0.26804186 8:0.18715829 9:0.52606017 10:0.10299339 11:0.39659648 12:0.53278889 13:0.28722157 14:0.038088139 15:0.20724501 16:0.12765957 17:0.090909091 18:0.47058824 19:0.25 20:0.23728814 21:0.05 24:0.25 25:0.2 26:0.33333333 27:0.046511628 29:0.16666667 30:0.25 31:0.090909091 36:0.1 37:0.66666667 38:0.066666667 39:0.125 40:0.28571429 42:0.33333333 
-3.768348977510817 0:0.39258621 1:0.22275585 2:0.21363062 3:0.12788795 4:0.010050305 5:0.19136714 6:0.18168144 7:0.20301396 8:0.31619315 9:0.22001592 10:0.25623931 11:0.081845318 12:0.1405017 13:0.097239028 14:0.1574017 15:0.010329788 16:0.063829787 17:0.03030303 20:0.06779661 21:0.1 25:0.1 32:0.33333333 36:0.2 37:0.33333333 38:0.26666667 
4 0:0.47449246 1:0.42739443 2:0.4238179 3:0.12788795 4:0.12809659 5:0.3694876 6:0.4679282 7:0.4290606 8:0.39505795 9:0.26577135 10:0.39193848 11:0.2290598 12:0.23600492 13:0.26004591 14:0.26413237 15:0.093028601 16:0.063829787 18:0.17647059 19:0.125 20:0.06779661 21:0.15 24:0.125 25:0.1 26:0.33333333 27:0.046511628 37:0.33333333 40:0.14285714 
-2.331482204693114 0:0.53555309 1:0.31952521 2:0.4238179 3:0.074049276 4:0.32386692 5:0.37035594 6:0.64880142 7:0.19644828 8:0.23720032 9:0.44409646 10:0.18287455 11:0.39219246 12:0.34437873 13:0.072448244 14:0.025900984 15:0.22901654 16:0.23404255 17:0.090909091 18:0.47058824 19:0.25 20:0.38983051 21:0.15 25:0.1 26:0.16666667 27:0.1627907 29:0.16666667 30:0.5 31:0.090909091 34:0.16666667 35:0.25 36:0.1 38:0.066666667 39:0.375 40:0.28571429 42:0.5 
-4 0:0.52344474 1:0.76738317 2:0.22121681 3:0.12788795 4:0.13299223 5:0.68674245 6:0.73251965 7:0.7733592 8:0.57651248 9:0.24684985 10:0.41953385 12:0.03185769 13:0.0067249662 14:0.035985394 15:0.1208056 16:0.042553191 18:0.29411765 19:0.5 29:0.16666667 31:0.18181818 34:0.16666667 37:0.33333333 40:0.28571429 
4 0:0.45909803 1:0.41095023 2:0.22121681 3:0.074049276 4:0.18340895 5:0.29572849 6:0.51240984 7:0.38677741 8:0.27337054 9:0.30050128 10:0.31034912 12:0.03185769 13:0.0067249662 14:0.035985394 15:0.1883456 16:0.085106383 17:0.03030303 18:0.23529412 19:0.125 20:0.050847458 21:0.05 24:0.125 28:0.2 29:0.33333333 30:0.5 31:0.090909091 34:0.16666667 42:0.16666667 
4 0:0.64324973 1:0.4805443 2:0.2834643 3:0.074049276 4:0.51678672 5:0.56782627 6:0.59945685 7:0.29870078 8:0.23700454 9:0.70985054 10:0.083594688 11:0.83182924 12:0.57621132 13:0.49677427 14:0.0024385635 15:0.62946647 16:0.17021277 17:0.060606061 18:0.35294118 20:0.28813559 21:0.2 24:0.125 25:0.4 27:0.069767442 28:0.2 30:0.5 31:0.45454545 36:0.1 37:0.33333333 39:0.125 40:0.14285714 
-0.5718092207835973 0:0.76880465 1:0.46425567 2:0.12809941 3:0.12788795 4:0.7689538 5:0.67268914 6:1 7:0.22514297 8:0.11860016 9:0.68978417 10:0.12045892 11:0.39138624 12:0.55576504 13:0.039191933 14:0.013767496 15:0.65304301 16:0.27659574 17:0.090909091 18:0.70588235 19:0.375 20:0.50847458 21:0.2 23:0.14285714 24:0.125 25:0.1 27:0.11627907 28:0.4 31:0.54545455 34:0.16666667 35:0.33333333 36:0.4 37:0.33333333 39:0.125 40:0.85714286 
-4 0:0.47386506 1:0.3101433 2:0.21363062 3:0.074049276 4:0.1864104 5:0.30254995 6:0.53169367 7:0.23581239 8:0.31638894 9:0.41965484 10:0.13006052 11:0.2813017 12:0.48335212 13:0.080500383 14:0.25622701 15:0.16688648 16:0.12765957 17:0.03030303 18:0.23529412 20:0.22033898 21:0.05 23:0.14285714 24:0.125 25:0.1 27:0.069767442 29:0.16666667 30:0.25 31:0.090909091 32:0.33333333 35:0.16666667 36:0.2 38:0.2 42:0.33333333 
-4 0:0.44878433 1:0.27567869 2:0.22121681 3:0.12788795 4:0.34787244 5:0.45389598 6:0.53169367 7:0.15286052 8:0.23720032 9:0.58952658 10:0.14223741 11:0.56707095 12:0.2805768 13:0.072670866 14:0.028886307 15:0.25376847 16:0.19148936 17:0.060606061 18:0.17647059 20:0.22033898 25:0.1 27:0.11627907 31:0.18181818 34:0.33333333 35:0.083333333 36:0.1 37:0.33333333 38:0.2 39:0.375 40:0.14285714 
-4 0:0.50688003 1:0.45607299 2:0.73981352 3:0.074049276 4:0.17707735 5:0.43699853 6:0.62446735 7:0.33533459 8:0.18715829 9:0.52606017 10:0.27506805 11:0.39659648 12:0.53278889 13:0.37618993 14:0.4065218 15:0.14596478 16:0.063829787 17:0.03030303 18:0.29411765 19:0.125 20:0.10169492 24:0.25 25:0.2 26:0.16666667 27:0.023255814 29:0.16666667 30:0.25 31:0.090909091 36:0.1 39:0.125 42:0.33333333 
4 0:0.71380106 1:0.41669874 2:0.615229 3:0.12788795 4:0.55213453 5:0.38056052 6:0.54138487 7:0.28606457 8:0.23720032 9:0.60912496 10:0.21258275 11:0.54086917 12:0.40106887 13:0.027814035 14:0.031363773 15:0.47887889 16:0.25531915 17:0.060606061 18:0.70588235 19:0.25 20:0.52542373 21:0.05 24:0.375 25:0.3 26:0.16666667 27:0.046511628 28:0.2 29:0.66666667 30:0.25 31:0.27272727 32:0.33333333 34:0.16666667 35:0.16666667 36:0.5 37:0.66666667 38:0.066666667 39:0.375 40:0.42857143 42:0.16666667 
-4 0:0.51030018 1:0.39399725 2:0.21363062 3:0.074049276 4:0.13288837 5:0.41780401 6:0.55164643 7:0.32567726 8:0.46023269 9:0.42020722 10:0.30925395 11:0.25322358 12:0.15770727 13:0.11162369 14:0.01640928 15:0.052232748 16:0.10638298 18:0.35294118 19:0.375 20:0.16949153 21:0.05 25:0.4 26:0.16666667 29:0.16666667 30:0.25 34:0.16666667 36:0.3 39:0.125 40:0.28571429 41:0.33333333 42:0.16666667 
-4 0:0.40811705 1:0.25382497 3:0.074049276 4:0.14031654 5:0.27193811 6:0.38132107 7:0.26512036 8:0.19778877 9:0.40691101 10:0.13034627 11:0.36177627 12:0.14568302 13:0.39266972 14:0.0042096732 15:0.07648102 16:0.10638298 17:0.03030303 18:0.23529412 19:0.125 20:0.084745763 25:0.1 28:0.4 29:0.16666667 30:0.25 35:0.083333333 36:0.2 39:0.125 40:0.42857143 
-4 0:0.61377969 1:0.61362465 2:0.4238179 3:0.074049276 4:0.15513459 5:0.70038979 6:0.81912678 7:0.21044674 8:0.39486217 9:0.56093776 10:0.19008388 11:0.47266047 12:0.17334004 13:0.1216074 14:0.10380823 15:0.19977018 16:0.085106383 18:0.35294118 19:0.5 20:0.13559322 21:0.1 24:0.375 26:0.16666667 27:0.023255814 29:0.33333333 30:0.25 31:0.27272727 34:0.16666667 37:0.33333333 
-4 0:0.61845569 1:0.56884615 2:0.23699674 3:0.12788795 4:0.23226402 5:0.67848051 6:0.81912678 7:0.15883037 8:0.26244392 9:0.54017228 10:0.17301312 11:0.50958549 12:0.43164942 13:0.26686873 14:0.024161515 15:0.32580563 16:0.085106383 18:0.52941176 19:0.75 20:0.16949153 24:0.125 26:0.16666667 27:0.023255814 28:0.4 29:0.33333333 31:0.27272727 35:0.083333333 37:0.33333333 38:0.066666667 39:0.125 40:0.28571429 42:0.16666667 
-4 0:0.50226588 1:0.30239516 2:0.12809941 3:0.074049276 4:0.24021729 5:0.43570298 6:0.59945685 7:0.12393156 8:0.11860016 9:0.45893576 10:0.15810241 11:0.2744866 12:0.39050344 13:0.026684026 14:0.099071349 15:0.36794066 16:0.17021277 17:0.03030303 18:0.17647059 20:0.33898305 21:0.2 24:0.125 25:0.3 27:0.093023256 28:0.4 30:0.25 31:0.27272727 34:0.16666667 38:0.53333333 
4 0:0.5015138 1:0.52752122 2:0.4238179 3:0.12788795 4:0.10947459 5:0.42706864 6:0.54138487 7:0.48567185 8:0.43345196 9:0.45616244 10:0.38302058 12:0.03185769 13:0.0067249662 14:0.035985394 15:0.1247938 16:0.042553191 18:0.17647059 20:0.050847458 21:0.1 24:0.125 25:0.1 29:0.33333333 31:0.090909091 34:0.16666667 35:0.083333333 37:0.33333333 
-3.188542828860151 0:0.63854909 1:0.57729791 2:1 3:0.074049276 4:0.18511016 5:0.67213864 6:1 7:0.39188523 8:0.43482725 9:0.61630024 10:0.30839034 11:0.40726029 12:0.38265759 13:0.24491984 14:0.015452076 15:0.1269601 16:0.085106383 18:0.41176471 19:0.375 20:0.18644068 21:0.1 23:0.14285714 24:0.375 26:0.16666667 27:0.023255814 29:0.16666667 30:0.25 31:0.27272727 32:0.33333333 34:0.33333333 41:0.33333333 42:0.16666667 
-4 0:0.47185171 1:0.36678714 2:0.23699674 3:0.12788795 4:0.13539575 5:0.31622681 6:0.53169367 7:0.25830812 8:0.33782655 9:0.44330502 10:0.26455953 11:0.28403427 12:0.39825112 13:0.19656982 14:0.24680667 15:0.14250387 16:0.063829787 18:0.17647059 20:0.11864407 21:0.05 24:0.125 25:0.2 27:0.023255814 29:0.16666667 31:0.090909091 35:0.083333333 36:0.1 37:0.33333333 38:0.2 42:0.16666667 
4 0:0.46175254 1:0.33508115 2:0.29860061 3:0.074049276 4:0.28982279 5:0.26183892 6:0.4679282 7:0.1828332 8:0.2879803 9:0.46689288 10:0.22353341 11:0.48991241 12:0.26437736 13:0.32707952 14:0.043010372 15:0.17808771 16:0.12765957 17:0.03030303 18:0.23529412 19:0.125 20:0.13559322 23:0.14285714 24:0.125 26:0.16666667 27:0.046511628 30:0.25 31:0.090909091 34:0.33333333 35:0.083333333 36:0.1 38:0.13333333 40:0.28571429 
4 0:0.45487675 1:0.30439733 2:0.32634043 3:0.074049276 4:0.12476188 5:0.33808948 6:0.64880142 7:0.28236604 8:0.29857296 9:0.45414464 10:0.30354168 11:0.2769847 12:0.23217824 13:0.25856413 14:0.20001406 15:0.1175772 16:0.085106383 18:0.11764706 19:0.125 20:0.16949153 21:0.1 23:0.14285714 25:0.4 27:0.023255814 30:0.25 31:0.090909091 36:0.1 37:0.33333333 38:0.13333333 39:0.25 40:0.14285714 
4 0:0.54487933 1:0.4873857 2:0.29860061 3:0.074049276 4:0.12663074 5:0.4941983 6:1 7:0.39850516 8:0.33802233 9:0.45759523 10:0.27104954 11:0.29250279 12:0.24538475 13:0.042420403 14:0.066967124 15:0.23391659 16:0.063829787 18:0.17647059 19:0.125 20:0.13559322 21:0.1 24:0.125 25:0.2 27:0.046511628 30:0.25 31:0.27272727 35:0.083333333 38:0.066666667 39:0.25 
-4 0:0.50211038 1:0.49639639 2:0.73981352 3:0.074049276 4:0.17195727 5:0.60032674 6:0.81912678 7:0.20625102 8:0.18715829 9:0.39229612 10:0.39808084 11:0.21602542 12:0.23479753 13:0.24563097 14:0.26278304 15:0.16989666 16:0.085106383 17:0.03030303 18:0.23529412 19:0.125 20:0.06779661 21:0.05 24:0.125 26:0.16666667 27:0.069767442 30:0.25 31:0.18181818 38:0.066666667 40:0.14285714 
4 0:0.52328686 1:0.36808926 2:0.4238179 3:0.12788795 4:0.11070806 5:0.42680328 6:0.64880142 7:0.134223 8:0.23700454 9:0.48150666 10:0.23433269 11:0.27871482 12:0.22787579 13:0.028671674 14:0.039080087 15:0.10029296 16:0.14893617 17:0.090909091 18:0.35294118 19:0.375 20:0.23728814 21:0.15 24:0.25 25:0.2 27:0.046511628 29:0.16666667 30:0.25 31:0.090909091 34:0.16666667 36:0.2 37:0.33333333 39:0.125 40:0.42857143 42:0.16666667 
4 0:0.67267543 1:0.5004208 2:1 3:0.12788795 4:0.27779336 5:0.55285731 6:1 7:0.27286633 8:0.20481241 9:0.55605089 10:0.37947179 11:0.33348607 12:0.47576939 13:0.041069456 14:0.043844755 15:0.24056882 16:0.12765957 17:0.03030303 18:0.58823529 19:0.625 20:0.30508475 21:0.05 24:0.125 25:0.1 26:0.16666667 28:0.2 29:0.16666667 31:0.27272727 34:0.5 35:0.25 36:0.1 37:0.33333333 38:0.13333333 39:0.125 40:0.57142857 42:0.16666667 
-3.433089190390205 0:0.41968684 1:0.3026367 2:0.22121681 3:0.12788795 4:0.087448554 5:0.29875009 6:0.4679282 7:0.38449503 8:0.30214055 9:0.29772904 10:0.37349541 12:0.03185769 13:0.0067249662 14:0.035985394 15:0.073800819 16:0.085106383 17:0.03030303 18:0.17647059 19:0.25 20:0.050847458 23:0.14285714 25:0.1 26:0.16666667 28:0.2 34:0.33333333 35:0.083333333 37:0.33333333 40:0.28571429 
4 0:0.54709148 1:0.65278207 2:0.4238179 3:0.074049276 5:0.7268535 6:1 7:0.69447103 8:0.2879803 9:0.49488912 10:0.41111098 12:0.03185769 13:0.0067249662 14:0.035985394 15:0.17549881 16:0.021276596 18:0.17647059 19:0.125 20:0.050847458 21:0.1 25:0.2 30:0.25 31:0.27272727 38:0.13333333 
3.193338803185523 0:0.41552202 1:0.30479483 2:0.23699674 3:0.12788795 4:0.11115755 5:0.26599415 6:0.53169367 7:0.29292596 8:0.33782655 9:0.11667755 10:0.25722906 12:0.03185769 13:0.0067249662 14:0.035985394 15:0.10153727 16:0.063829787 18:0.058823529 20:0.033898305 25:0.1 31:0.090909091 33:0.5 34:0.16666667 36:0.1 37:0.33333333 38:0.13333333 39:0.125 
4 0:0.58084308 1:0.58074449 2:1 3:0.074049276 4:0.069353399 5:0.46145418 6:0.81912678 7:0.34189865 8:0.46094768 9:0.64654211 10:0.38280397 11:0.27813315 12:0.48438007 13:0.10049096 14:0.22552016 15:0.17794961 16:0.042553191 18:0.23529412 19:0.125 20:0.11864407 21:0.15 24:0.25 25:0.1 26:0.33333333 30:0.25 31:0.18181818 35:0.083333333 36:0.1 38:0.066666667 
-4 0:0.42963167 1:0.34788089 2:0.21363062 3:0.12788795 4:0.16041251 5:0.28303487 6:0.59945685 7:0.26933337 8:0.23700454 9:0.17853043 10:0.33435007 12:0.03185769 13:0.0067249662 14:0.035985394 15:0.10967705 16:0.10638298 17:0.060606061 18:0.11764706 20:0.033898305 21:0.05 27:0.023255814 31:0.090909091 34:0.16666667 36:0.2 37:0.33333333 39:0.125 40:0.14285714 
-4 0:0.61752314 1:0.56733855 3:0.12788795 4:0.13299223 5:0.68674245 6:0.73251965 7:0.33966899 8:0.43884434 9:0.61447723 10:0.35749312 11:0.44371405 12:0.43212713 13:0.3014547 14:0.070737308 15:0.2480852 16:0.042553191 18:0.41176471 19:0.5 20:0.16949153 21:0.1 24:0.125 25:0.1 28:0.2 29:0.16666667 31:0.27272727 32:0.33333333 37:0.33333333 38:0.13333333 39:0.125 40:0.28571429 42:0.16666667 
-4 0:0.42393645 1:0.37670032 2:0.23699674 3:0.12788795 4:0.032633438 5:0.28712803 6:0.4679282 7:0.49040773 8:0.53446976 9:0.24684985 10:0.41953385 12:0.03185769 13:0.0067249662 14:0.035985394 15:0.03738053 16:0.021276596 18:0.11764706 19:0.125 24:0.125 26:0.16666667 35:0.083333333 37:0.33333333 38:0.066666667 39:0.125 40:0.14285714 
-4 0:0.59015043 1:0.46993647 2:0.4238179 3:0.074049276 4:0.14917116 5:0.54694016 6:0.73251965 7:0.28809412 8:6.7434766e-17 9:0.52046274 10:0.11517186 11:0.45033998 12:0.53436974 13:0.013600137 14:0.00015751329 15:0.22629 16:0.085106383 17:0.03030303 18:0.47058824 19:0.5 20:0.22033898 21:0.15 25:0.1 26:0.5 27:0.023255814 28:0.4 29:0.16666667 30:0.25 31:0.090909091 35:0.083333333 38:0.13333333 39:0.125 40:0.28571429 42:0.16666667 
-4 0:0.44155854 1:0.34511072 2:0.4238179 3:0.12788795 4:0.11998607 5:0.2441693 6:0.29760285 7:0.30092012 8:0.38104408 9:0.36654446 10:0.38242455 11:0.27968143 12:0.047582948 13:0.31602918 14:0.053559329 15:0.061482481 16:0.063829787 18:0.23529412 19:0.125 20:0.06779661 21:0.05 24:0.125 25:0.1 27:0.046511628 29:0.16666667 37:0.33333333 39:0.125 40:0.28571429 42:0.16666667 
4 0:0.58133803 1:0.50884013 2:0.24843782 3:0.12788795 4:0.29224982 5:0.56017003 6:0.59945685 7:0.33234785 8:0.39486217 9:0.78314753 10:0.26425798 11:0.63265772 12:0.44540446 13:0.50236823 14:0.23847456 15:0.31039051 16:0.085106383 18:0.23529412 20:0.16949153 21:0.2 23:0.14285714 24:0.375 31:0.27272727 36:0.2 37:0.66666667 39:0.125 40:0.14285714 
4 0:0.5381711 1:0.37762224 2:0.12788795 3:0.074049276 4:0.17835291 5:0.46238806 6:0.73251965 7:0.20320465 8:0.068558128 9:0.62152356 10:0.2810715 11:0.35532687 12:0.37693495 13:0.11194067 14:0.040865794 15:0.10890137 16:0.14893617 17:0.090909091 18:0.35294118 19:0.25 20:0.25423729 21:0.15 25:0.4 27:0.046511628 28:0.2 29:0.5 30:0.25 31:0.090909091 34:0.33333333 35:0.083333333 37:0.33333333 39:0.125 40:0.28571429 
4 0:0.49231663 1:0.53929943 2:1 3:0.12788795 4:0.10035879 5:0.33578258 6:0.53169367 7:0.40908502 8:0.32321679 9:0.33521549 10:0.52971217 12:0.03185769 13:0.0067249662 14:0.035985394 15:0.14276141 16:0.042553191 17:0.03030303 18:0.11764706 20:0.033898305 25:0.3 31:0.18181818 34:0.16666667 35:0.16666667 37:0.33333333 
-4 0:0.78996439 1:0.59523962 2:1 3:0.074049276 4:0.42743969 5:0.58322968 6:1 7:0.37516674 8:0.13711626 9:0.6846218 10:0.31706978 11:0.67361247 12:0.70951246 13:0.084682891 14:0.013788606 15:0.48023797 16:0.12765957 17:0.03030303 18:0.64705882 19:0.375 20:0.33898305 21:0.1 24:0.375 25:0.2 26:0.5 27:0.046511628 29:0.16666667 30:0.5 31:0.45454545 34:0.16666667 36:0.1 38:0.13333333 39:0.125 40:0.28571429 
-4 0:0.4697601 1:0.41557088 2:0.24843782 3:0.074049276 4:0.065479086 5:0.35883643 6:0.38132107 7:0.42144025 8:0.54506242 9:0.32594505 10:0.47046738 11:0.10408505 12:0.17188884 13:0.12183431 14:0.19247875 15:0.086424311 16:0.021276596 18:0.23529412 19:0.125 20:0.06779661 23:0.28571429 26:0.16666667 29:0.16666667 30:0.25 32:0.33333333 35:0.083333333 39:0.25 40:0.14285714 42:0.16666667 
-4 0:0.55014081 1:0.34461305 2:0.25695295 3:0.12788795 4:0.42494525 5:0.40401238 6:0.53169367 7:0.25705435 8:0.11860016 9:0.50426561 10:0.14540708 11:0.46159855 12:0.43613483 13:0.087035417 14:0.0040508708 15:0.38133084 16:0.23404255 17:0.12121212 18:0.41176471 20:0.3559322 21:0.1 24:0.125 25:0.1 27:0.11627907 28:0.2 29:0.5 30:0.25 31:0.18181818 32:0.33333333 33:0.5 34:0.33333333 35:0.16666667 36:0.1 37:0.33333333 38:0.13333333 40:0.28571429 
-4 0:0.54889201 1:0.47436362 2:0.12788795 3:0.12788795 4:0.1437062 5:0.51428396 6:0.73251965 7:0.32567263 8:0.39505795 9:0.54418839 10:0.30157257 11:0.41441509 12:0.51307325 13:0.1902467 14:0.33787032 15:0.16131945 16:0.063829787 18:0.29411765 19:0.125 20:0.15254237 21:0.1 24:0.25 25:0.2 26:0.16666667 27:0.023255814 29:0.33333333 31:0.090909091 32:0.33333333 37:0.66666667 38:0.066666667 40:0.14285714 
-4 0:0.42036342 1:0.3195788 2:0.615229 3:0.074049276 4:0.00074845711 5:0.1944079 6:0.20210447 7:0.31728297 8:0.30645665 9:0.16877832 10:0.32219069 12:0.03185769 13:0.0067249662 14:0.035985394 15:0.036127223 16:0.021276596 18:0.17647059 20:0.033898305 25:0.1 29:0.16666667 30:0.25 33:0.5 38:0.2 40:0.28571429 
0.5361024478971154 0:0.50971327 1:0.59242283 3:0.074049276 4:0.42153578 5:0.6978392 6:0.59945685 7:0.46871039 8:0.37069868 9:0.14346819 10:0.29063285 12:0.03185769 13:0.0067249662 14:0.035985394 15:0.33764399 16:0.085106383 18:0.17647059 20:0.033898305 21:0.05 25:0.1 28:0.2 30:0.25 31:0.27272727 34:0.16666667 36:0.1 
4 0:0.48551933 1:0.36550941 2:0.2834643 3:0.074049276 4:0.079512401 5:0.40390887 6:0.55164643 7:0.27423673 8:0.34501592 9:0.32681786 10:0.32396229 11:0.16359379 12:0.17646474 13:0.027125458 14:0.0012947271 15:0.086185157 16:0.063829787 18:0.23529412 19:0.125 20:0.15254237 21:0.1 24:0.125 25:0.3 26:0.16666667 27:0.023255814 29:0.33333333 30:0.5 38:0.066666667 39:0.25 40:0.14285714 
-3.238574613098968 0:0.47063928 1:0.47310418 3:0.074049276 4:0.33370981 5:0.49613736 6:0.62446735 7:0.35307014 8:0.19778877 9:0.20853993 10:0.37176728 12:0.03185769 13:0.0067249662 14:0.035985394 15:0.26808096 16:0.085106383 17:0.03030303 18:0.23529412 19:0.125 20:0.033898305 25:0.1 27:0.023255814 28:0.2 30:0.25 31:0.18181818 36:0.1 40:0.14285714 42:0.16666667 
4 0:0.46919203 1:0.31082553 2:0.73981352 3:0.12788795 4:0.010050305 5:0.26895704 6:0.4679282 7:0.11331162 8:0.18715829 9:0.41713853 10:0.25515759 11:0.24004651 12:0.19547803 13:0.069485569 14:0.097235146 15:0.042629654 16:0.085106383 17:0.060606061 18:0.23529412 19:0.125 20:0.20338983 23:0.14285714 24:0.375 25:0.2 26:0.16666667 27:0.023255814 29:0.16666667 30:0.25 32:0.33333333 34:0.16666667 35:0.083333333 37:0.33333333 38:0.13333333 39:0.125 40:0.28571429 
-4 0:0.54847048 1:0.36388013 2:0.22121681 3:0.074049276 4:0.23237651 5:0.3280872 6:0.53169367 7:0.22023743 8:0.21942217 9:0.52084204 10:0.21473025 11:0.49448951 12:0.38676579 13:0.041004249 14:0.068664389 15:0.17985048 16:0.14893617 17:0.060606061 18:0.47058824 19:0.375 20:0.30508475 21:0.05 25:0.4 27:0.023255814 28:0.2 30:0.25 31:0.090909091 32:0.33333333 34:0.5 35:0.25 37:0.33333333 38:0.066666667 40:0.71428571 41:0.33333333 42:0.16666667 
-4 0:0.55688329 1:0.43766834 2:0.4238179 3:0.074049276 4:0.061108945 5:0.40399982 6:0.62446735 7:0.34811917 8:0.37069868 9:0.5461498 10:0.32523004 11:0.30441765 12:0.40316582 13:0.12124924 14:0.058770146 15:0.1342893 16:0.042553191 18:0.35294118 19:0.125 20:0.20338983 21:0.15 24:0.25 25:0.1 27:0.023255814 29:0.16666667 30:0.25 31:0.090909091 32:0.33333333 35:0.16666667 38:0.066666667 39:0.125 42:0.66666667 
4 0:0.64577973 1:0.52839706 2:0.45979556 3:0.12788795 4:0.043641918 5:0.70021514 6:0.81912678 7:0.18784857 8:0.23720032 9:0.74934885 10:0.28196391 11:0.49155965 12:0.44136457 13:0.1096957 14:0.1520467 15:0.20910695 16:0.085106383 17:0.03030303 18:0.41176471 19:0.375 20:0.23728814 21:0.15 24:0.25 26:0.16666667 27:0.069767442 29:0.16666667 31:0.27272727 32:0.33333333 35:0.083333333 37:0.33333333 38:0.066666667 39:0.25 40:0.14285714 42:0.16666667 
-4 0:0.40722967 1:0.2794728 2:0.32634043 3:0.074049276 4:0.10616795 5:0.25661324 6:0.356987 7:0.30500695 8:0.33802233 9:0.26561083 10:0.44292589 12:0.03185769 13:0.0067249662 14:0.035985394 15:0.039231471 16:0.063829787 18:0.11764706 19:0.125 20:0.033898305 21:0.05 24:0.125 25:0.1 27:0.023255814 29:0.16666667 30:0.25 34:0.16666667 38:0.066666667 42:0.16666667 
-4 0:0.4911367 1:0.4689792 2:0.4238179 3:0.12788795 5:0.40240963 6:0.59945685 7:0.47647407 8:0.33782655 9:0.51319037 10:0.28116977 11:0.35469401 12:0.080187876 13:0.39898681 14:0.089997325 15:0.11151371 16:0.021276596 18:0.11764706 20:0.06779661 21:0.2 24:0.125 29:0.16666667 31:0.090909091 37:0.33333333 38:0.13333333 39:0.125 
4 0:0.47057178 1:0.55979685 2:0.29860061 3:0.12788795 4:0.10035879 5:0.4553665 6:0.81912678 7:0.5467427 8:0.49245875 9:0.24684985 10:0.41953385 12:0.03185769 13:0.0067249662 14:0.035985394 15:0.10601149 16:0.021276596 18:0.17647059 19:0.125 23:0.14285714 24:0.125 26:0.16666667 31:0.090909091 37:0.33333333 39:0.125 40:0.14285714 
4 0:0.55460774 1:0.39815529 2:0.22121681 3:0.074049276 4:0.33769739 5:0.54263253 6:1 7:0.12684379 8:0.13711626 9:0.62648423 10:0.15572802 11:0.49144285 12:0.18018075 13:0.21771159 14:0.018583807 15:0.28967371 16:0.19148936 17:0.060606061 18:0.41176471 19:0.5 20:0.25423729 21:0.05 23:0.14285714 24:0.125 26:0.16666667 27:0.093023256 28:0.2 30:0.5 31:0.27272727 34:0.16666667 35:0.16666667 36:0.1 38:0.066666667 40:0.28571429 42:0.16666667 
4 0:0.42065471 1:0.25409252 2:0.2834643 3:0.12788795 4:0.044162481 5:0.33212271 6:0.38132107 7:0.048635435 8:0.11860016 9:0.3542989 10:0.23610537 11:0.2621749 12:0.10635821 13:0.19176473 14:0.0059194799 15:0.038081645 16:0.12765957 17:0.12121212 18:0.17647059 19:0.125 20:0.15254237 21:0.1 24:0.125 25:0.1 27:0.046511628 28:0.2 29:0.16666667 30:0.25 32:0.33333333 35:0.083333333 36:0.1 37:0.33333333 39:0.125 40:0.14285714 42:0.16666667 
-1.745951919047615 0:0.54301844 1:0.50649219 2:0.39902926 3:0.074049276 4:0.21263675 5:0.71533663 6:1 7:0.20911208 8:0.33802233 9:0.47118829 10:0.39499509 11:0.34584435 12:0.47096504 13:0.18400624 14:0.091955058 15:0.2024379 16:0.085106383 18:0.29411765 19:0.375 20:0.11864407 23:0.14285714 27:0.046511628 30:0.25 31:0.27272727 32:0.33333333 35:0.083333333 36:0.1 38:0.13333333 40:0.28571429 
4 0:0.5967899 1:0.51353873 2:0.4238179 3:0.12788795 4:0.41112029 5:0.61780087 6:0.81912678 7:0.32207821 8:0.19778877 9:0.73579481 10:0.063745969 11:0.88905553 12:0.69454346 13:0.57574874 14:0.066203846 15:0.39029369 16:0.12765957 17:0.03030303 18:0.41176471 19:0.25 20:0.18644068 21:0.1 25:0.1 26:0.16666667 27:0.023255814 28:0.4 29:0.16666667 31:0.27272727 35:0.083333333 36:0.2 37:0.33333333 38:0.066666667 41:0.33333333 42:0.16666667 
4 0:0.46376013 1:0.42376306 2:1 3:0.12788795 4:0.048777714 5:0.25307245 6:0.46958482 7:0.29128985 8:0.41721095 9:0.48654074 10:0.32588567 12:0.03185769 13:0.0067249662 14:0.035985394 15:0.081480981 16:0.042553191 18:0.17647059 19:0.125 20:0.050847458 24:0.25 25:0.1 29:0.16666667 31:0.090909091 36:0.1 37:0.33333333 38:0.13333333 40:0.14285714 
-4 0:0.4666801 1:0.431788 2:0.12809941 3:0.12788795 4:0.12829963 5:0.43857257 6:0.59945685 7:0.31542924 8:0.32321679 9:0.38329742 10:0.5452058 12:0.03185769 13:0.0067249662 14:0.035985394 15:0.12862065 16:0.063829787 17:0.03030303 18:0.17647059 20:0.050847458 21:0.05 23:0.14285714 25:0.1 27:0.023255814 29:0.16666667 31:0.090909091 34:0.16666667 35:0.083333333 37:0.33333333 42:0.16666667 
4 0:0.48681449 1:0.52249778 2:0.52521981 3:0.074049276 4:0.004302478 5:0.41574276 6:0.4650393 7:0.43977942 8:0.33100204 9:0.21415079 10:0.37876315 12:0.03185769 13:0.0067249662 14:0.035985394 15:0.050499877 16:0.021276596 18:0.23529412 19:0.125 20:0.033898305 21:0.05 25:0.2 26:0.16666667 29:0.33333333 30:0.25 39:0.125 41:0.33333333 
-4 0:0.65401105 1:0.49286733 2:0.4238179 3:0.12788795 4:0.51314985 5:0.49315917 6:0.81912678 7:0.40517795 8:0.31619315 9:0.48597739 10:0.32598562 11:0.40693313 12:0.23296337 13:0.077407677 14:0.019654746 15:0.38674119 16:0.14893617 17:0.060606061 18:0.41176471 19:0.25 20:0.28813559 21:0.15 23:0.14285714 24:0.125 25:0.3 26:0.33333333 27:0.023255814 28:0.2 29:0.16666667 31:0.27272727 32:0.33333333 34:0.16666667 36:0.3 37:0.33333333 38:0.066666667 42:0.16666667 
-1.452703243723838 0:0.74753439 1:0.50259282 2:0.4238179 3:0.074049276 4:0.0231178 5:0.48835812 6:0.81912678 7:0.41797873 8:0.46094768 9:0.57728669 10:0.39033203 11:0.24110459 12:0.25356316 13:0.030125975 14:0.001990487 15:0.088510543 16:0.021276596 18:0.29411765 19:0.25 20:0.40677966 21:0.85 24:0.125 26:0.33333333 30:0.25 31:0.090909091 35:0.33333333 38:0.066666667 39:0.25 40:0.28571429 
2.894363378233205 0:0.48730282 1:0.52398897 2:0.21363062 3:0.074049276 4:0.058828019 5:0.60882217 6:0.59945685 7:0.56276724 8:0.19778877 9:0.30146032 10:0.48762469 12:0.03185769 13:0.0067249662 14:0.035985394 15:0.20991179 16:0.063829787 17:0.03030303 18:0.17647059 20:0.033898305 21:0.05 25:0.1 28:0.2 29:0.16666667 30:0.25 31:0.18181818 36:0.1 39:0.125 
-4 0:0.44239348 1:0.41411349 2:0.49480017 3:0.074049276 4:0.010050305 5:0.28345499 6:0.38132107 7:0.45467282 8:0.37069868 9:0.24684985 10:0.41953385 12:0.03185769 13:0.0067249662 14:0.035985394 15:0.022949252 16:0.021276596 18:0.17647059 19:0.125 20:0.016949153 21:0.05 25:0.2 29:0.16666667 30:0.25 39:0.125 40:0.28571429 
-1.696119477604297 0:0.5220056 1:0.41292075 2:1 3:0.074049276 4:0.093313526 5:0.41215585 6:0.66994818 7:0.27103732 8:0.38360571 9:0.56008242 10:0.3473964 11:0.45905499 12:0.1655194 13:0.17571066 14:0.009048584 15:0.11764396 16:0.085106383 18:0.23529412 19:0.25 20:0.16949153 24:0.375 25:0.4 27:0.023255814 30:0.25 31:0.18181818 34:0.16666667 35:0.083333333 36:0.1 39:0.125 41:0.33333333 42:0.16666667 
-4 0:0.60485598 1:0.46092662 2:0.45979556 3:0.12788795 4:0.057006633 5:0.55707554 6:1 7:0.24476946 8:0.33100204 9:0.49825275 10:0.23710345 11:0.39651241 12:0.35172071 13:0.17810235 14:0.066193172 15:0.22447168 16:0.10638298 17:0.03030303 18:0.35294118 19:0.125 20:0.25423729 21:0.05 24:0.25 25:0.3 27:0.023255814 29:0.16666667 30:0.25 31:0.27272727 34:0.16666667 35:0.16666667 36:0.1 37:0.33333333 39:0.375 41:0.33333333 42:0.16666667 
4 0:0.58969315 1:0.54444707 2:0.29860061 3:0.12788795 4:0.10444412 5:0.49728119 6:0.64880142 7:0.52073536 8:0.31619315 9:0.57660169 10:0.28052505 11:0.42481451 12:0.60679725 13:0.14648965 14:0.18906274 15:0.28491129 16:0.063829787 17:0.03030303 18:0.35294118 19:0.125 20:0.15254237 24:0.25 25:0.2 26:0.33333333 29:0.16666667 31:0.18181818 35:0.083333333 36:0.1 37:0.66666667 38:0.066666667 39:0.125 40:0.14285714 
4 0:0.51913966 1:0.50809392 2:0.4238179 3:0.074049276 4:0.052567199 5:0.39596054 6:0.59945685 7:0.57057178 8:0.2663469 9:0.56792992 10:0.40048667 11:0.34870171 12:0.068859239 13:0.2960033 14:0.075529911 15:0.10298697 16:0.063829787 17:0.03030303 18:0.17647059 19:0.125 20:0.084745763 21:0.2 24:0.25 26:0.16666667 29:0.16666667 30:0.25 31:0.090909091 36:0.2 
-4 0:0.50081885 1:0.49316957 2:0.615229 3:0.074049276 4:0.077186039 5:0.49662346 6:0.55164643 7:0.31333578 8:0.43364775 9:0.37786291 10:0.49199088 11:0.0054005992 12:0.30746072 13:0.012697576 14:0.34398859 15:0.060947112 16:0.042553191 18:0.29411765 19:0.375 20:0.06779661 25:0.1 26:0.33333333 27:0.023255814 29:0.16666667 30:0.25 35:0.25 40:0.28571429 
-4 0:0.49178978 1:0.31968156 2:0.4238179 3:0.12788795 4:0.26798068 5:0.26312567 6:0.59945685 7:0.20911208 8:0.33802233 9:0.31399929 10:0.20358666 11:0.24495073 12:0.32008374 13:0.060759349 14:0.0084044492 15:0.18893091 16:0.12765957 18:0.17647059 19:0.125 20:0.25423729 21:0.15 24:0.125 26:0.16666667 27:0.11627907 31:0.090909091 35:0.41666667 37:0.33333333 38:0.2 39:0.125 40:0.14285714 
4 0:0.42966923 1:0.30318473 2:0.25695295 3:0.074049276 4:0.065801543 5:0.26205031 6:0.24825827 7:0.34272699 8:0.48186609 9:0.25996596 10:0.3419154 11:0.10436976 12:0.087168036 13:0.10247955 14:0.034108204 15:0.029034319 16:0.042553191 18:0.11764706 20:0.084745763 21:0.1 24:0.125 25:0.2 30:0.25 33:0.5 34:0.16666667 38:0.066666667 39:0.125 40:0.28571429 
4 0:0.45117414 1:0.44427826 2:0.29860061 3:0.12788795 4:0.0063315997 5:0.4293423 6:0.73251965 7:0.32328244 8:0.33782655 9:0.24684985 10:0.41953385 12:0.03185769 13:0.0067249662 14:0.035985394 15:0.056730734 16:0.042553191 18:0.17647059 19:0.25 20:0.016949153 24:0.25 27:0.023255814 29:0.16666667 31:0.090909091 37:0.33333333 38:0.066666667 42:0.16666667 
4 0:0.61737861 1:0.47657019 2:0.45979556 3:0.074049276 4:0.028140804 5:0.64756 6:1 7:0.32565794 8:0.38360571 9:0.55539394 10:0.35271446 11:0.37089305 12:0.18409372 13:0.016184523 14:0.0014156023 15:0.13354101 16:0.042553191 18:0.47058824 19:0.25 20:0.25423729 21:0.15 29:0.16666667 30:0.25 31:0.18181818 34:0.16666667 35:0.16666667 38:0.2 39:0.5 40:0.28571429 42:0.5 
-4 0:0.49479298 1:0.47811425 2:0.45979556 3:0.074049276 4:0.14491139 5:0.4682669 6:0.81912678 7:0.31570419 8:0.2879803 9:0.49736479 10:0.16749412 11:0.53558314 12:0.1066593 13:0.59903503 14:0.11958076 15:0.12415961 16:0.063829787 18:0.29411765 19:0.25 20:0.06779661 26:0.16666667 29:0.16666667 30:0.25 31:0.090909091 34:0.16666667 35:0.083333333 37:0.33333333 38:0.13333333 40:0.14285714 42:0.16666667 
2.715030525014987 0:0.46055957 1:0.41496698 2:0.32634043 3:0.12788795 4:0.0231178 5:0.42839026 6:0.59945685 7:0.28794278 8:0.23700454 9:0.39117235 10:0.46645009 12:0.03185769 13:0.0067249662 14:0.035985394 15:0.083691412 16:0.063829787 17:0.060606061 18:0.11764706 20:0.050847458 21:0.15 25:0.2 27:0.046511628 31:0.090909091 37:0.33333333 40:0.14285714 
4 0:0.50906703 1:0.46069645 2:0.49480017 3:0.12788795 4:0.15611003 5:0.4667221 6:0.73251965 7:0.3297468 8:0.39557755 9:0.52778736 10:0.32801133 11:0.36749554 12:0.26237139 13:0.28458464 14:0.13409755 15:0.11226292 16:0.063829787 17:0.03030303 18:0.23529412 19:0.125 20:0.10169492 21:0.05 23:0.14285714 24:0.125 25:0.1 29:0.16666667 31:0.090909091 32:0.66666667 36:0.2 37:0.33333333 40:0.28571429 
-4 0:0.43314977 1:0.32410184 2:0.32634043 3:0.12788795 4:0.092297034 5:0.22457807 6:0.24825827 7:0.32207184 8:0.46023269 9:0.36808999 10:0.33693563 11:0.28256687 12:0.033419628 13:0.31922024 14:0.037730955 15:0.040374013 16:0.063829787 18:0.17647059 20:0.06779661 21:0.1 25:0.1 27:0.023255814 36:0.1 37:0.33333333 39:0.25 40:0.28571429 42:0.16666667 
4 0:0.56007847 1:0.42861319 2:0.29860061 3:0.074049276 4:0.033008043 5:0.68045943 6:1 7:0.12135766 8:0.26244392 9:0.58751192 10:0.1263568 11:0.27940745 12:0.40766098 13:0.072845746 14:0.025028739 15:0.21273839 16:0.085106383 18:0.29411765 19:0.375 20:0.22033898 24:0.25 25:0.1 27:0.046511628 28:0.2 30:0.25 31:0.36363636 38:0.33333333 39:0.375 42:0.16666667 
4 0:0.51542273 1:0.52965661 2:0.12809941 3:0.074049276 4:0.14667803 5:0.56262173 6:0.81912678 7:0.43570004 8:0.52666623 9:0.45617268 10:0.35757039 11:0.26480491 12:0.33690307 13:0.299577 14:0.37689221 15:0.11413487 16:0.063829787 18:0.35294118 19:0.25 20:0.06779661 26:0.16666667 27:0.023255814 29:0.16666667 30:0.25 31:0.090909091 35:0.083333333 36:0.1 39:0.125 40:0.28571429 42:0.16666667 
-0.7710477936471526 0:0.35664593 1:0.13594352 2:0.45979556 3:0.074049276 4:0.11023115 5:0.06227456 6:0.05379471 7:0.16283648 8:0.27337054 9:0.18745587 10:0.16219961 11:0.20623336 12:0.24740513 13:0.20512037 14:0.26533723 15:0.053280614 16:0.12765957 17:0.03030303 18:0.058823529 20:0.084745763 24:0.125 25:0.2 27:0.023255814 28:0.2 30:0.5 34:0.33333333 35:0.16666667 42:0.16666667 
-0.9878745240553549 0:0.45870243 1:0.38794385 2:0.12788795 3:0.074049276 4:0.045831304 5:0.54092232 6:1 7:0.24539374 8:0.27645779 9:0.36950286 10:0.18927738 11:0.34184121 12:0.26354353 13:0.38477269 14:0.29490845 15:0.1047352 16:0.085106383 18:0.11764706 19:0.125 20:0.06779661 21:0.05 24:0.125 25:0.2 28:0.2 30:0.25 31:0.18181818 36:0.1 37:0.33333333 38:0.066666667 
4 0:0.42892744 1:0.3280326 2:0.29860061 3:0.074049276 4:0.20247607 5:0.29504861 6:0.51240984 7:0.24022314 8:0.39557755 9:0.38590317 10:0.47497016 12:0.03185769 13:0.0067249662 14:0.035985394 15:0.1309555 16:0.10638298 17:0.03030303 18:0.11764706 20:0.050847458 21:0.05 24:0.125 30:0.25 31:0.090909091 36:0.4 38:0.066666667 42:0.16666667 
-4 0:0.57619883 1:0.60261793 2:0.45979556 3:0.12788795 4:0.28748644 5:0.55867176 6:0.62446735 7:0.48298216 8:0.40260119 9:0.67526539 10:0.51307161 11:0.41338849 12:0.35332503 13:0.15026675 14:0.16340461 15:0.20417643 16:0.10638298 17:0.060606061 18:0.41176471 19:0.5 20:0.10169492 25:0.1 26:0.16666667 29:0.33333333 31:0.18181818 34:0.5 36:0.1 37:0.33333333 42:0.33333333 
-2.431667556474495 0:0.55493848 1:0.55767202 2:1 3:0.074049276 4:0.21521247 5:0.7237325 6:1 7:0.29198469 8:0.18715829 9:0.72088688 10:0.38430405 11:0.55238497 12:0.54548138 13:0.35749172 14:0.23508497 15:0.2090556 16:0.085106383 17:0.03030303 18:0.29411765 19:0.25 20:0.10169492 24:0.25 25:0.1 26:0.16666667 27:0.023255814 30:0.5 31:0.27272727 36:0.1 38:0.066666667 41:0.33333333 
-4 0:0.49762108 1:0.5554974 2:1 3:0.12788795 4:0.26129186 5:0.48515522 6:0.59945685 7:0.52550278 8:0.41721095 9:0.63080211 10:0.89826313 12:0.03185769 13:0.0067249662 14:0.035985394 15:0.18734594 16:0.063829787 18:0.23529412 19:0.125 20:0.033898305 21:0.05 27:0.023255814 31:0.18181818 36:0.1 37:0.33333333 38:0.066666667 40:0.14285714 42:0.16666667 
4 0:0.72690534 1:0.63456707 2:1 3:0.074049276 4:0.28257857 5:0.56210076 6:1 7:0.38908891 8:0.11860016 9:0.74970657 10:0.35891735 11:0.65645795 12:0.44277528 13:0.13095141 14:0.036434321 15:0.35305649 16:0.10638298 17:0.03030303 18:0.52941176 19:0.625 20:0.23728814 21:0.15 24:0.125 25:0.1 26:0.33333333 27:0.069767442 28:0.2 30:0.25 31:0.45454545 35:0.083333333 38:0.066666667 40:0.28571429 
4 0:0.73562759 1:0.49203689 2:0.34028125 3:0.074049276 4:0.29801141 5:0.61432144 6:0.81912678 7:0.26850442 8:0.27645779 9:0.71507384 10:0.21945369 11:0.54265511 12:0.41596583 13:0.097687852 14:0.006907564 15:0.40309823 16:0.19148936 17:0.060606061 18:0.52941176 19:0.375 20:0.40677966 21:0.2 24:0.25 25:0.2 26:0.33333333 27:0.046511628 28:0.2 29:0.16666667 30:0.25 31:0.36363636 32:0.33333333 34:0.5 35:0.083333333 36:0.2 39:0.375 40:0.28571429 
-0.7289302563862466 0:0.50560764 1:0.45338305 2:0.21363062 3:0.074049276 4:0.51470139 5:0.38309969 6:0.51240984 7:0.32541172 8:0.33100204 9:0.50904405 10:0.13438203 11:0.18816429 12:0.84164144 13:0.13918259 14:0.72700102 15:0.41443219 16:0.10638298 18:0.17647059 20:0.10169492 24:0.125 25:0.1 28:0.2 30:0.25 31:0.27272727 34:0.33333333 36:0.1 39:0.375 
-4 0:0.45625918 1:0.46174723 2:0.12809941 3:0.12788795 4:0.31112668 5:0.45389598 6:0.53169367 7:0.45137354 8:0.32341257 9:0.24684985 10:0.41953385 12:0.03185769 13:0.0067249662 14:0.035985394 15:0.21982841 16:0.10638298 17:0.060606061 18:0.11764706 20:0.016949153 25:0.1 27:0.023255814 31:0.18181818 34:0.33333333 36:0.1 37:0.33333333 
-4 0:0.45275071 1:0.34163968 2:0.074049276 3:0.12788795 4:0.17599222 5:0.43570271 6:0.62446735 7:0.19860658 8:0.31638894 9:0.41712701 10:0.28367339 11:0.26110003 12:0.24611819 13:0.20874959 14:0.22718999 15:0.11729745 16:0.10638298 17:0.03030303 18:0.17647059 19:0.125 20:0.10169492 24:0.125 27:0.023255814 29:0.16666667 30:0.25 31:0.090909091 32:0.33333333 34:0.16666667 35:0.083333333 36:0.1 37:0.33333333 39:0.25 42:0.16666667 
4 0:0.5023606 1:0.49702155 2:0.074049276 3:0.12788795 4:0.16470611 5:0.39253426 6:0.59945685 7:0.50770987 8:0.43345196 9:0.52429444 10:0.46599743 11:0.35726229 12:0.24660583 13:0.40182711 14:0.27597954 15:0.15941476 16:0.063829787 18:0.23529412 20:0.06779661 21:0.05 26:0.16666667 30:0.25 31:0.090909091 32:0.33333333 34:0.16666667 35:0.16666667 37:0.33333333 40:0.28571429 
4 0:0.68943447 1:0.58552851 2:0.29860061 3:0.074049276 4:0.34172606 5:0.73477532 6:0.81912678 7:0.31957025 8:0.19778877 9:0.66030757 10:0.30819947 11:0.45281058 12:0.46895067 13:0.27513286 14:0.0022947569 15:0.42986923 16:0.10638298 17:0.060606061 18:0.41176471 19:0.25 20:0.23728814 21:0.15 24:0.125 25:0.2 26:0.33333333 28:0.2 29:0.16666667 30:0.25 31:0.36363636 34:0.33333333 35:0.083333333 36:0.1 38:0.13333333 
4 0:0.44713289 1:0.37806652 2:0.73981352 3:0.074049276 4:0.068024317 5:0.23291716 6:0.62446735 7:0.20306753 8:0.18715829 9:0.36798362 10:0.19007742 12:0.03185769 13:0.0067249662 14:0.035985394 15:0.11475375 16:0.085106383 17:0.03030303 18:0.17647059 19:0.125 20:0.050847458 21:0.05 24:0.125 26:0.16666667 27:0.046511628 30:0.5 31:0.090909091 39:0.125 42:0.16666667 
-4 0:0.54589499 1:0.37777028 2:0.45979556 3:0.12788795 4:0.054212786 5:0.43832016 6:0.53169367 7:0.2605416 8:0.31638894 9:0.46253033 10:0.25414102 11:0.18851189 12:0.41499158 13:0.095230689 14:0.068644963 15:0.13951921 16:0.10638298 17:0.060606061 18:0.41176471 19:0.125 20:0.27118644 21:0.05 25:0.2 27:0.023255814 29:0.16666667 31:0.090909091 34:0.16666667 35:0.25 36:0.2 37:0.33333333 38:0.2 39:0.25 40:0.42857143 42:0.33333333 
-4 0:0.512533 1:0.3455945 2:1 3:0.074049276 4:0.044621316 5:0.38281072 6:0.64880142 7:0.15115403 8:0.13711626 9:0.50982303 10:0.24728732 11:0.38220491 12:0.21851874 13:0.12990022 14:0.027707747 15:0.14199896 16:0.10638298 17:0.03030303 18:0.23529412 19:0.125 20:0.25423729 21:0.1 25:0.1 27:0.023255814 30:0.5 31:0.18181818 32:0.33333333 35:0.083333333 36:0.1 37:0.33333333 38:0.26666667 39:0.5 40:0.14285714 42:0.16666667 
4 0:0.46271454 1:0.34885025 2:0.29860061 3:0.12788795 4:0.17045788 5:0.31008318 6:0.35082044 7:0.30706322 8:0.34501592 9:0.35391597 10:0.31302245 11:0.2737226 12:0.13023732 13:0.1689598 14:0.062654371 15:0.11493989 16:0.063829787 18:0.11764706 20:0.11864407 21:0.1 24:0.25 25:0.3 26:0.33333333 30:0.25 36:0.1 37:0.33333333 38:0.066666667 39:0.125 
