svm_type epsilon_svr
kernel_type rbf
gamma 0.25
nr_class 2
total_sv 7618
rho -0.203308
SV
2 0:0.23671892 1:0.41524081 2:0.30076488 3:0.15532702 4:0.26590425 5:0.3450284 6:0.5301458 7:0.47651065 8:0.50286137 9:0.25988268 10:0.42733257 11:0.00028057526 12:0.031158069 13:0.0089006465 14:0.044877491 15:0.11966178 16:0.29411765 17:0.125 18:0.28571429 19:0.14285714 20:0.097560976 27:0.076923077 29:0.14285714 30:0.33333333 32:0.5 34:0.2 36:0.28571429 40:0.125 
2 0:0.1876417 1:0.30112576 2:0.39698548 3:0.15532702 4:0.16353397 5:0.36830634 6:0.51843472 7:0.35532208 8:0.32248759 9:0.36806929 10:0.34758093 11:0.17648268 12:0.087722495 13:0.16778254 14:0.010591537 15:0.17325592 16:0.29411765 17:0.125 18:0.071428571 20:0.19512195 21:0.2 24:0.33333333 27:0.076923077 28:0.16666667 30:0.33333333 31:0.125 34:0.2 36:0.14285714 39:0.28571429 42:0.25 
2 0:0.26888228 1:0.5373597 2:0.44874296 3:0.15532702 4:0.18137432 5:0.4533994 6:0.53039285 7:0.68351177 8:0.4749246 9:0.31853432 10:0.4926825 11:0.00028057526 12:0.031158069 13:0.0089006465 14:0.044877491 15:0.17350017 16:0.11764706 18:0.14285714 20:0.048780488 21:0.1 25:0.14285714 27:0.076923077 29:0.14285714 30:0.33333333 31:0.125 35:0.14285714 
2 0:0.22877702 1:0.490062 2:0.44874296 3:0.2310101 4:0.0069505491 5:0.37228394 6:0.87005568 7:0.60771917 8:0.18765898 9:0.31853432 10:0.4926825 11:0.00028057526 12:0.031158069 13:0.0089006465 14:0.044877491 15:0.090695744 16:0.11764706 17:0.125 18:0.14285714 19:0.14285714 20:0.024390244 21:0.1 24:0.16666667 28:0.16666667 29:0.14285714 31:0.125 37:0.5 
0.9254209222603226 0:0.28956076 1:0.58117215 2:0.83292138 3:0.2310101 4:0.1267199 5:0.46992466 6:0.87005568 7:0.43860294 8:0.5521913 9:0.31853432 10:0.4926825 11:0.00028057526 12:0.031158069 13:0.0089006465 14:0.044877491 15:0.070013176 16:0.11764706 18:0.14285714 19:0.14285714 20:0.048780488 21:0.3 29:0.14285714 31:0.125 34:0.2 37:0.5 
-2 0:0.38562939 1:0.40400256 2:0.39619284 3:0.2310101 4:0.23227858 5:0.43756119 6:0.87005568 7:0.28706496 8:0.25143068 9:0.53423883 10:0.23066488 11:0.46598605 12:0.57844279 13:0.26399688 14:0.30651081 15:0.29695521 16:0.41176471 17:0.25 18:0.28571429 19:0.14285714 20:0.41463415 21:0.2 24:0.33333333 25:0.14285714 27:0.15384615 28:0.16666667 29:0.28571429 31:0.25 34:0.4 36:0.14285714 37:0.5 38:0.28571429 39:0.57142857 
2 0:0.11967545 1:0.22236326 3:0.15532702 4:0.029412056 5:0.22579572 6:0.12741286 7:0.3801889 8:0.36453232 9:0.11399574 10:0.26478464 11:0.00028057526 12:0.031158069 13:0.0089006465 14:0.044877491 15:0.034901348 16:0.11764706 20:0.097560976 21:0.3 25:0.14285714 28:0.16666667 30:0.33333333 35:0.28571429 39:0.14285714 
2 0:0.51700699 1:0.57087461 2:0.38081742 3:0.2310101 4:0.34368825 5:0.59778319 6:0.63061321 7:0.47424762 8:0.49575433 9:0.61923945 10:0.46912427 11:0.34385858 12:0.26023763 13:0.10691874 14:0.021309629 15:0.38371201 16:0.29411765 17:0.125 18:0.42857143 19:0.14285714 20:0.29268293 21:0.1 24:0.16666667 27:0.15384615 29:0.14285714 31:0.375 32:0.25 34:0.2 36:0.14285714 37:0.5 38:0.28571429 39:0.14285714 40:0.125 42:0.25 
-2 0:0.37205192 1:0.59706572 2:0.67818633 3:0.15532702 4:0.21511102 5:0.46324533 6:1 7:0.54605351 8:0.37760919 9:0.49002687 10:0.43137918 11:0.00028057526 12:0.031158069 13:0.0089006465 14:0.044877491 15:0.15374155 16:0.23529412 17:0.125 18:0.28571429 19:0.28571429 20:0.12195122 25:0.28571429 26:0.2 30:0.33333333 31:0.25 34:0.2 36:0.28571429 40:0.125 
2 0:0.36375849 1:0.50205097 2:0.38081742 3:0.15532702 4:0.014706028 5:0.40373857 6:0.57126337 7:0.41631826 8:0.37745724 9:0.49396816 10:0.37907138 11:0.26933029 12:0.36102692 13:0.21447772 14:0.30378818 15:0.17647771 16:0.11764706 17:0.125 18:0.14285714 20:0.19512195 21:0.7 24:0.16666667 30:0.33333333 31:0.25 34:0.2 39:0.14285714 
2 0:0.17328129 1:0.32124673 2:0.39698548 3:0.2310101 4:0.2624468 5:0.34117014 6:0.45617437 7:0.32296398 8:0.18765898 9:0.31853432 10:0.4926825 11:0.00028057526 12:0.031158069 13:0.0089006465 14:0.044877491 15:0.23573993 16:0.23529412 17:0.125 18:0.14285714 20:0.073170732 24:0.16666667 27:0.076923077 28:0.16666667 30:0.33333333 31:0.125 35:0.14285714 37:0.5 40:0.125 
2 0:0.42963726 1:0.73315362 2:0.38081742 3:0.2310101 4:0.049086431 5:0.5554579 6:0.87005568 7:0.64485977 8:0.68637601 9:0.36107007 10:0.54007604 11:0.00028057526 12:0.031158069 13:0.0089006465 14:0.044877491 15:0.11076347 16:0.058823529 18:0.35714286 19:0.42857143 20:0.097560976 21:0.1 25:0.14285714 29:0.28571429 31:0.125 37:0.5 39:0.14285714 40:0.25 
-2 0:0.50447119 1:0.5414046 2:0.44874296 3:0.15532702 4:0.15287882 5:0.54011965 6:0.74646667 7:0.43463858 8:0.49575433 9:0.58011344 10:0.41455029 11:0.37172687 12:0.28843341 13:0.22033139 14:0.10601261 15:0.24923987 16:0.23529412 17:0.125 18:0.5 19:0.14285714 20:0.31707317 21:0.1 25:0.28571429 26:0.2 27:0.076923077 29:0.14285714 30:0.33333333 31:0.125 32:0.25 34:0.2 35:0.42857143 36:0.14285714 38:0.14285714 40:0.125 41:0.66666667 
2 0:0.31941951 1:0.55152426 2:0.30951371 3:0.15532702 4:0.055293053 5:0.48925648 6:0.74646667 7:0.58041546 8:0.57327438 9:0.23383813 10:0.39831361 11:0.00028057526 12:0.031158069 13:0.0089006465 14:0.044877491 15:0.13612188 16:0.11764706 18:0.21428571 19:0.14285714 20:0.097560976 21:0.2 25:0.14285714 29:0.14285714 30:0.33333333 31:0.125 36:0.14285714 39:0.14285714 41:0.33333333 
2 0:0.49313072 1:0.53206055 2:0.83292138 3:0.2310101 4:0.38563485 5:0.49509628 6:0.55614948 7:0.45799714 8:0.36453232 9:0.62775248 10:0.33672516 11:0.55666783 12:0.68225285 13:0.3583326 14:0.51098905 15:0.42598565 16:0.23529412 18:0.42857143 19:0.14285714 20:0.31707317 21:0.2 25:0.28571429 26:0.2 27:0.076923077 28:0.16666667 29:0.14285714 31:0.25 32:0.25 35:0.14285714 36:0.14285714 37:0.5 38:0.14285714 39:0.14285714 40:0.125 42:0.25 
1.349064497175171 0:0.57611882 1:0.67525985 2:1 3:0.2310101 4:0.24307696 5:0.5554579 6:1 7:0.43700158 8:0.54752942 9:0.63827537 10:0.53942399 11:0.46243809 12:0.32822761 13:0.098164818 14:0.12651887 15:0.35397483 16:0.11764706 18:0.5 19:0.42857143 20:0.24390244 21:0.1 24:0.16666667 25:0.14285714 26:0.2 28:0.16666667 29:0.14285714 31:0.375 35:0.14285714 37:0.5 39:0.28571429 40:0.125 41:0.33333333 
2 0:0.53281757 1:0.58466816 2:0.83292138 3:0.2310101 4:0.11605253 5:0.54604536 6:0.55614948 7:0.45250854 8:0.34874609 9:0.55983921 10:0.41241527 11:0.22309646 12:0.90574458 13:0.094976972 14:0.45216668 15:0.42923677 16:0.11764706 18:0.42857143 20:0.29268293 21:0.1 24:0.33333333 25:0.28571429 28:0.16666667 29:0.42857143 31:0.25 35:0.28571429 37:0.5 39:0.28571429 40:0.125 
2 0:0.17402353 1:0.35471844 2:0.5629538 3:0.2310101 4:0.040875452 5:0.26042398 6:0.23135349 7:0.4522866 8:0.49701259 9:0.31853432 10:0.4926825 11:0.00028057526 12:0.031158069 13:0.0089006465 14:0.044877491 15:0.011703095 16:0.11764706 18:0.14285714 20:0.024390244 21:0.1 32:0.5 36:0.14285714 37:0.5 39:0.14285714 
-1.334567432878058 0:0.23463432 1:0.33066251 2:0.30951371 3:0.2310101 4:0.4349264 5:0.38806804 6:0.46283323 7:0.38618842 8:0.24432365 9:0.39984634 10:0.26686103 11:0.28255868 12:0.40956857 13:0.037837402 14:0.30745395 15:0.26125596 16:0.52941176 17:0.375 18:0.28571429 20:0.26829268 21:0.1 25:0.14285714 27:0.30769231 28:0.16666667 31:0.125 32:0.25 34:0.4 36:0.14285714 37:0.5 38:0.14285714 40:0.25 
2 0:0.32360551 1:0.47540074 2:1 3:0.2310101 4:0.099529907 5:0.37036315 6:0.63061321 7:0.48693924 8:0.5521913 9:0.5315439 10:0.36418665 11:0.32865553 12:0.24229333 13:0.29857309 14:0.10358858 15:0.090288864 16:0.17647059 18:0.21428571 20:0.17073171 21:0.2 24:0.16666667 25:0.14285714 27:0.15384615 31:0.125 37:0.5 38:0.14285714 41:0.66666667 42:0.25 
-1.929648903451327 0:0.24351571 1:0.40643077 2:0.34197122 3:0.15532702 4:0.026140564 5:0.34359187 6:0.53039285 7:0.48199976 8:0.39702257 9:0.38585476 10:0.45974427 11:0.00028057526 12:0.031158069 13:0.0089006465 14:0.044877491 15:0.12712532 16:0.11764706 18:0.14285714 20:0.12195122 23:0.75 25:0.14285714 30:0.33333333 31:0.125 34:0.2 38:0.14285714 40:0.125 42:0.25 
0.5285294349006393 0:0.2637938 1:0.45985788 2:0.44874296 3:0.2310101 4:0.098172861 5:0.41376013 6:0.49942297 7:0.5279157 8:0.52212279 9:0.24082702 10:0.40610066 11:0.00028057526 12:0.031158069 13:0.0089006465 14:0.044877491 15:0.10010588 16:0.11764706 18:0.21428571 19:0.14285714 20:0.097560976 21:0.1 29:0.14285714 34:0.2 37:0.5 38:0.28571429 39:0.14285714 40:0.25 
2 0:0.2936667 1:0.40810365 2:0.83292138 3:0.15532702 4:0.091506253 5:0.42821258 6:0.57126337 7:0.32922983 8:0.37050216 9:0.50190178 10:0.37679371 11:0.33092826 12:0.18677189 13:0.341192 14:0.026859766 15:0.15001719 16:0.29411765 17:0.375 18:0.21428571 20:0.2195122 21:0.1 25:0.14285714 27:0.15384615 29:0.14285714 30:0.33333333 31:0.125 35:0.14285714 36:0.28571429 38:0.28571429 39:0.14285714 41:0.33333333 
-2 0:0.86260028 1:0.68394959 2:1 3:0.2310101 4:0.33608666 5:0.71875729 6:1 7:0.4421336 8:0.4886473 9:0.6951654 10:0.51325719 11:0.42449306 12:0.33625776 13:0.10222092 14:0.0051977293 15:0.44273368 16:0.35294118 17:0.25 18:0.71428571 19:0.57142857 20:0.46341463 24:0.5 25:0.28571429 27:0.15384615 29:0.14285714 31:0.875 32:0.25 34:0.4 35:0.14285714 36:0.14285714 37:0.5 39:0.28571429 40:0.125 
2 0:0.36149134 1:0.54912422 2:0.38081742 3:0.15532702 4:0.01632202 5:0.6443787 6:0.87005568 7:0.35411581 8:0.43553212 9:0.53579124 10:0.51760032 11:0.23937227 12:0.27453865 13:0.28417772 14:0.39416321 15:0.082144477 16:0.11764706 18:0.28571429 19:0.28571429 20:0.14634146 21:0.1 26:0.2 27:0.076923077 29:0.14285714 30:0.33333333 31:0.125 32:0.25 35:0.14285714 38:0.14285714 39:0.28571429 
-2 0:0.28544469 1:0.46861658 2:0.33341178 3:0.15532702 4:0.062868758 5:0.49940594 6:0.74971148 7:0.50565582 8:0.44802221 9:0.38564439 10:0.34976719 11:0.00028057526 12:0.031158069 13:0.0089006465 14:0.044877491 15:0.10352997 16:0.11764706 18:0.21428571 19:0.14285714 20:0.12195122 24:0.16666667 25:0.42857143 30:0.33333333 31:0.125 36:0.14285714 38:0.14285714 40:0.25 
-2 0:0.32081796 1:0.45306168 3:0.15532702 4:0.17936662 5:0.62148701 6:0.74971148 7:0.39967512 8:0.44802221 9:0.46989584 10:0.52107076 11:0.28332785 12:0.27349421 13:0.13692286 14:0.042624056 15:0.26610446 16:0.35294118 17:0.375 18:0.28571429 19:0.14285714 20:0.19512195 24:0.16666667 25:0.14285714 27:0.076923077 28:0.16666667 30:0.33333333 31:0.25 36:0.42857143 40:0.25 42:0.25 
-2 0:0.41217437 1:0.58486613 2:0.83292138 3:0.2310101 4:0.10910198 5:0.57840611 6:0.74971148 7:0.47612213 8:0.43893771 9:0.55250188 10:0.41675198 11:0.44855012 12:0.1831212 13:0.30085724 14:0.09570887 15:0.20524745 16:0.17647059 17:0.125 18:0.35714286 19:0.28571429 20:0.17073171 21:0.1 23:0.25 29:0.14285714 31:0.25 32:0.25 34:0.2 35:0.14285714 37:1 38:0.14285714 40:0.125 
-1.496800657240668 0:0.51100443 1:0.46667472 2:0.38081742 3:0.15532702 4:0.23521389 5:0.47394919 6:0.55614948 7:0.47062697 8:0.55367726 9:0.61454753 10:0.36598158 11:0.42775686 12:0.52928786 13:0.072672355 14:0.0073198674 15:0.30485663 16:0.29411765 18:0.5 19:0.14285714 20:0.46341463 24:0.33333333 25:0.42857143 27:0.23076923 29:0.28571429 30:0.33333333 31:0.125 32:0.25 33:0.5 34:0.2 35:0.28571429 39:0.57142857 40:0.375 
-2 0:0.28654351 1:0.53122391 2:0.5629538 3:0.2310101 4:0.22498814 5:0.44398686 6:0.51843472 7:0.54659496 8:0.59306974 9:0.31853432 10:0.4926825 11:0.00028057526 12:0.031158069 13:0.0089006465 14:0.044877491 15:0.19662087 16:0.17647059 18:0.21428571 20:0.073170732 27:0.076923077 29:0.14285714 31:0.125 32:0.25 35:0.14285714 36:0.14285714 37:0.5 39:0.14285714 
2 0:0.40793574 1:0.65028582 2:0.30076488 3:0.2310101 4:0.16958018 5:0.60063761 6:0.74971148 7:0.64563178 8:0.6318412 9:0.64400529 10:0.76796815 11:0.00028057526 12:0.031158069 13:0.0089006465 14:0.044877491 15:0.24422931 16:0.11764706 18:0.28571429 19:0.14285714 20:0.12195122 21:0.1 24:0.16666667 25:0.14285714 27:0.076923077 29:0.14285714 31:0.25 37:0.5 39:0.14285714 40:0.125 
-2 0:0.10664899 1:0.20089677 2:0.5629538 3:0.15532702 4:0.018310212 5:0.1360066 6:0.23135349 7:0.24642574 8:0.24432365 9:0.10562828 10:0.25546159 11:0.00028057526 12:0.031158069 13:0.0089006465 14:0.044877491 15:0.038726144 16:0.17647059 17:0.125 18:0.071428571 20:0.097560976 21:0.1 24:0.33333333 25:0.14285714 27:0.076923077 28:0.16666667 30:0.33333333 32:0.25 39:0.14285714 
-2 0:0.17176796 1:0.31844115 2:0.52505326 3:0.2310101 4:0.1238681 5:0.22211784 6:0.2126902 7:0.4474054 8:0.43198263 9:0.31853432 10:0.4926825 11:0.00028057526 12:0.031158069 13:0.0089006465 14:0.044877491 15:0.037943849 16:0.23529412 17:0.125 18:0.071428571 20:0.073170732 24:0.16666667 27:0.076923077 34:0.2 35:0.14285714 36:0.14285714 37:0.5 40:0.125 42:0.25 
-2 0:0.28219247 1:0.4422061 2:0.5629538 3:0.15532702 4:0.10413962 5:0.3280871 6:0.66009012 7:0.43475528 8:0.37050216 9:0.43521363 10:0.34313135 11:0.25565925 12:0.32940874 13:0.30292966 14:0.47290959 15:0.1342093 16:0.23529412 17:0.125 18:0.21428571 19:0.14285714 20:0.14634146 25:0.14285714 26:0.2 27:0.076923077 30:0.33333333 31:0.125 32:0.25 34:0.2 36:0.14285714 38:0.28571429 42:0.25 
-2 0:0.43332226 1:0.42703198 2:0.83292138 3:0.2310101 4:0.18645152 5:0.44517899 6:0.50066889 7:0.18701229 8:0.27084406 9:0.53133921 10:0.1032285 11:0.53664372 12:0.397167 13:0.23362482 14:0.15844207 15:0.27261252 16:0.35294118 17:0.125 18:0.42857143 20:0.43902439 21:0.2 23:0.25 24:0.33333333 26:0.2 28:0.33333333 29:0.42857143 34:0.4 35:0.42857143 36:0.14285714 37:0.5 38:0.14285714 39:0.14285714 40:0.25 42:0.25 
-0.998452379888072 0:0.39456477 1:0.46405296 2:0.39619284 3:0.15532702 4:0.16134016 5:0.55631482 6:0.87576514 7:0.34840033 8:0.39702257 9:0.76327854 10:0.3186414 11:0.5772367 12:0.58717794 13:0.38615656 14:0.3651768 15:0.28391842 16:0.29411765 17:0.125 18:0.35714286 19:0.28571429 20:0.29268293 21:0.3 25:0.14285714 26:0.2 28:0.16666667 30:0.33333333 31:0.25 34:0.2 36:0.28571429 38:0.42857143 40:0.125 41:0.33333333 
-2 0:0.39256082 1:0.591015 2:0.33341178 3:0.2310101 4:0.33916037 5:0.514852 6:0.66009012 7:0.54902457 8:0.50255746 9:0.64790601 10:0.38106293 11:0.43917676 12:0.24348934 13:0.51422166 14:0.34960303 15:0.29949718 16:0.23529412 17:0.125 18:0.35714286 19:0.28571429 20:0.14634146 29:0.14285714 31:0.25 32:0.25 34:0.4 36:0.14285714 37:0.5 38:0.28571429 40:0.125 
2 0:0.32524114 1:0.45810793 2:0.30076488 3:0.2310101 4:0.19899224 5:0.66154298 6:0.74971148 7:0.26413135 8:0.27084406 9:0.60138427 10:0.28995777 11:0.60405193 12:0.27184691 13:0.60163191 14:0.35939556 15:0.21945633 16:0.23529412 18:0.28571429 19:0.28571429 20:0.19512195 21:0.1 24:0.16666667 25:0.14285714 26:0.2 27:0.15384615 28:0.16666667 29:0.14285714 31:0.125 37:0.5 38:0.28571429 40:0.125 
-2 0:0.31183336 1:0.53902293 2:0.5629538 3:0.15532702 4:0.22587279 5:0.43494577 6:0.5301458 7:0.62261348 8:0.43553212 9:0.46104604 10:0.65146974 11:0.00028057526 12:0.031158069 13:0.0089006465 14:0.044877491 15:0.17254973 16:0.17647059 18:0.28571429 19:0.14285714 20:0.097560976 27:0.076923077 29:0.42857143 30:0.33333333 32:0.25 36:0.14285714 39:0.28571429 
2 0:0.13544044 1:0.25109345 2:0.5629538 3:0.15532702 4:0.057528212 5:0.1866364 6:0.17852484 7:0.36965566 8:0.49071083 9:0.31853432 10:0.4926825 11:0.00028057526 12:0.031158069 13:0.0089006465 14:0.044877491 15:0.018715482 16:0.23529412 17:0.125 18:0.071428571 20:0.073170732 21:0.1 30:0.33333333 32:0.25 35:0.14285714 36:0.42857143 39:0.14285714 
2 0:0.2044103 1:0.30773368 2:0.44874296 3:0.2310101 4:0.050949862 5:0.35929578 6:0.49942297 7:0.33090167 8:0.27084406 9:0.37042441 10:0.30550586 11:0.306152 12:0.16959522 13:0.25822046 14:0.026747932 15:0.063841434 16:0.23529412 18:0.14285714 19:0.14285714 20:0.24390244 21:0.4 25:0.28571429 27:0.076923077 28:0.16666667 34:0.2 35:0.14285714 37:0.5 38:0.28571429 40:0.25 
-2 0:0.20257608 1:0.35897635 3:0.15532702 4:0.17973596 5:0.43701676 6:0.51843472 7:0.46932655 8:0.25127873 9:0.11312425 10:0.26381363 11:0.00028057526 12:0.031158069 13:0.0089006465 14:0.044877491 15:0.20800972 16:0.23529412 17:0.125 18:0.14285714 20:0.097560976 25:0.14285714 26:0.2 27:0.076923077 28:0.16666667 30:0.33333333 31:0.125 34:0.2 39:0.28571429 
-2 0:0.36707785 1:0.52912975 2:0.44874296 3:0.2310101 4:0.10866751 5:0.43503166 6:0.51843472 7:0.49834815 8:0.55367726 9:0.46492012 10:0.5379022 11:0.084732947 12:0.47888001 13:0.075210372 14:0.67753297 15:0.19772095 16:0.11764706 18:0.28571429 20:0.17073171 21:0.2 24:0.16666667 25:0.14285714 27:0.076923077 29:0.14285714 31:0.125 32:0.25 37:0.5 39:0.28571429 40:0.125 
2 0:0.53053973 1:0.56288396 2:0.44874296 3:0.2310101 4:0.1399787 5:0.60959281 6:0.74971148 7:0.42721403 8:0.51516771 9:0.51616863 10:0.4000375 11:0.3333371 12:0.29081009 13:0.22613714 14:0.024519748 15:0.32020715 16:0.23529412 18:0.35714286 19:0.14285714 20:0.31707317 21:0.4 24:0.16666667 27:0.076923077 29:0.14285714 31:0.375 35:0.42857143 36:0.14285714 37:1 38:0.14285714 40:0.125 
2 0:0.58659379 1:0.60907009 2:0.67401425 3:0.2310101 4:0.22489276 5:0.63676157 6:0.87005568 7:0.44308743 8:0.58019767 9:0.4953044 10:0.3707718 11:0.39508448 12:0.3028725 13:0.11563167 14:0.086915122 15:0.18673566 16:0.17647059 18:0.5 19:0.57142857 20:0.31707317 21:0.3 25:0.14285714 26:0.2 29:0.14285714 31:0.25 34:0.2 35:0.14285714 36:0.14285714 37:0.5 38:0.14285714 39:0.28571429 40:0.25 41:0.33333333 
-0.04520667144653999 0:0.4693726 1:0.65555946 2:0.44874296 3:0.2310101 4:0.13365541 5:0.70536996 6:0.87576514 7:0.51979052 8:0.50270941 9:0.73367249 10:0.45753303 11:0.50436968 12:0.064180501 13:0.53308026 14:0.082380253 15:0.15830862 16:0.17647059 17:0.125 18:0.42857143 19:0.42857143 20:0.17073171 21:0.1 24:0.16666667 26:0.4 29:0.14285714 31:0.125 32:0.25 34:0.2 36:0.14285714 37:0.5 39:0.14285714 40:0.125 
-2 0:0.248856 1:0.49492908 2:0.30951371 3:0.2310101 4:0.029412056 5:0.42441486 6:0.74582082 7:0.68759932 8:0.49575433 9:0.31853432 10:0.4926825 11:0.00028057526 12:0.031158069 13:0.0089006465 14:0.044877491 15:0.04413343 16:0.17647059 17:0.125 18:0.14285714 19:0.14285714 20:0.048780488 21:0.2 26:0.2 27:0.076923077 29:0.14285714 36:0.14285714 37:0.5 
1.611488616876324 0:0.45524383 1:0.51699089 2:0.84026244 3:0.2310101 4:0.22607428 5:0.59403001 6:0.87576514 7:0.33510889 8:0.30935361 9:0.60243264 10:0.38183656 11:0.50693931 12:0.60875771 13:0.18183783 14:0.098888033 15:0.25385592 16:0.29411765 17:0.125 18:0.42857143 19:0.28571429 20:0.29268293 21:0.1 24:0.16666667 25:0.28571429 26:0.4 28:0.16666667 29:0.14285714 31:0.125 34:0.4 35:0.14285714 36:0.14285714 37:0.5 39:0.14285714 40:0.25 
-2 0:0.4895392 1:0.61560573 2:0.84026244 3:0.2310101 4:0.29203002 5:0.70235069 6:1 7:0.45331469 8:0.3218437 9:0.5816753 10:0.29559191 11:0.494526 12:0.32206038 13:0.32485504 14:0.14189911 15:0.29916757 16:0.29411765 17:0.125 18:0.42857143 19:0.42857143 20:0.2195122 24:0.16666667 25:0.14285714 26:0.2 28:0.16666667 29:0.14285714 31:0.375 34:0.4 36:0.14285714 37:0.5 39:0.14285714 40:0.125 
-2 0:0.50874586 1:0.66746176 2:0.84026244 3:0.15532702 4:0.29740009 5:0.66416973 6:1 7:0.55168905 8:0.49071083 9:0.81063823 10:0.40519153 11:0.61157327 12:0.11438668 13:0.42156582 14:0.045037333 15:0.23780396 16:0.23529412 17:0.125 18:0.35714286 19:0.28571429 20:0.19512195 21:0.2 24:0.16666667 26:0.4 27:0.076923077 30:0.33333333 31:0.375 34:0.4 35:0.14285714 
2 0:0.14021329 1:0.26474273 2:0.44874296 3:0.2310101 4:0.085177171 5:0.17902174 6:0.12306884 7:0.42285489 8:0.50950268 9:0.31853432 10:0.4926825 11:0.00028057526 12:0.031158069 13:0.0089006465 14:0.044877491 15:0.019660323 16:0.17647059 18:0.071428571 20:0.048780488 21:0.1 25:0.14285714 32:0.25 34:0.2 36:0.14285714 37:0.5 38:0.14285714 
-2 0:0.39843439 1:0.59893429 2:0.44874296 3:0.2310101 4:0.026065691 5:0.5008943 6:1 7:0.59253767 8:0.5521913 9:0.51951735 10:0.56254386 11:0.10001322 12:0.27543856 13:0.12372735 14:0.39545471 15:0.1957942 16:0.11764706 18:0.21428571 19:0.14285714 20:0.14634146 21:0.2 25:0.28571429 31:0.375 34:0.2 37:0.5 38:0.14285714 39:0.14285714 
-2 0:0.28999145 1:0.47535999 2:0.30076488 3:0.2310101 4:0.088078372 5:0.46885163 6:0.50637835 7:0.50621701 8:0.43908966 9:0.43521309 10:0.5287767 11:0.00028057526 12:0.031158069 13:0.0089006465 14:0.044877491 15:0.061936453 16:0.17647059 17:0.125 18:0.21428571 19:0.14285714 20:0.12195122 21:0.2 26:0.2 27:0.076923077 32:0.25 35:0.14285714 36:0.14285714 37:0.5 40:0.125 42:0.25 
-2 0:0.47027635 1:0.6235733 2:1 3:0.2310101 4:0.17410807 5:0.64764447 6:1 7:0.42018577 8:0.24432365 9:0.59740025 10:0.25759954 11:0.59109089 12:0.47405741 13:0.38475942 14:0.36712612 15:0.26400428 16:0.23529412 17:0.25 18:0.42857143 19:0.28571429 20:0.19512195 25:0.14285714 27:0.076923077 28:0.16666667 29:0.14285714 31:0.375 36:0.14285714 37:0.5 39:0.28571429 40:0.25 
1.324221024116797 0:0.20247502 1:0.34556239 2:0.39698548 3:0.15532702 4:0.021656577 5:0.34456312 6:0.44131905 7:0.37673155 8:0.40397576 9:0.36683151 10:0.32373878 11:0.00028057526 12:0.031158069 13:0.0089006465 14:0.044877491 15:0.049944954 16:0.11764706 18:0.071428571 20:0.12195122 21:0.3 23:0.25 24:0.33333333 29:0.14285714 30:0.33333333 36:0.14285714 38:0.14285714 
-2 0:0.17200444 1:0.31887956 2:1 3:0.15532702 5:0.29488817 6:0.57126337 7:0.29527086 8:0.37050216 9:0.31853432 10:0.4926825 11:0.00028057526 12:0.031158069 13:0.0089006465 14:0.044877491 15:0.040382742 16:0.23529412 17:0.25 18:0.071428571 20:0.073170732 21:0.1 27:0.15384615 30:0.33333333 31:0.125 36:0.14285714 38:0.28571429 
2 0:0.3653782 1:0.67737579 2:0.83292138 3:0.15532702 4:0.097307843 5:0.5332264 6:0.55614948 7:0.66476243 8:0.82176264 9:0.31853432 10:0.4926825 11:0.00028057526 12:0.031158069 13:0.0089006465 14:0.044877491 15:0.2359067 16:0.058823529 18:0.28571429 20:0.073170732 29:0.28571429 30:0.33333333 31:0.125 35:0.14285714 38:0.14285714 39:0.14285714 40:0.125 
-2 0:0.085204953 1:0.14819402 2:0.39619284 3:0.15532702 4:0.03042005 5:0.087106595 6:0.11229897 7:0.31847872 8:0.37745724 9:0.31853432 10:0.4926825 11:0.00028057526 12:0.031158069 13:0.0089006465 14:0.044877491 15:0.020075938 16:0.23529412 17:0.25 20:0.048780488 25:0.14285714 27:0.076923077 30:0.66666667 34:0.2 35:0.28571429 
-1.387368255531118 0:0.37448752 1:0.56664689 2:0.30076488 3:0.15532702 4:0.011794136 5:0.58727424 6:0.74646667 7:0.5362158 8:0.4749246 9:0.45056631 10:0.46778367 11:0.11216658 12:0.4733269 13:0.13772006 14:0.67945259 15:0.18288124 16:0.11764706 18:0.28571429 19:0.14285714 20:0.14634146 24:0.33333333 25:0.14285714 26:0.4 27:0.076923077 30:0.33333333 31:0.125 35:0.14285714 38:0.14285714 41:0.33333333 
-2 0:0.21108133 1:0.33632813 2:0.33341178 3:0.2310101 4:0.021537806 5:0.33997406 6:0.51843472 7:0.37961302 8:0.43908966 9:0.4413473 10:0.36568535 11:0.25466159 12:0.19579113 13:0.26760683 14:0.21808046 15:0.10992568 16:0.23529412 17:0.25 18:0.071428571 20:0.17073171 21:0.2 25:0.28571429 27:0.15384615 31:0.125 36:0.14285714 37:0.5 38:0.28571429 39:0.14285714 
-2 0:0.29778903 1:0.59860577 2:0.39619284 3:0.2310101 4:0.11884565 5:0.50094488 6:1 7:0.74781713 8:0.50950268 9:0.31853432 10:0.4926825 11:0.00028057526 12:0.031158069 13:0.0089006465 14:0.044877491 15:0.11098908 16:0.11764706 18:0.14285714 19:0.14285714 20:0.048780488 21:0.1 25:0.28571429 31:0.25 36:0.14285714 37:0.5 
2 0:0.32390874 1:0.36239379 2:0.52505326 3:0.2310101 4:0.18624229 5:0.46547937 6:0.57126337 7:0.34319032 8:0.27084406 9:0.60067034 10:0.082840199 11:0.62127946 12:0.2901885 13:0.38624964 14:0.033829556 15:0.31371656 16:0.35294118 17:0.125 18:0.35714286 19:0.14285714 20:0.41463415 21:0.2 24:0.16666667 25:0.28571429 28:0.33333333 29:0.14285714 31:0.125 32:0.25 34:0.2 36:0.28571429 37:0.5 38:0.57142857 39:0.14285714 40:0.25 42:0.25 
0.4103980368741049 0:0.65930284 1:0.57275237 2:0.67818633 3:0.15532702 4:0.16700838 5:0.51624863 6:0.87576514 7:0.42979876 8:0.44802221 9:0.63044161 10:0.32145437 11:0.32476537 12:0.29534776 13:0.13256734 14:0.016311489 15:0.24719642 16:0.23529412 17:0.125 18:0.64285714 19:0.57142857 20:0.43902439 21:0.1 24:0.5 25:0.28571429 26:0.6 27:0.15384615 30:0.33333333 31:0.25 32:0.5 34:0.2 35:0.14285714 38:0.28571429 40:0.25 42:0.25 
-2 0:0.20678762 1:0.3833642 2:0.39619284 3:0.2310101 4:0.013782327 5:0.32850722 6:0.53100932 7:0.57529087 8:0.46545623 9:0.31853432 10:0.4926825 11:0.00028057526 12:0.031158069 13:0.0089006465 14:0.044877491 15:0.096884068 16:0.11764706 18:0.071428571 20:0.073170732 23:0.25 24:0.33333333 25:0.14285714 27:0.076923077 31:0.125 37:0.5 39:0.14285714 
2 0:0.26732874 1:0.46568316 2:0.67818633 3:0.2310101 4:0.20851678 5:0.3633942 6:0.45617437 7:0.53958652 8:0.51014657 9:0.24170654 10:0.40708063 11:0.00028057526 12:0.031158069 13:0.0089006465 14:0.044877491 15:0.17284587 16:0.17647059 18:0.21428571 20:0.097560976 24:0.16666667 27:0.15384615 31:0.125 37:0.5 38:0.28571429 40:0.25 
0.4846939834886375 0:0.29771195 1:0.46313092 2:0.30076488 3:0.15532702 4:0.33616956 5:0.42669073 6:0.53100932 7:0.52776132 8:0.4886473 9:0.38503333 10:0.3978634 11:0.28850399 12:0.56173482 13:0.34074529 14:0.80633052 15:0.26344458 16:0.35294118 17:0.25 18:0.21428571 20:0.14634146 24:0.16666667 26:0.4 27:0.23076923 30:0.33333333 31:0.125 35:0.14285714 36:0.28571429 
-2 0:0.49078775 1:0.42163207 2:0.44874296 3:0.15532702 4:0.28845162 5:0.46339576 6:0.61976716 7:0.34015734 8:0.37050216 9:0.49646058 10:0.30066459 11:0.17687673 12:0.38566866 13:0.022211685 14:0.044560724 15:0.23289827 16:0.41176471 17:0.25 18:0.42857143 19:0.28571429 20:0.56097561 21:0.5 24:0.33333333 25:0.14285714 27:0.30769231 29:0.42857143 30:0.66666667 34:0.2 35:0.28571429 38:0.28571429 39:0.28571429 40:0.375 42:0.25 
2 0:0.23826874 1:0.44172716 2:0.67818633 3:0.2310101 4:0.0581422 5:0.3165685 6:0.44131905 7:0.54202932 8:0.49701259 9:0.31853432 10:0.4926825 11:0.00028057526 12:0.031158069 13:0.0089006465 14:0.044877491 15:0.064133698 16:0.11764706 18:0.14285714 20:0.073170732 21:0.1 27:0.076923077 29:0.14285714 35:0.14285714 37:0.5 39:0.28571429 40:0.125 
-2 0:0.27499753 1:0.45312216 2:1 3:0.15532702 4:0.13032408 5:0.30454838 6:0.45617437 7:0.40590746 8:0.49071083 9:0.45663662 10:0.33168631 11:0.00028057526 12:0.031158069 13:0.0089006465 14:0.044877491 15:0.11190254 16:0.17647059 18:0.14285714 20:0.12195122 21:0.2 24:0.16666667 25:0.14285714 27:0.15384615 29:0.14285714 30:0.33333333 31:0.125 39:0.14285714 
-2 0:0.37784747 1:0.46341416 2:0.30076488 3:0.2310101 4:0.15311828 5:0.64467893 6:1 7:0.3826611 8:0.51516771 9:0.67019246 10:0.33008198 11:0.55233582 12:0.18451652 13:0.30915446 14:0.089329626 15:0.18546356 16:0.29411765 18:0.21428571 19:0.14285714 20:0.26829268 21:0.1 24:0.33333333 25:0.14285714 26:0.2 27:0.23076923 31:0.25 34:0.2 37:0.5 38:0.14285714 39:0.28571429 42:0.25 
2 0:0.35542977 1:0.45705393 2:0.52505326 4:0.13937905 5:0.53260381 6:0.49942297 7:0.44353246 8:0.36453232 9:0.4497926 10:0.46567103 11:0.099894252 12:0.20943884 13:0.030833053 14:0.069242832 15:0.074236575 16:0.29411765 17:0.25 18:0.42857143 19:0.57142857 20:0.24390244 21:0.2 27:0.15384615 28:0.16666667 32:0.25 34:0.2 35:0.14285714 36:0.14285714 40:0.5 41:0.33333333 42:0.25 
-2 0:0.11337787 1:0.20788528 2:0.44874296 3:0.2310101 4:0.045483239 5:0.12419767 6:0.23135349 7:0.3221066 8:0.24432365 9:0.31853432 10:0.4926825 11:0.00028057526 12:0.031158069 13:0.0089006465 14:0.044877491 15:0.055244098 16:0.17647059 17:0.125 18:0.071428571 20:0.048780488 21:0.2 25:0.14285714 27:0.076923077 28:0.16666667 32:0.25 37:0.5 
2 0:0.30424602 1:0.52651965 2:1 3:0.2310101 4:0.1016844 5:0.31207912 6:0.53100932 7:0.55707759 8:0.49575433 9:0.34802123 10:0.52553696 11:0.00028057526 12:0.031158069 13:0.0089006465 14:0.044877491 15:0.099621725 16:0.17647059 17:0.125 18:0.21428571 19:0.14285714 20:0.097560976 21:0.2 24:0.16666667 27:0.076923077 29:0.14285714 31:0.125 32:0.25 36:0.14285714 37:0.5 
-2 0:0.53866413 1:0.58976885 2:0.39619284 3:0.2310101 4:0.10646346 5:0.55328533 6:0.74971148 7:0.56231753 8:0.57391827 9:0.61307762 10:0.50604191 11:0.33202308 12:0.43674292 13:0.15447371 14:0.25349707 15:0.22047374 16:0.11764706 18:0.42857143 19:0.28571429 20:0.29268293 21:0.1 24:0.5 25:0.14285714 26:0.2 29:0.28571429 31:0.125 35:0.14285714 36:0.14285714 37:0.5 38:0.14285714 39:0.14285714 40:0.25 42:0.25 
2 0:0.30940681 1:0.4115488 2:0.44874296 3:0.2310101 4:0.23476614 5:0.44871783 6:0.74971148 7:0.4132421 8:0.49575433 9:0.4661406 10:0.40811192 11:0.19614056 12:0.29365581 13:0.19575685 14:0.10486653 15:0.1207832 16:0.29411765 17:0.125 18:0.21428571 19:0.14285714 20:0.24390244 21:0.3 25:0.14285714 27:0.15384615 31:0.125 32:0.25 34:0.2 36:0.14285714 37:0.5 38:0.14285714 39:0.14285714 40:0.125 42:0.25 
-2 0:0.46504965 1:0.65021657 2:0.67818633 3:0.15532702 4:0.1016844 5:0.66289571 6:1 7:0.52691759 8:0.49071083 9:0.59023877 10:0.59731936 11:0.36402675 12:0.079337712 13:0.27154338 14:0.053011673 15:0.14537965 16:0.11764706 18:0.35714286 19:0.28571429 20:0.17073171 21:0.2 24:0.16666667 27:0.076923077 29:0.14285714 30:0.33333333 31:0.25 38:0.14285714 40:0.25 42:0.25 
0.2633396168415387 0:0.26652742 1:0.36915187 2:0.30932665 3:0.2310101 4:0.14775344 5:0.35628024 6:0.66009012 7:0.32222034 8:0.25143068 9:0.4274123 10:0.33481831 11:0.23621475 12:0.28286423 13:0.16630307 14:0.09280803 15:0.24045122 16:0.35294118 17:0.375 18:0.21428571 19:0.14285714 20:0.24390244 24:0.16666667 25:0.14285714 28:0.16666667 31:0.25 32:0.25 34:0.4 35:0.28571429 36:0.28571429 37:0.5 38:0.28571429 
1.975859712828206 0:0.43985529 1:0.45075986 3:0.15532702 4:0.25567162 5:0.55567224 6:0.57126337 7:0.28673172 8:0.32248759 9:0.63692057 10:0.39698823 11:0.42780127 12:0.74159297 13:0.075930624 14:0.018491022 15:0.389833 16:0.29411765 18:0.42857143 20:0.3902439 21:0.3 24:0.5 27:0.15384615 28:0.33333333 29:0.14285714 30:0.33333333 31:0.25 32:0.25 35:0.28571429 38:0.14285714 40:0.25 42:0.25 
2 0:0.2140428 1:0.35032037 2:0.44874296 3:0.15532702 4:0.014706028 5:0.24941833 6:0.14252675 7:0.45164703 8:0.49071083 9:0.30690965 10:0.40243313 11:0.087775143 12:0.033242219 13:0.1096371 14:0.047868543 15:0.008527743 16:0.058823529 20:0.14634146 21:0.7 25:0.14285714 30:0.33333333 35:0.28571429 
1.314920758755761 0:0.44697742 1:0.52749427 2:0.30951371 3:0.2310101 4:0.31904454 5:0.55567224 6:0.74971148 7:0.47003391 8:0.50286137 9:0.65283172 10:0.33734958 11:0.41498996 12:0.74331615 13:0.27416907 14:0.67947669 15:0.3618514 16:0.29411765 17:0.125 18:0.42857143 19:0.14285714 20:0.26829268 21:0.1 24:0.33333333 26:0.2 28:0.16666667 29:0.14285714 31:0.125 34:0.2 35:0.14285714 36:0.28571429 37:0.5 40:0.375 42:0.25 
2 0:0.30190225 1:0.55969752 2:0.83292138 3:0.15532702 4:0.16256496 5:0.4228279 6:0.74971148 7:0.56911645 8:0.60002482 9:0.31853432 10:0.4926825 11:0.00028057526 12:0.031158069 13:0.0089006465 14:0.044877491 15:0.12884657 16:0.17647059 18:0.21428571 19:0.14285714 20:0.073170732 21:0.1 29:0.14285714 30:0.33333333 31:0.125 34:0.2 35:0.14285714 36:0.14285714 40:0.125 
2 0:0.40220271 1:0.50330059 2:0.33341178 3:0.2310101 4:0.15202722 5:0.49341414 6:0.74971148 7:0.41737077 8:0.4265223 9:0.69768278 10:0.28850311 11:0.73551987 12:0.28374477 13:0.49566576 14:0.11191261 15:0.28818508 16:0.17647059 18:0.28571429 19:0.14285714 20:0.24390244 21:0.3 23:0.25 25:0.14285714 28:0.16666667 29:0.14285714 31:0.25 36:0.14285714 37:0.5 38:0.14285714 39:0.14285714 40:0.125 42:0.25 
2 0:0.59609345 1:0.86543665 2:0.30076488 3:0.15532702 4:0.14639427 5:0.70452326 6:1 7:0.83408712 8:0.64368739 9:0.75439671 10:0.60620724 11:0.3806264 12:0.34095642 13:0.44680999 14:0.48948214 15:0.20931274 16:0.11764706 18:0.5 19:0.71428571 20:0.14634146 25:0.28571429 27:0.076923077 29:0.14285714 30:0.33333333 31:0.5 40:0.25 
0.5140078716260273 0:0.35831611 1:0.39317291 2:0.5629538 3:0.2310101 4:0.31948362 5:0.33007961 6:0.401065 7:0.43594055 8:0.52212279 9:0.47224411 10:0.34080967 11:0.32551136 12:0.21808642 13:0.10492867 14:0.091221636 15:0.18050958 16:0.41176471 18:0.28571429 20:0.3902439 21:0.1 24:0.33333333 25:0.14285714 27:0.076923077 29:0.28571429 32:0.25 34:1 35:0.42857143 37:0.5 38:0.14285714 39:0.14285714 41:0.33333333 42:0.25 
-2 0:0.42563595 1:0.50771176 2:0.67818633 3:0.2310101 4:0.49993565 5:0.43991633 6:1 7:0.42237035 8:0.24432365 9:0.63580356 10:0.25797136 11:0.52822977 12:0.55485896 13:0.36954526 14:0.09313472 15:0.45222667 16:0.35294118 17:0.125 18:0.42857143 19:0.14285714 20:0.26829268 21:0.1 24:0.16666667 27:0.23076923 28:0.33333333 29:0.28571429 31:0.25 37:0.5 39:0.14285714 40:0.125 41:0.33333333 42:0.25 
1.547459376447878 0:0.2782397 1:0.37108258 2:0.30076488 3:0.2310101 4:0.20268688 5:0.38800948 6:0.3884904 7:0.38418216 8:0.27084406 9:0.41276222 10:0.30622287 11:0.15344109 12:0.26159121 13:0.061458389 14:0.065073041 15:0.21294741 16:0.23529412 18:0.21428571 20:0.26829268 24:0.16666667 25:0.14285714 27:0.076923077 28:0.16666667 29:0.28571429 34:0.2 35:0.14285714 37:0.5 38:0.14285714 39:0.57142857 40:0.125 42:0.25 
2 0:0.37140943 1:0.59611282 2:0.33341178 3:0.2310101 4:0.15818841 5:0.44114777 6:0.63061321 7:0.56449868 8:0.59306974 9:0.56982256 10:0.62175126 11:0.00028057526 12:0.031158069 13:0.0089006465 14:0.044877491 15:0.17905733 16:0.11764706 18:0.28571429 19:0.14285714 20:0.12195122 27:0.076923077 29:0.14285714 31:0.125 35:0.14285714 37:0.5 38:0.14285714 39:0.14285714 40:0.25 42:0.25 
-2 0:0.38264201 1:0.70938121 2:0.38081742 3:0.2310101 4:0.049086431 5:0.67028384 6:0.87576514 7:0.7698929 8:0.61870723 9:0.31853432 10:0.4926825 11:0.00028057526 12:0.031158069 13:0.0089006465 14:0.044877491 15:0.10366462 16:0.058823529 18:0.28571429 19:0.28571429 20:0.073170732 26:0.2 29:0.14285714 31:0.125 35:0.14285714 37:0.5 39:0.28571429 40:0.125 
2 0:0.3081159 1:0.62048578 2:0.30076488 3:0.15532702 4:0.14564468 5:0.56831252 6:0.87005568 7:0.68576825 8:0.59333165 9:0.31853432 10:0.4926825 11:0.00028057526 12:0.031158069 13:0.0089006465 14:0.044877491 15:0.17701647 16:0.11764706 18:0.21428571 19:0.14285714 20:0.048780488 24:0.16666667 26:0.2 27:0.076923077 29:0.14285714 30:0.33333333 31:0.125 38:0.14285714 
2 0:0.28157106 1:0.46287152 2:0.39698548 3:0.2310101 4:0.11287889 5:0.32593727 6:0.32097486 7:0.5472127 8:0.61581105 9:0.35770142 10:0.53059166 11:0.00028057526 12:0.031158069 13:0.0089006465 14:0.044877491 15:0.078860928 16:0.11764706 18:0.21428571 20:0.12195122 21:0.3 24:0.33333333 34:0.2 37:0.5 40:0.25 41:0.33333333 
2 0:0.18800159 1:0.36599403 2:0.5629538 3:0.15532702 4:0.19107039 5:0.31409408 6:0.33303439 7:0.49547961 8:0.39702257 9:0.31853432 10:0.4926825 11:0.00028057526 12:0.031158069 13:0.0089006465 14:0.044877491 15:0.083500922 16:0.17647059 18:0.14285714 20:0.048780488 21:0.1 29:0.14285714 30:0.33333333 32:0.25 34:0.2 36:0.14285714 38:0.14285714 
-1.238076545344091 0:0.36970728 1:0.53237956 2:0.84026244 3:0.15532702 4:0.059820937 5:0.45842591 6:0.53100932 7:0.55375236 8:0.44802221 9:0.57765794 10:0.45788876 11:0.30928452 12:0.3878845 13:0.083668371 14:0.42108612 15:0.17941441 16:0.11764706 18:0.28571429 20:0.17073171 24:0.33333333 25:0.14285714 26:0.2 27:0.076923077 30:0.33333333 31:0.125 38:0.14285714 39:0.14285714 40:0.125 41:0.33333333 42:0.25 
2 0:0.43051184 1:0.51223148 2:0.44874296 3:0.2310101 4:0.10463905 5:0.63949589 6:1 7:0.38664974 8:0.4886473 9:0.690599 10:0.42263409 11:0.4735034 12:0.039481271 13:0.4936073 14:0.0036427324 15:0.18718249 16:0.29411765 17:0.25 18:0.28571429 19:0.28571429 20:0.26829268 21:0.2 25:0.14285714 27:0.23076923 31:0.375 34:0.2 37:0.5 38:0.42857143 40:0.125 42:0.25 
-2 0:0.11661667 1:0.21822394 2:0.30951371 3:0.15532702 4:0.062309525 5:0.14696122 6:0.10227269 7:0.35990441 8:0.49071083 9:0.20915565 10:0.34192109 11:0.00028057526 12:0.031158069 13:0.0089006465 14:0.044877491 15:0.015568701 16:0.29411765 17:0.125 20:0.12195122 21:0.2 24:0.16666667 25:0.14285714 30:0.33333333 34:0.2 36:0.42857143 39:0.14285714 
-2 0:0.53618917 1:0.51879555 2:0.30951371 3:0.15532702 4:0.19683987 5:0.55631482 6:0.87576514 7:0.5199006 8:0.43893771 9:0.5439857 10:0.44189744 11:0.29420984 12:0.16970259 13:0.0098771486 14:0.012942773 15:0.21629965 16:0.29411765 17:0.125 18:0.5 19:0.42857143 20:0.3902439 21:0.4 24:0.16666667 25:0.28571429 26:0.2 30:0.33333333 31:0.25 32:0.25 34:0.2 35:0.14285714 36:0.28571429 37:0.5 38:0.14285714 40:0.125 41:0.66666667 
2 0:0.30015644 1:0.37305805 2:0.30076488 3:0.15532702 4:0.24810803 5:0.31962252 6:0.62547662 7:0.31282079 8:0.30935361 9:0.41242611 10:0.35014599 11:0.27301106 12:0.48458437 13:0.081777478 14:0.073667002 15:0.25809143 16:0.35294118 18:0.28571429 19:0.14285714 20:0.31707317 21:0.1 24:0.16666667 25:0.14285714 26:0.4 27:0.15384615 28:0.16666667 29:0.14285714 30:0.66666667 34:0.2 35:0.28571429 39:0.42857143 40:0.125 
-2 0:0.1048797 1:0.1944368 2:0.38081742 3:0.15532702 4:0.018744685 5:0.23908388 6:0.28072081 7:0.24198513 8:0.12617851 9:0.31853432 10:0.4926825 11:0.00028057526 12:0.031158069 13:0.0089006465 14:0.044877491 15:0.039952904 16:0.17647059 17:0.125 18:0.071428571 20:0.073170732 24:0.16666667 27:0.076923077 28:0.16666667 30:0.33333333 35:0.14285714 38:0.14285714 39:0.14285714 40:0.125 
2 0:0.27017091 1:0.39528032 2:0.38081742 3:0.2310101 4:0.09398645 5:0.46005488 6:0.57126337 7:0.39703454 8:0.50950268 9:0.48118078 10:0.32601995 11:0.32580271 12:0.080410689 13:0.36572428 14:0.046850649 15:0.16326494 16:0.17647059 18:0.14285714 20:0.19512195 21:0.1 24:0.16666667 25:0.14285714 26:0.2 27:0.15384615 31:0.125 37:0.5 38:0.42857143 39:0.28571429 
-2 0:0.15792783 1:0.28539987 2:0.39619284 3:0.2310101 4:0.087035901 5:0.23979803 6:0.36398747 7:0.50204466 8:0.43198263 9:0.33377187 10:0.50966025 11:0.00028057526 12:0.031158069 13:0.0089006465 14:0.044877491 15:0.068993822 16:0.29411765 17:0.375 18:0.071428571 20:0.097560976 23:0.25 25:0.28571429 26:0.2 27:0.15384615 36:0.28571429 37:0.5 
-2 0:0.46807185 1:0.48290538 2:0.84026244 3:0.15532702 4:0.11698616 5:0.46342714 6:0.50637835 7:0.46860987 8:0.37050216 9:0.46316582 10:0.32284461 11:0.21287279 12:0.20702122 13:0.032136306 14:0.018351846 15:0.18565758 16:0.17647059 17:0.125 18:0.42857143 19:0.14285714 20:0.36585366 21:0.1 24:0.16666667 25:0.28571429 26:0.6 27:0.076923077 30:0.33333333 32:0.25 35:0.42857143 37:0.5 38:0.28571429 39:0.14285714 40:0.25 42:0.25 
-2 0:0.21791744 1:0.42937812 2:0.30076488 3:0.2310101 4:0.075226995 5:0.36357397 6:0.61976716 7:0.53067595 8:0.43198263 9:0.31853432 10:0.4926825 11:0.00028057526 12:0.031158069 13:0.0089006465 14:0.044877491 15:0.036716088 16:0.23529412 17:0.25 18:0.14285714 19:0.14285714 20:0.048780488 27:0.15384615 29:0.14285714 36:0.14285714 37:0.5 40:0.125 42:0.25 
-0.3554214657424093 0:0.35540162 1:0.39111456 2:0.84026244 3:0.2310101 4:0.077844992 5:0.49760122 6:0.62547662 7:0.33031093 8:0.30935361 9:0.4133704 10:0.29499673 11:0.32365904 12:0.15915781 13:0.11072805 14:0.015173504 15:0.21081502 16:0.29411765 18:0.35714286 19:0.28571429 20:0.3902439 21:0.1 23:0.25 24:0.33333333 26:0.4 27:0.076923077 28:0.33333333 29:0.14285714 35:0.42857143 37:1 38:0.14285714 39:0.28571429 40:0.25 42:0.25 
-2 0:0.3742949 1:0.53804956 2:0.5629538 3:0.2310101 4:0.08132811 5:0.63342055 6:0.87576514 7:0.29662267 8:0.27084406 9:0.50402999 10:0.45034088 11:0.36660023 12:0.034630941 13:0.37348094 14:0.0070875369 15:0.16133702 16:0.17647059 18:0.42857143 19:0.57142857 20:0.17073171 26:0.2 28:0.16666667 29:0.14285714 31:0.125 32:0.5 34:0.2 37:0.5 38:0.14285714 39:0.28571429 40:0.125 
2 0:0.66321675 1:0.5129654 3:0.2310101 4:0.24487765 5:0.50972172 6:1 7:0.31662317 8:0.36453232 9:0.69008041 10:0.24595263 11:0.62288195 12:0.42445774 13:0.13765477 14:0.042881469 15:0.56137591 16:0.35294118 17:0.125 18:0.5 19:0.28571429 20:0.56097561 21:0.4 23:0.25 24:0.5 25:0.28571429 26:0.4 27:0.076923077 28:0.33333333 31:0.625 34:0.2 35:0.28571429 36:0.14285714 37:0.5 38:0.14285714 39:0.28571429 
-2 0:0.36893456 1:0.45515233 2:0.44874296 3:0.15532702 4:0.021537806 5:0.48903942 6:0.87005568 7:0.38009656 8:0.39702257 9:0.60175925 10:0.34837551 11:0.41416868 12:0.20862173 13:0.34991751 14:0.045092065 15:0.16332228 16:0.23529412 17:0.25 18:0.21428571 19:0.14285714 20:0.26829268 21:0.1 25:0.28571429 27:0.15384615 29:0.14285714 30:0.33333333 31:0.25 34:0.2 38:0.28571429 39:0.42857143 42:0.25 
-2 0:0.25278653 1:0.38787307 2:0.52505326 3:0.15532702 4:0.0379347 5:0.37372198 6:0.63061321 7:0.40488374 8:0.39702257 9:0.4702265 10:0.29141057 11:0.34790297 12:0.15370741 13:0.37809106 14:0.2111533 15:0.083551912 16:0.17647059 17:0.125 18:0.071428571 20:0.17073171 21:0.1 25:0.14285714 30:0.33333333 31:0.125 34:0.2 35:0.28571429 36:0.14285714 38:0.28571429 42:0.5 
-2 0:0.38531834 1:0.66011986 2:1 3:0.2310101 4:0.14187739 5:0.64585258 6:1 7:0.60562763 8:0.51014657 9:0.68873791 10:0.9051651 11:0.00028057526 12:0.031158069 13:0.0089006465 14:0.044877491 15:0.14787323 16:0.17647059 18:0.21428571 19:0.14285714 20:0.097560976 24:0.16666667 27:0.076923077 31:0.375 36:0.14285714 37:0.5 39:0.14285714 42:0.25 
-2 0:0.23494483 1:0.46545485 2:0.84026244 3:0.2310101 4:0.087035901 5:0.39599471 6:0.40044853 7:0.52083185 8:0.43908966 9:0.31853432 10:0.4926825 11:0.00028057526 12:0.031158069 13:0.0089006465 14:0.044877491 15:0.085878906 16:0.17647059 17:0.125 18:0.14285714 20:0.048780488 25:0.28571429 26:0.2 27:0.076923077 29:0.14285714 36:0.14285714 37:0.5 
2 0:0.28525218 1:0.46833107 2:0.67818633 3:0.15532702 4:0.03393994 5:0.49805321 6:0.40615799 7:0.35274601 8:0.49071083 9:0.48014714 10:0.44032142 11:0.00028057526 12:0.031158069 13:0.0089006465 14:0.044877491 15:0.12273405 16:0.17647059 17:0.125 18:0.21428571 20:0.12195122 21:0.1 25:0.28571429 26:0.2 27:0.076923077 29:0.14285714 30:0.33333333 34:0.2 39:0.14285714 40:0.125 
-1.975274154498114 0:0.4889415 1:0.64486769 2:0.67401425 3:0.2310101 4:0.24370212 5:0.48517566 6:0.53100932 7:0.6660699 8:0.61959016 9:0.52632285 10:0.63999216 11:0.14986658 12:0.22958003 13:0.13147641 14:0.11888755 15:0.39863113 16:0.11764706 18:0.42857143 20:0.19512195 24:0.16666667 31:0.375 32:0.25 34:0.2 35:0.14285714 37:0.5 38:0.28571429 39:0.14285714 40:0.125 41:0.33333333 
2 0:0.31370074 1:0.58157078 2:0.44874296 3:0.15532702 4:0.1371648 5:0.55081756 6:0.62547662 7:0.64239743 8:0.50270941 9:0.31853432 10:0.4926825 11:0.00028057526 12:0.031158069 13:0.0089006465 14:0.044877491 15:0.086319435 16:0.17647059 17:0.125 18:0.28571429 19:0.42857143 20:0.073170732 21:0.1 26:0.2 29:0.14285714 30:0.33333333 34:0.2 36:0.14285714 40:0.25 
0.9491933224845509 0:0.52988592 1:0.4892997 2:0.83292138 3:0.2310101 4:0.16297366 5:0.59424434 6:0.74582082 7:0.36454197 8:0.49560238 9:0.64520979 10:0.33365915 11:0.53624204 12:0.39826405 13:0.15765437 14:0.070163279 15:0.31332023 16:0.41176471 17:0.5 18:0.42857143 19:0.14285714 20:0.43902439 21:0.1 24:0.5 25:0.14285714 26:0.2 27:0.076923077 29:0.57142857 31:0.125 34:0.2 35:0.14285714 36:0.57142857 37:0.5 38:0.28571429 39:0.28571429 
-1.484012345647096 0:0.32504043 1:0.52734192 2:0.30951371 3:0.2310101 4:0.049086431 5:0.58348679 6:0.74646667 7:0.49205849 8:0.45850304 9:0.41048603 10:0.40191147 11:0.00028057526 12:0.031158069 13:0.0089006465 14:0.044877491 15:0.089536491 16:0.17647059 17:0.125 18:0.28571429 19:0.28571429 20:0.12195122 25:0.14285714 31:0.125 35:0.14285714 36:0.28571429 37:0.5 38:0.14285714 40:0.25 41:0.33333333 
-2 0:0.24871863 1:0.46110025 2:0.44874296 3:0.2310101 4:0.21901703 5:0.37542018 6:0.401065 7:0.54311389 8:0.59333165 9:0.31853432 10:0.4926825 11:0.00028057526 12:0.031158069 13:0.0089006465 14:0.044877491 15:0.27101475 16:0.11764706 18:0.21428571 20:0.073170732 21:0.1 24:0.16666667 26:0.2 28:0.16666667 29:0.14285714 37:0.5 38:0.14285714 40:0.125 
2 0:0.31895479 1:0.55075843 2:0.44874296 3:0.15532702 4:0.097307843 5:0.50791524 6:0.87576514 7:0.53043031 8:0.63537638 9:0.3570267 10:0.5355709 11:0.00028057526 12:0.031158069 13:0.0089006465 14:0.044877491 15:0.13375277 16:0.058823529 18:0.21428571 19:0.14285714 20:0.097560976 21:0.1 25:0.14285714 26:0.2 30:0.33333333 31:0.125 32:0.25 38:0.14285714 39:0.14285714 42:0.25 
2 0:0.33436282 1:0.51254703 2:0.5629538 3:0.2310101 4:0.11989805 5:0.4644296 6:0.44702851 7:0.4796537 8:0.5521913 9:0.45847866 10:0.52583464 11:0.05791628 12:0.29491818 13:0.075259239 14:0.42341073 15:0.10647986 16:0.11764706 18:0.21428571 20:0.14634146 21:0.6 26:0.2 27:0.076923077 29:0.14285714 32:0.25 37:0.5 
0.08337315481643634 0:0.96481083 1:0.50408329 2:1 3:0.15532702 4:0.76721199 5:0.53859385 6:1 7:0.36865908 8:0.25143068 9:0.73468771 10:0.21977599 11:0.5704299 12:0.6276745 13:0.082400166 14:0.00015679336 15:0.75268885 16:0.82352941 17:0.25 18:0.92857143 19:0.42857143 20:0.97560976 21:0.7 25:0.85714286 26:0.4 27:0.15384615 28:0.33333333 29:0.14285714 30:0.33333333 31:0.75 34:1 35:0.14285714 36:0.57142857 38:0.28571429 39:0.28571429 40:0.5 
2 0:0.31579675 1:0.41786684 2:1 3:0.2310101 4:0.12888521 5:0.37201549 6:0.74971148 7:0.40212299 8:0.43198263 9:0.43674631 10:0.35743249 11:0.21829684 12:0.21850388 13:0.13173531 14:0.03090978 15:0.062235923 16:0.29411765 17:0.125 18:0.21428571 19:0.14285714 20:0.24390244 21:0.4 24:0.16666667 27:0.076923077 31:0.125 34:0.4 36:0.14285714 37:0.5 38:0.14285714 39:0.14285714 40:0.25 
-2 0:0.38481735 1:0.61599842 2:0.84026244 3:0.15532702 5:0.57609296 6:0.87005568 7:0.56888747 8:0.39702257 9:0.56077415 10:0.37534526 11:0.00028057526 12:0.031158069 13:0.0089006465 14:0.044877491 15:0.11304648 16:0.058823529 18:0.28571429 19:0.14285714 20:0.12195122 25:0.28571429 26:0.2 29:0.14285714 30:0.33333333 31:0.125 38:0.28571429 40:0.125 42:0.25 
-0.8536251615570409 0:0.35561564 1:0.54120206 2:0.84026244 3:0.2310101 4:0.036243834 5:0.4157719 6:0.53585526 7:0.4461898 8:0.50255746 9:0.53395108 10:0.48700737 11:0.24260438 12:0.33515158 13:0.28789899 14:0.48115138 15:0.11742759 16:0.17647059 17:0.125 18:0.28571429 19:0.28571429 20:0.14634146 21:0.2 25:0.28571429 26:0.2 31:0.125 32:0.25 34:0.4 37:0.5 40:0.125 
-2 0:0.26826519 1:0.53605224 2:1 3:0.15532702 4:0.20144746 5:0.29781847 6:0.53100932 7:0.54540034 8:0.49560238 9:0.31853432 10:0.4926825 11:0.00028057526 12:0.031158069 13:0.0089006465 14:0.044877491 15:0.19737631 16:0.17647059 17:0.125 18:0.14285714 20:0.048780488 24:0.16666667 25:0.14285714 27:0.076923077 30:0.33333333 31:0.25 34:0.2 
0.702682804419293 0:0.20627949 1:0.32238893 2:0.30951371 3:0.2310101 4:0.090619325 5:0.31234335 6:0.44702851 7:0.36882516 8:0.51014657 9:0.37390542 10:0.28249155 11:0.3068356 12:0.22371121 13:0.29917931 14:0.25369946 15:0.077660943 16:0.29411765 18:0.071428571 20:0.19512195 21:0.2 24:0.16666667 26:0.2 35:0.14285714 36:0.42857143 37:1 38:0.14285714 39:0.14285714 42:0.25 
2 0:0.37383633 1:0.44596895 2:0.30076488 3:0.15532702 4:0.15238682 5:0.51360068 6:0.74971148 7:0.37897656 8:0.43908966 9:0.52330521 10:0.31393302 11:0.36799061 12:0.24157523 13:0.25666799 14:0.13319898 15:0.24377439 16:0.35294118 17:0.25 18:0.28571429 19:0.14285714 20:0.29268293 21:0.1 23:0.25 27:0.15384615 29:0.14285714 30:0.33333333 31:0.25 34:0.2 35:0.28571429 36:0.14285714 37:0.5 38:0.14285714 39:0.28571429 40:0.125 
2 0:0.38263737 1:0.70937261 2:1 3:0.2310101 4:0.15925071 5:0.63353888 6:0.74971148 7:0.54920227 8:0.5521913 9:0.31853432 10:0.4926825 11:0.00028057526 12:0.031158069 13:0.0089006465 14:0.044877491 15:0.11074536 16:0.11764706 18:0.28571429 19:0.28571429 20:0.073170732 21:0.2 27:0.076923077 29:0.28571429 31:0.125 37:0.5 40:0.125 
2 0:0.25328609 1:0.55064525 2:0.30932665 3:0.2310101 4:0.0045278847 5:0.42235533 6:0.87576514 7:0.7032923 8:0.45850304 9:0.31853432 10:0.4926825 11:0.00028057526 12:0.031158069 13:0.0089006465 14:0.044877491 15:0.084092638 16:0.11764706 18:0.14285714 19:0.14285714 20:0.024390244 26:0.2 31:0.125 34:0.2 37:0.5 38:0.14285714 39:0.14285714 
-2 0:0.32290747 1:0.45544554 2:0.44874296 3:0.15532702 4:0.063792458 5:0.36476499 6:0.32097486 7:0.49855249 8:0.49071083 9:0.49216022 10:0.34186982 11:0.37275753 12:0.22778759 13:0.23805498 14:0.23656029 15:0.082498144 16:0.11764706 18:0.28571429 20:0.19512195 21:0.4 24:0.16666667 27:0.076923077 30:0.33333333 38:0.14285714 39:0.14285714 40:0.5 
-2 0:0.28380883 1:0.52615408 2:0.5629538 3:0.2310101 4:0.014706028 5:0.43688963 6:0.63061321 7:0.65871725 8:0.5521913 9:0.31853432 10:0.4926825 11:0.00028057526 12:0.031158069 13:0.0089006465 14:0.044877491 15:0.084371856 16:0.058823529 18:0.14285714 20:0.073170732 21:0.2 31:0.125 32:0.25 35:0.14285714 37:0.5 39:0.14285714 42:0.25 
2 0:0.32597262 1:0.39432947 2:0.39698548 3:0.15532702 4:0.16248817 5:0.38448796 6:0.57126337 7:0.32660481 8:0.34874609 9:0.57398093 10:0.37821891 11:0.32517921 12:0.4853788 13:0.062732862 14:0.022945291 15:0.35485188 16:0.23529412 17:0.125 18:0.21428571 20:0.31707317 21:0.3 24:0.16666667 25:0.28571429 27:0.076923077 28:0.33333333 29:0.28571429 30:0.33333333 31:0.125 35:0.14285714 38:0.14285714 39:0.14285714 42:0.5 
-2 0:0.27936037 1:0.48551025 2:0.33341178 3:0.15532702 5:0.49305671 6:0.63061321 7:0.55501314 8:0.39702257 9:0.39589971 10:0.57888338 11:0.00028057526 12:0.031158069 13:0.0089006465 14:0.044877491 15:0.087571818 16:0.058823529 18:0.14285714 20:0.097560976 24:0.16666667 25:0.14285714 30:0.33333333 31:0.125 38:0.28571429 40:0.125 42:0.5 
2 0:0.21058553 1:0.39040516 2:0.44874296 3:0.15532702 4:0.014706028 5:0.30250689 6:0.32097486 7:0.44189578 8:0.49071083 9:0.31853432 10:0.4926825 11:0.00028057526 12:0.031158069 13:0.0089006465 14:0.044877491 15:0.021858277 16:0.058823529 18:0.071428571 20:0.073170732 21:0.5 25:0.14285714 30:0.33333333 40:0.125 
-2 0:0.37143939 1:0.49049396 2:0.83292138 3:0.15532702 4:0.27769759 5:0.44263163 6:0.49942297 7:0.3915854 8:0.25127873 9:0.57234978 10:0.30715748 11:0.51515988 12:0.2638865 13:0.3602266 14:0.042202906 15:0.22875296 16:0.23529412 17:0.125 18:0.35714286 19:0.14285714 20:0.2195122 21:0.3 25:0.14285714 27:0.076923077 28:0.16666667 29:0.42857143 30:0.33333333 34:0.2 35:0.14285714 40:0.25 
-2 0:0.39672089 1:0.5172765 2:0.33341178 3:0.15532702 4:0.17636436 5:0.59538273 6:1 7:0.4613585 8:0.51516771 9:0.54150213 10:0.50131211 11:0.32245614 12:0.14937569 13:0.28754454 14:0.082177079 15:0.16300006 16:0.23529412 18:0.35714286 19:0.28571429 20:0.2195122 23:0.25 25:0.14285714 27:0.076923077 29:0.14285714 30:0.33333333 31:0.25 32:0.25 34:0.2 35:0.14285714 36:0.14285714 38:0.28571429 40:0.125 
-2 0:0.31650494 1:0.58676949 2:0.38081742 3:0.15532702 4:0.1526009 5:0.43337959 6:0.63061321 7:0.64669092 8:0.57312243 9:0.31853432 10:0.4926825 11:0.00028057526 12:0.031158069 13:0.0089006465 14:0.044877491 15:0.18884704 16:0.11764706 18:0.21428571 20:0.073170732 25:0.14285714 29:0.14285714 30:0.33333333 31:0.125 34:0.2 39:0.14285714 41:0.33333333 42:0.25 
-2 0:0.29958767 1:0.55540651 2:0.44874296 3:0.2310101 4:0.15369524 5:0.43298676 6:0.49942297 7:0.60625903 8:0.57391827 9:0.31853432 10:0.4926825 11:0.00028057526 12:0.031158069 13:0.0089006465 14:0.044877491 15:0.094951076 16:0.11764706 18:0.28571429 19:0.28571429 20:0.073170732 21:0.1 24:0.16666667 26:0.2 32:0.25 36:0.14285714 37:0.5 40:0.25 
-2 0:0.43050535 1:0.53128478 2:0.52505326 3:0.2310101 4:0.098772504 5:0.51051648 6:0.66009012 7:0.5796875 8:0.5521913 9:0.56681342 10:0.37573257 11:0.34453756 12:0.19160234 13:0.1388557 14:0.048127705 15:0.19024224 16:0.11764706 18:0.28571429 19:0.14285714 20:0.24390244 21:0.2 24:0.5 25:0.14285714 29:0.28571429 31:0.125 32:0.25 35:0.14285714 36:0.14285714 37:0.5 39:0.14285714 42:0.25 
2 0:0.1488946 1:0.27603616 2:0.44874296 3:0.15532702 4:0.23688637 5:0.21417348 6:0.45617437 7:0.29629777 8:0.3218437 9:0.31853432 10:0.4926825 11:0.00028057526 12:0.031158069 13:0.0089006465 14:0.044877491 15:0.19607726 16:0.23529412 18:0.071428571 20:0.073170732 21:0.1 24:0.16666667 25:0.14285714 27:0.076923077 28:0.16666667 30:0.33333333 31:0.125 34:0.2 
2 0:0.28502034 1:0.52840009 2:0.44874296 3:0.2310101 4:0.1954807 5:0.45247757 6:0.74971148 7:0.50927662 8:0.50270941 9:0.31853432 10:0.4926825 11:0.00028057526 12:0.031158069 13:0.0089006465 14:0.044877491 15:0.12622553 16:0.17647059 17:0.125 18:0.21428571 19:0.14285714 20:0.073170732 21:0.1 31:0.125 34:0.2 36:0.14285714 37:0.5 39:0.14285714 40:0.25 
2 0:0.57793487 1:0.60193552 2:1 3:0.15532702 4:0.47804202 5:0.72621349 6:1 7:0.37385478 8:0.52227474 9:0.75064862 10:0.34308029 11:0.48795191 12:0.23968161 13:0.13322907 14:0.014646272 15:0.38264069 16:0.35294118 18:0.42857143 19:0.28571429 20:0.31707317 27:0.076923077 30:0.33333333 31:0.625 34:0.4 35:0.14285714 36:0.28571429 38:0.28571429 39:0.28571429 40:0.125 42:0.25 
-1.596011864426534 0:0.66063187 1:0.55913964 2:0.83292138 3:0.15532702 4:0.090898255 5:0.53670351 6:0.57126337 7:0.41507139 8:0.37050216 9:0.64815095 10:0.38307417 11:0.33179615 12:0.64130772 13:0.021338901 14:0.0069692293 15:0.41325092 16:0.17647059 17:0.125 18:0.42857143 20:0.46341463 21:0.2 24:0.16666667 25:0.14285714 27:0.076923077 29:0.42857143 30:0.33333333 31:0.375 35:0.42857143 36:0.14285714 38:0.28571429 39:0.57142857 42:0.5 
-2 0:0.17987975 1:0.32157475 2:0.30932665 3:0.39698548 4:0.12176113 5:0.21446176 6:0.32097486 7:0.40098097 8:0.34874609 9:0.24285471 10:0.40835992 11:0.00028057526 12:0.031158069 13:0.0089006465 14:0.044877491 15:0.12040985 16:0.17647059 18:0.14285714 20:0.097560976 21:0.1 23:0.25 24:0.16666667 28:0.16666667 34:0.4 35:0.14285714 40:0.25 
2 0:0.19474892 1:0.34607786 2:0.44874296 3:0.2310101 4:0.20932171 5:0.28972047 6:0.46297871 7:0.38811737 8:0.52227474 9:0.3150745 10:0.48882755 11:0.00028057526 12:0.031158069 13:0.0089006465 14:0.044877491 15:0.13752234 16:0.17647059 18:0.071428571 20:0.097560976 21:0.1 23:0.25 24:0.16666667 31:0.125 34:0.2 36:0.14285714 37:0.5 38:0.28571429 
1.839882668797555 0:0.23969488 1:0.3353534 2:0.52505326 3:0.15532702 4:0.15333373 5:0.31557139 6:0.44702851 7:0.31090049 8:0.24432365 9:0.34326901 10:0.2248457 11:0.31985298 12:0.35559683 13:0.2907747 14:0.00081117933 15:0.18236796 16:0.35294118 17:0.375 18:0.21428571 20:0.26829268 21:0.1 23:0.25 26:0.4 27:0.23076923 28:0.16666667 30:0.33333333 32:0.25 35:0.14285714 36:0.14285714 39:0.42857143 42:0.25 
-2 0:0.38679478 1:0.43296491 2:0.39698548 3:0.15532702 4:0.23071409 5:0.51651442 6:0.87576514 7:0.3791517 8:0.25143068 9:0.4689259 10:0.16047243 11:0.46562302 12:0.2256266 13:0.06362365 14:0.0043975341 15:0.17800731 16:0.47058824 17:0.5 18:0.42857143 19:0.28571429 20:0.34146341 21:0.3 24:0.16666667 25:0.14285714 26:0.2 27:0.30769231 28:0.16666667 30:0.33333333 31:0.125 34:0.2 36:0.14285714 40:0.25 41:0.66666667 
2 0:0.56283541 1:0.63488902 2:0.39698548 3:0.2310101 4:0.092700249 5:0.67028384 6:0.87576514 7:0.52956883 8:0.34874609 9:0.61787034 10:0.37508262 11:0.41515838 12:0.48831392 13:0.25245229 14:0.3241238 15:0.16841203 16:0.17647059 17:0.125 18:0.64285714 19:0.85714286 20:0.26829268 24:0.16666667 26:0.2 27:0.076923077 28:0.16666667 29:0.14285714 31:0.125 32:0.25 35:0.28571429 37:0.5 40:0.625 42:0.25 
1.341320203789039 0:0.57934292 1:0.65019068 2:0.30076488 3:0.2310101 4:0.16005783 5:0.60477995 6:0.87005568 7:0.63785121 8:0.56616735 9:0.69698998 10:0.44899318 11:0.53552639 12:0.31580367 13:0.47562797 14:0.0028913574 15:0.22716468 16:0.17647059 18:0.5 19:0.42857143 20:0.26829268 21:0.2 25:0.42857143 26:0.2 27:0.076923077 29:0.14285714 31:0.25 34:0.2 35:0.14285714 37:0.5 40:0.375 
-2 0:0.34235553 1:0.4596833 2:0.5629538 3:0.2310101 4:0.1954807 5:0.45347145 6:0.53585526 7:0.39456987 8:0.18765898 9:0.48168771 10:0.3594801 11:0.45397835 12:0.14607339 13:0.26973489 14:0.11350936 15:0.31492725 16:0.29411765 17:0.375 18:0.42857143 19:0.28571429 20:0.2195122 21:0.2 25:0.14285714 26:0.2 27:0.076923077 28:0.33333333 31:0.125 32:0.25 34:0.2 37:0.5 40:0.375 
2 0:0.28247462 1:0.56615842 2:0.67818633 3:0.2310101 4:0.20156624 5:0.39340411 6:0.45617437 7:0.60007045 8:0.56681124 9:0.31853432 10:0.4926825 11:0.00028057526 12:0.031158069 13:0.0089006465 14:0.044877491 15:0.16939359 16:0.11764706 18:0.21428571 20:0.048780488 24:0.16666667 27:0.076923077 31:0.125 37:0.5 39:0.14285714 40:0.25 
-2 0:0.42815943 1:0.57552364 2:0.83292138 3:0.2310101 4:0.17072914 5:0.65518588 6:0.87005568 7:0.40742224 8:0.43198263 9:0.58417276 10:0.3307507 11:0.44285374 12:0.35192963 13:0.24422587 14:0.3058087 15:0.10524411 16:0.23529412 17:0.125 18:0.35714286 19:0.42857143 20:0.19512195 21:0.1 24:0.16666667 27:0.23076923 29:0.42857143 31:0.125 37:0.5 38:0.14285714 39:0.14285714 40:0.125 
-2 0:0.26757377 1:0.5345873 2:0.52505326 3:0.2310101 4:0.072272341 5:0.40437077 6:0.50637835 7:0.5273764 8:0.54864131 9:0.31853432 10:0.4926825 11:0.00028057526 12:0.031158069 13:0.0089006465 14:0.044877491 15:0.10823532 16:0.058823529 18:0.14285714 20:0.048780488 21:0.1 23:0.25 26:0.2 29:0.14285714 37:0.5 38:0.14285714 42:0.25 
-2 0:0.51410767 1:0.56834517 2:0.5629538 3:0.15532702 4:0.3009434 5:0.53700426 6:0.74582082 7:0.39304881 8:0.4886473 9:0.58199923 10:0.32382828 11:0.43132814 12:0.13839687 13:0.27838823 14:0.028697527 15:0.17419993 16:0.35294118 17:0.125 18:0.57142857 19:0.71428571 20:0.29268293 21:0.1 26:0.2 27:0.30769231 29:0.57142857 30:0.33333333 32:0.25 34:0.2 38:0.14285714 39:0.14285714 40:0.25 
-2 0:0.46341138 1:0.68654232 2:0.44874296 3:0.15532702 4:0.1954807 5:0.74856458 6:0.87576514 7:0.65688193 8:0.59333165 9:0.56886807 10:0.55887353 11:0.13513505 12:0.20194487 13:0.1641647 14:0.28998081 15:0.16859065 16:0.11764706 18:0.35714286 19:0.42857143 20:0.14634146 21:0.2 24:0.16666667 26:0.2 27:0.076923077 29:0.14285714 30:0.33333333 31:0.25 38:0.14285714 40:0.125 
-2 0:0.72211652 1:0.58230319 2:0.84026244 3:0.2310101 4:0.084400574 5:0.61349496 6:0.87005568 7:0.35516446 8:0.32248759 9:0.6620859 10:0.38734739 11:0.51064399 12:0.38088459 13:0.081275763 14:0.0076365204 15:0.42995675 16:0.23529412 18:0.64285714 19:0.42857143 20:0.48780488 21:0.5 24:0.33333333 25:0.28571429 26:0.2 28:0.33333333 29:0.14285714 31:0.5 32:0.25 35:0.14285714 36:0.14285714 37:0.5 39:0.14285714 40:0.25 42:0.25 
2 0:0.5176063 1:0.55222737 2:0.52505326 3:0.2310101 4:0.19806854 5:0.68240434 6:1 7:0.37152362 8:0.3218437 9:0.72229353 10:0.29389219 11:0.67210195 12:0.38388981 13:0.52041428 14:0.029255611 15:0.36568671 16:0.29411765 17:0.125 18:0.35714286 19:0.28571429 20:0.31707317 21:0.1 24:0.16666667 25:0.28571429 28:0.16666667 29:0.14285714 31:0.5 34:0.2 35:0.14285714 36:0.28571429 37:0.5 38:0.14285714 39:0.14285714 42:0.25 
-2 0:0.30533964 1:0.5660701 2:0.30076488 3:0.2310101 4:0.13124778 5:0.5340041 6:0.87576514 7:0.73679518 8:0.49701259 9:0.31853432 10:0.4926825 11:0.00028057526 12:0.031158069 13:0.0089006465 14:0.044877491 15:0.084004145 16:0.17647059 18:0.21428571 19:0.28571429 20:0.073170732 21:0.1 26:0.2 27:0.076923077 31:0.125 36:0.14285714 37:0.5 39:0.14285714 40:0.125 
-2 0:0.46561556 1:0.48108388 2:0.44874296 3:0.2310101 4:0.18907112 5:0.60824008 6:0.87576514 7:0.28015473 8:0.25143068 9:0.65880124 10:0.25820364 11:0.57293353 12:0.30754902 13:0.25294909 14:0.095197013 15:0.18475881 16:0.29411765 17:0.125 18:0.42857143 19:0.57142857 20:0.36585366 21:0.3 25:0.28571429 26:0.2 28:0.16666667 29:0.28571429 31:0.125 34:0.2 35:0.28571429 36:0.14285714 37:1 38:0.28571429 40:0.25 
-2 0:0.38066768 1:0.57497955 2:0.30951371 3:0.2310101 4:0.17580633 5:0.51383035 6:0.74971148 7:0.44647827 8:0.50270941 9:0.62484148 10:0.42616775 11:0.49570485 12:0.24703843 13:0.57930501 14:0.35469649 15:0.16462296 16:0.23529412 17:0.125 18:0.28571429 19:0.28571429 20:0.14634146 21:0.2 24:0.16666667 31:0.25 34:0.2 36:0.28571429 37:0.5 40:0.25 
-2 0:0.58384141 1:0.79703551 2:1 3:0.2310101 4:0.049086431 5:0.68787355 6:1 7:0.63592304 8:0.67123368 9:0.65722464 10:0.61775901 11:0.1989805 12:0.24820725 13:0.1544052 14:0.1120759 15:0.18237312 16:0.058823529 18:0.42857143 19:0.42857143 20:0.17073171 21:0.2 24:0.33333333 29:0.28571429 31:0.375 35:0.14285714 37:0.5 40:0.125 
2 0:0.095233168 1:0.17655307 2:0.34197122 3:0.2310101 4:0.023588272 5:0.15459429 6:0.074584202 7:0.36624891 8:0.40397576 9:0.31853432 10:0.4926825 11:0.00028057526 12:0.031158069 13:0.0089006465 14:0.044877491 15:0.015202268 16:0.17647059 17:0.125 20:0.073170732 23:0.25 27:0.076923077 30:0.33333333 35:0.28571429 37:0.5 38:0.14285714 39:0.14285714 
-2 0:0.37001682 1:0.59404741 2:0.30951371 3:0.15532702 4:0.26189356 5:0.51558578 6:0.87576514 7:0.54321577 8:0.44802221 9:0.4240167 10:0.46247036 11:0.00028057526 12:0.031158069 13:0.0089006465 14:0.044877491 15:0.20150008 16:0.23529412 18:0.28571429 19:0.28571429 20:0.12195122 25:0.14285714 26:0.2 30:0.33333333 31:0.25 34:0.2 36:0.28571429 39:0.14285714 40:0.125 
-2 0:0.48247957 1:0.45873038 2:0.39619284 3:0.15532702 4:0.22284727 5:0.49663939 6:0.74971148 7:0.3923688 8:0.37050216 9:0.54933215 10:0.35272619 11:0.40564061 12:0.2989782 13:0.023432027 14:0.026899495 15:0.1678807 16:0.41176471 17:0.375 18:0.42857143 19:0.42857143 20:0.43902439 21:0.3 24:0.16666667 25:0.14285714 26:0.2 27:0.23076923 29:0.14285714 30:0.33333333 31:0.125 34:0.4 35:0.28571429 36:0.14285714 38:0.14285714 39:0.28571429 40:0.375 
-2 0:0.28757589 1:0.44946453 3:0.15532702 4:0.052315017 5:0.53907526 6:0.62547662 7:0.41647986 8:0.3218437 9:0.57239209 10:0.32845566 11:0.48939687 12:0.25253485 13:0.57204235 14:0.36258463 15:0.17389517 16:0.17647059 18:0.28571429 19:0.14285714 20:0.14634146 25:0.42857143 26:0.2 27:0.076923077 28:0.16666667 30:0.33333333 31:0.125 32:0.25 39:0.14285714 40:0.125 
2 0:0.29793668 1:0.46343391 2:1 3:0.15532702 4:0.015887548 5:0.65647252 6:1 7:0.22061483 8:0.25127873 9:0.42930059 10:0.42388283 11:0.25545297 12:0.12377008 13:0.30269216 14:0.17778888 15:0.19282149 16:0.29411765 17:0.375 18:0.21428571 19:0.14285714 20:0.14634146 25:0.14285714 27:0.076923077 28:0.16666667 30:0.33333333 31:0.375 34:0.4 38:0.14285714 39:0.14285714 
2 0:0.53661641 1:0.63620192 2:0.67818633 3:0.2310101 4:0.40480242 5:0.7238983 6:1 7:0.37068501 8:0.45850304 9:0.75655375 10:0.38007338 11:0.72725223 12:0.22420017 13:0.58266291 14:0.094709844 15:0.33500914 16:0.23529412 18:0.42857143 19:0.28571429 20:0.24390244 21:0.1 25:0.14285714 27:0.15384615 31:0.5 34:0.2 37:0.5 38:0.28571429 39:0.14285714 40:0.25 
2 0:0.58030518 1:0.56613326 2:0.44874296 3:0.2310101 4:0.15322605 5:0.56947759 6:0.87005568 7:0.46338926 8:0.3218437 9:0.6889202 10:0.30988326 11:0.60497443 12:0.34091044 13:0.095863934 14:0.028677079 15:0.35640628 16:0.11764706 18:0.57142857 19:0.42857143 20:0.36585366 21:0.2 24:0.33333333 25:0.42857143 28:0.16666667 29:0.14285714 31:0.375 32:0.5 37:0.5 38:0.28571429 39:0.14285714 40:0.25 
-2 0:0.42470105 1:0.54691793 2:1 3:0.2310101 4:0.1360648 5:0.50740716 6:1 7:0.44516575 8:0.43908966 9:0.58384255 10:0.40589285 11:0.22909952 12:0.3664535 13:0.082210083 14:0.21145748 15:0.1368076 16:0.23529412 17:0.25 18:0.28571429 19:0.14285714 20:0.2195122 21:0.2 25:0.14285714 27:0.076923077 29:0.14285714 31:0.25 34:0.2 36:0.14285714 37:0.5 38:0.14285714 39:0.14285714 40:0.125 42:0.25 
-2 0:0.40863355 1:0.58048991 2:0.83292138 3:0.15532702 4:0.026184462 5:0.45157225 6:0.87005568 7:0.41552026 8:0.49071083 9:0.65835221 10:0.42420659 11:0.42433388 12:0.18838455 13:0.28164371 14:0.13816035 15:0.13039188 16:0.11764706 18:0.28571429 19:0.28571429 20:0.17073171 21:0.2 24:0.16666667 25:0.14285714 27:0.076923077 29:0.14285714 30:0.33333333 31:0.25 38:0.14285714 39:0.14285714 40:0.125 
2 0:0.42633647 1:0.63655447 2:0.67818633 3:0.2310101 4:0.11593376 5:0.50623038 6:0.55614948 7:0.57972388 8:0.53640507 9:0.56053582 10:0.49161773 11:0.22059262 12:0.10893921 13:0.26255586 14:0.15650448 15:0.31075055 16:0.11764706 18:0.28571429 20:0.14634146 24:0.16666667 25:0.14285714 31:0.375 34:0.2 35:0.14285714 37:0.5 38:0.14285714 39:0.14285714 40:0.125 
2 0:0.5453839 1:0.61871231 2:0.30076488 3:0.15532702 4:0.23337264 5:0.56285216 6:0.74971148 7:0.48471957 8:0.60885597 9:0.63829589 10:0.4754567 11:0.38465397 12:0.2415988 13:0.14347302 14:0.0016165105 15:0.3454051 16:0.17647059 18:0.42857143 19:0.28571429 20:0.26829268 21:0.4 25:0.28571429 27:0.076923077 29:0.14285714 30:0.33333333 31:0.375 32:0.25 34:0.2 39:0.14285714 40:0.125 
2 0:0.48005826 1:0.75725235 2:0.84026244 3:0.15532702 4:0.0068317783 5:0.55922891 6:1 7:0.71307687 8:0.44802221 9:0.58454139 10:0.5604307 11:0.00028057526 12:0.031158069 13:0.0089006465 14:0.044877491 15:0.13543203 16:0.058823529 18:0.28571429 19:0.28571429 20:0.12195122 21:0.2 25:0.28571429 26:0.2 30:0.33333333 31:0.375 42:0.25 
-2 0:0.55664115 1:0.65600134 2:0.83292138 3:0.2310101 4:0.30482273 5:0.75532034 6:1 7:0.35342611 8:0.25143068 9:0.65064979 10:0.30204009 11:0.4745213 12:0.28384146 13:0.24475067 14:0.058962643 15:0.30139161 16:0.29411765 17:0.25 18:0.42857143 19:0.42857143 20:0.24390244 28:0.16666667 29:0.28571429 31:0.5 34:0.4 35:0.28571429 36:0.14285714 37:0.5 38:0.14285714 42:0.25 
1.274334521852248 0:0.61738433 1:0.54572181 2:0.15532702 3:0.2310101 4:0.20464689 5:0.56195543 6:0.87005568 7:0.40244821 8:0.4749246 9:0.61652112 10:0.34553757 11:0.37609344 12:0.44092013 13:0.046758391 14:0.0018142707 15:0.35069081 16:0.23529412 18:0.5 19:0.42857143 20:0.43902439 21:0.1 24:0.5 27:0.15384615 29:0.42857143 30:0.33333333 31:0.375 35:0.28571429 37:0.5 38:0.42857143 39:0.42857143 40:0.125 
-2 0:0.2931178 1:0.543412 2:0.67818633 3:0.15532702 4:0.19363111 5:0.54883247 6:0.61976716 7:0.55342582 8:0.37050216 9:0.31853432 10:0.4926825 11:0.00028057526 12:0.031158069 13:0.0089006465 14:0.044877491 15:0.093350709 16:0.23529412 17:0.25 18:0.28571429 19:0.28571429 20:0.073170732 27:0.076923077 29:0.28571429 30:0.33333333 34:0.4 40:0.25 
2 0:0.3425334 1:0.55328613 2:0.30076488 3:0.2310101 4:0.18434374 5:0.48458338 6:0.53100932 7:0.56745164 8:0.49560238 9:0.53043548 10:0.43274088 11:0.00028057526 12:0.031158069 13:0.0089006465 14:0.044877491 15:0.26587562 16:0.23529412 17:0.125 18:0.21428571 20:0.12195122 24:0.16666667 25:0.28571429 26:0.2 27:0.15384615 31:0.25 34:0.2 37:0.5 
-2 0:0.3779754 1:0.54259843 2:0.39619284 3:0.15532702 4:0.16620126 5:0.45361374 6:0.87005568 7:0.64186601 8:0.49071083 9:0.55808173 10:0.54158288 11:0.23136247 12:0.11962458 13:0.18863397 14:0.10282146 15:0.15028655 16:0.23529412 17:0.125 18:0.28571429 19:0.28571429 20:0.17073171 21:0.1 24:0.16666667 25:0.14285714 27:0.15384615 29:0.42857143 30:0.33333333 31:0.125 36:0.14285714 38:0.14285714 
2 0:0.28123244 1:0.37385671 2:0.44874296 3:0.2310101 4:0.060005631 5:0.38654094 6:0.63061321 7:0.35763333 8:0.25143068 9:0.42970396 10:0.36106634 11:0.26792355 12:0.26700844 13:0.078299544 14:0.015736973 15:0.21884123 16:0.35294118 17:0.25 18:0.14285714 20:0.26829268 21:0.2 23:0.25 25:0.14285714 27:0.076923077 28:0.16666667 31:0.25 35:0.14285714 36:0.42857143 37:0.5 39:0.28571429 42:0.25 
-2 0:0.36559822 1:0.50414984 2:0.34197122 3:0.15532702 4:0.11201387 5:0.45697257 6:0.57126337 7:0.44503861 8:0.51516771 9:0.52142286 10:0.4127294 11:0.38546985 12:0.51435927 13:0.23440148 14:0.44287718 15:0.28603852 16:0.11764706 18:0.21428571 20:0.19512195 21:0.1 23:0.25 25:0.28571429 27:0.076923077 29:0.14285714 30:0.33333333 31:0.25 35:0.28571429 38:0.28571429 
-2 0:0.27222305 1:0.54443793 2:1 3:0.15532702 4:0.049086431 5:0.39292586 6:0.66009012 7:0.47952506 8:0.61959016 9:0.31853432 10:0.4926825 11:0.00028057526 12:0.031158069 13:0.0089006465 14:0.044877491 15:0.068830752 16:0.058823529 18:0.21428571 19:0.14285714 20:0.048780488 30:0.33333333 31:0.125 32:0.25 35:0.28571429 38:0.14285714 40:0.125 
-2 0:0.4538843 1:0.63641692 2:1 3:0.15532702 4:0.11120894 5:0.4827409 6:1 7:0.48586268 8:0.4486661 9:0.64252921 10:0.36747382 11:0.3867485 12:0.12754276 13:0.39063514 14:0.026156477 15:0.11498036 16:0.11764706 18:0.35714286 19:0.28571429 20:0.17073171 21:0.1 24:0.5 29:0.28571429 30:0.33333333 31:0.25 32:0.25 34:0.2 39:0.14285714 
-2 0:0.34929117 1:0.50714657 2:0.83292138 3:0.15532702 4:0.24370212 5:0.49003179 6:0.74582082 7:0.40555246 8:0.27084406 9:0.62996188 10:0.32679911 11:0.6028232 12:0.23827861 13:0.41255921 14:0.2097654 15:0.30844561 16:0.17647059 18:0.35714286 19:0.14285714 20:0.17073171 26:0.2 28:0.16666667 29:0.14285714 30:0.33333333 31:0.125 34:0.2 35:0.14285714 38:0.42857143 40:0.25 
2 0:0.33986641 1:0.41633274 2:1 3:0.2310101 4:0.17572954 5:0.44102062 6:0.53039285 7:0.28794544 8:0.18765898 9:0.51910582 10:0.31620005 11:0.35884443 12:0.37901829 13:0.20828622 14:0.13298916 15:0.2396961 16:0.29411765 17:0.25 18:0.21428571 20:0.29268293 21:0.1 25:0.28571429 28:0.16666667 31:0.25 34:0.4 35:0.14285714 36:0.14285714 37:0.5 38:0.28571429 39:0.14285714 40:0.125 42:0.5 
-2 0:0.22273707 1:0.39219993 2:0.38081742 3:0.2310101 4:0.0090557693 5:0.46005488 6:0.87576514 7:0.31410218 8:0.24432365 9:0.15271999 10:0.30793139 11:0.00028057526 12:0.031158069 13:0.0089006465 14:0.044877491 15:0.10096912 16:0.17647059 17:0.125 18:0.14285714 19:0.14285714 20:0.097560976 21:0.1 26:0.2 27:0.076923077 28:0.16666667 31:0.125 37:0.5 38:0.14285714 39:0.28571429 
-2 0:0.33081277 1:0.44745521 2:0.44874296 3:0.2310101 4:0.18828433 5:0.36640176 6:0.53039285 7:0.47758635 8:0.49701259 9:0.50296861 10:0.40296331 11:0.24705014 12:0.080682267 13:0.20615965 14:0.057488812 15:0.14700218 16:0.23529412 18:0.21428571 20:0.2195122 21:0.1 24:0.16666667 25:0.14285714 27:0.15384615 31:0.125 32:0.25 35:0.14285714 36:0.14285714 37:0.5 39:0.14285714 40:0.125 42:0.5 
0.4927093994100131 0:0.18457583 1:0.34218571 2:0.39619284 3:0.2310101 4:0.0068317783 5:0.25732446 6:0.28010434 7:0.46361926 8:0.50950268 9:0.31853432 10:0.4926825 11:0.00028057526 12:0.031158069 13:0.0089006465 14:0.044877491 15:0.023081989 16:0.058823529 18:0.071428571 20:0.073170732 21:0.1 24:0.16666667 25:0.42857143 37:0.5 38:0.14285714 40:0.125 
-0.4917248991714649 0:0.40749685 1:0.83104882 2:0.83292138 3:0.2310101 4:0.17763074 5:0.60697938 6:1 7:0.74799544 8:0.57376632 9:0.31853432 10:0.4926825 11:0.00028057526 12:0.031158069 13:0.0089006465 14:0.044877491 15:0.1564377 16:0.11764706 18:0.28571429 19:0.28571429 20:0.048780488 24:0.16666667 26:0.2 29:0.14285714 31:0.25 34:0.2 37:0.5 
1.246816849149345 0:0.11157065 1:0.21215787 2:0.39619284 3:0.2310101 4:0.025457692 5:0.24643078 6:0.1867627 7:0.2853316 8:0.18765898 9:0.29133192 10:0.21585154 11:0.23058103 12:0.065091955 13:0.27405597 14:0.093577439 15:0.029500712 16:0.23529412 17:0.25 20:0.14634146 21:0.1 25:0.28571429 28:0.16666667 35:0.28571429 36:0.14285714 37:1 39:0.14285714 42:0.25 
2 0:0.79240469 1:0.62400157 2:1 3:0.2310101 4:0.21118874 5:0.57194384 6:1 7:0.34180053 8:0.34874609 9:0.69255215 10:0.38621673 11:0.41448949 12:0.55880782 13:0.30760122 14:0.013262477 15:0.40741486 16:0.23529412 18:0.57142857 19:0.42857143 20:0.48780488 21:0.5 24:0.16666667 25:0.14285714 28:0.16666667 29:0.14285714 31:0.75 34:0.2 35:0.57142857 36:0.14285714 37:0.5 38:0.14285714 39:0.14285714 40:0.125 
-2 0:0.23239941 1:0.37507046 2:0.30076488 3:0.2310101 4:0.013901098 5:0.31936822 6:0.28072081 7:0.46495246 8:0.51014657 9:0.41206063 10:0.39825245 11:0.2502556 12:0.054235863 13:0.29670819 14:0.077997404 15:0.049736054 16:0.11764706 18:0.14285714 20:0.14634146 21:0.2 24:0.33333333 25:0.14285714 27:0.076923077 37:0.5 38:0.14285714 39:0.14285714 40:0.25 
2 0:0.41130893 1:0.55629952 2:0.39619284 3:0.2310101 4:0.22019215 5:0.51942851 6:0.63061321 7:0.4404678 8:0.50255746 9:0.63464709 10:0.4097683 11:0.47088403 12:0.55851225 13:0.17868227 14:0.48124114 15:0.29847587 16:0.23529412 17:0.125 18:0.21428571 20:0.19512195 21:0.1 24:0.16666667 25:0.28571429 27:0.076923077 31:0.375 34:0.4 35:0.14285714 37:0.5 42:0.25 
-0.9377908987271496 0:0.27799628 1:0.404208 3:0.2310101 4:0.049294363 5:0.38217017 6:0.66009012 7:0.38978823 8:0.30935361 9:0.44511138 10:0.46771589 11:0.12433218 12:0.37307425 13:0.091336076 14:0.45435389 15:0.21639754 16:0.17647059 18:0.21428571 19:0.14285714 20:0.19512195 21:0.1 25:0.14285714 28:0.33333333 31:0.25 32:0.25 35:0.14285714 37:0.5 39:0.42857143 42:0.25 
2 0:0.50113411 1:0.65877779 2:0.30076488 3:0.2310101 4:0.075226995 5:0.74991731 6:1 7:0.55725881 8:0.65809971 9:0.59038598 10:0.59681156 11:0.21436606 12:0.34521369 13:0.18225515 14:0.36751942 15:0.13630598 16:0.11764706 18:0.28571429 19:0.28571429 20:0.19512195 24:0.16666667 27:0.076923077 31:0.375 35:0.28571429 37:0.5 39:0.14285714 40:0.125 42:0.75 
2 0:0.45678096 1:0.55726474 2:0.5629538 3:0.2310101 4:0.13020531 5:0.50094488 6:1 7:0.53941978 8:0.43198263 9:0.72460989 10:0.47642663 11:0.40457496 12:0.30904804 13:0.37941583 14:0.12126858 15:0.22467332 16:0.35294118 17:0.375 18:0.35714286 19:0.28571429 20:0.24390244 21:0.1 25:0.28571429 27:0.076923077 29:0.14285714 31:0.375 32:0.25 36:0.57142857 37:0.5 39:0.14285714 
-2 0:0.53979184 1:0.61352875 2:0.38081742 3:0.2310101 4:0.0045278847 5:0.66829874 6:0.87005568 7:0.55825386 8:0.43908966 9:0.61893868 10:0.45343779 11:0.29157633 12:0.3617839 13:0.19047706 14:0.0024290207 15:0.24853146 16:0.11764706 17:0.125 18:0.42857143 19:0.28571429 20:0.26829268 24:0.33333333 25:0.14285714 29:0.42857143 31:0.25 35:0.14285714 36:0.14285714 37:0.5 38:0.28571429 39:0.28571429 40:0.125 
2 0:0.24650098 1:0.34935076 2:0.84026244 3:0.2310101 4:0.084889802 5:0.32271126 6:0.43191462 7:0.41508152 8:0.36453232 9:0.36522305 10:0.26276842 11:0.33570776 12:0.26392694 13:0.19518506 14:0.017435092 15:0.10149322 16:0.23529412 18:0.14285714 20:0.24390244 21:0.5 25:0.14285714 26:0.2 28:0.16666667 34:0.4 35:0.14285714 37:0.5 39:0.28571429 40:0.125 
2 0:0.2714684 1:0.41096265 2:1 3:0.15532702 4:0.075014066 5:0.34291228 6:0.66009012 7:0.38566024 8:0.49071083 9:0.445834 10:0.33439471 11:0.24290172 12:0.1013829 13:0.20289869 14:0.0636996 15:0.066991401 16:0.23529412 17:0.125 18:0.21428571 19:0.14285714 20:0.17073171 21:0.1 24:0.33333333 25:0.14285714 27:0.076923077 30:0.33333333 31:0.125 32:0.25 34:0.2 36:0.14285714 39:0.14285714 40:0.125 
2 0:0.40431307 1:0.60686048 2:0.39619284 3:0.15532702 4:0.014706028 5:0.59538273 6:0.74971148 7:0.50945477 8:0.49071083 9:0.62427936 10:0.54641499 11:0.41322938 12:0.086211827 13:0.48434727 14:0.12388746 15:0.18456583 16:0.058823529 18:0.28571429 19:0.14285714 20:0.14634146 21:0.2 25:0.28571429 30:0.33333333 31:0.25 33:0.5 35:0.14285714 40:0.25 
-2 0:0.45181979 1:0.47085348 2:0.44874296 3:0.2310101 4:0.38816788 5:0.46514453 6:0.66009012 7:0.28490385 8:0.27084406 9:0.53550549 10:0.35685067 11:0.42449418 12:0.28933791 13:0.196307 14:0.011013191 15:0.31973074 16:0.35294118 17:0.125 18:0.5 19:0.42857143 20:0.36585366 21:0.1 24:0.16666667 25:0.28571429 26:0.4 27:0.15384615 28:0.16666667 29:0.14285714 31:0.125 32:0.5 34:0.2 35:0.14285714 36:0.14285714 37:0.5 38:0.28571429 40:0.125 
-2 0:0.20075379 1:0.3930127 2:0.30932665 3:0.15532702 4:0.12344841 5:0.34665934 6:0.57126337 7:0.58040746 8:0.49560238 9:0.31853432 10:0.4926825 11:0.00028057526 12:0.031158069 13:0.0089006465 14:0.044877491 15:0.11520171 16:0.23529412 17:0.25 18:0.071428571 20:0.048780488 21:0.1 27:0.076923077 30:0.33333333 31:0.125 34:0.4 42:0.25 
2 0:0.32787949 1:0.46111793 2:0.67818633 3:0.15532702 4:0.075586594 5:0.40639254 6:0.61976716 7:0.43281047 8:0.4749246 9:0.37173537 10:0.48197916 11:0.1008333 12:0.12951185 13:0.094694096 14:0.11603363 15:0.10264382 16:0.11764706 18:0.28571429 19:0.14285714 20:0.19512195 21:0.3 25:0.14285714 29:0.14285714 30:0.66666667 35:0.28571429 38:0.14285714 40:0.375 
2 0:0.3175286 1:0.51620095 2:0.39619284 3:0.2310101 4:0.026140564 5:0.45157225 6:0.57126337 7:0.54641811 8:0.59268776 9:0.47641232 10:0.47277227 11:0.00028057526 12:0.031158069 13:0.0089006465 14:0.044877491 15:0.11717827 16:0.058823529 18:0.14285714 20:0.12195122 21:0.2 25:0.28571429 31:0.125 37:0.5 38:0.14285714 40:0.125 42:0.5 
-2 0:0.22706116 1:0.38202666 2:0.30076488 3:0.15532702 4:0.17565324 5:0.36342087 6:0.48156528 7:0.41346738 8:0.39702257 9:0.4815742 10:0.33139355 11:0.00028057526 12:0.031158069 13:0.0089006465 14:0.044877491 15:0.14957373 16:0.23529412 18:0.21428571 20:0.12195122 21:0.1 27:0.23076923 30:0.33333333 31:0.125 32:0.5 38:0.28571429 
-2 0:0.38779304 1:0.50781858 3:0.15532702 4:0.13901945 5:0.56966797 6:0.61976716 7:0.46025387 8:0.36453232 9:0.63981599 10:0.45202973 11:0.42219363 12:0.29234503 13:0.2607649 14:0.35870744 15:0.22979825 16:0.23529412 17:0.125 18:0.35714286 19:0.14285714 20:0.2195122 21:0.2 27:0.15384615 28:0.16666667 29:0.28571429 30:0.33333333 31:0.125 38:0.14285714 39:0.14285714 40:0.25 42:0.25 
-2 0:0.45630757 1:0.72202717 2:0.83292138 3:0.15532702 4:0.0069505491 5:0.59751412 6:0.87005568 7:0.62497004 8:0.4486661 9:0.70751132 10:0.56058503 11:0.00028057526 12:0.031158069 13:0.0089006465 14:0.044877491 15:0.12577803 16:0.058823529 18:0.35714286 19:0.28571429 20:0.12195122 21:0.2 24:0.33333333 26:0.2 29:0.28571429 30:0.33333333 31:0.125 40:0.125 
-2 0:0.56189339 1:0.45126267 2:0.52505326 3:0.2310101 4:0.31003101 5:0.43978357 6:0.87576514 7:0.46633379 8:0.45731047 9:0.54896148 10:0.35489337 11:0.49477968 12:0.34977756 13:0.049635121 14:0.021653974 15:0.39365977 16:0.41176471 18:0.57142857 19:0.14285714 20:0.58536585 21:0.3 24:0.66666667 25:0.28571429 26:0.2 27:0.15384615 28:0.16666667 31:0.25 32:0.5 34:0.2 35:0.14285714 36:0.28571429 37:0.5 38:0.28571429 39:0.14285714 40:0.375 42:0.25 
2 0:0.16336539 1:0.3028636 2:0.38081742 3:0.15532702 4:0.089933023 5:0.22440512 6:0.32097486 7:0.42324638 8:0.49071083 9:0.31853432 10:0.4926825 11:0.00028057526 12:0.031158069 13:0.0089006465 14:0.044877491 15:0.040485617 16:0.23529412 17:0.25 18:0.071428571 20:0.073170732 21:0.1 30:0.33333333 36:0.42857143 39:0.14285714 40:0.125 42:0.25 
0.3782341825202931 0:0.26788652 1:0.40653568 2:1 3:0.2310101 4:0.082428114 5:0.32619266 6:0.53100932 7:0.42513305 8:0.43908966 9:0.44881778 10:0.37590823 11:0.38413755 12:0.15000665 13:0.15752715 14:0.028815429 15:0.10774427 16:0.17647059 17:0.125 18:0.14285714 20:0.17073171 24:0.33333333 25:0.14285714 26:0.2 31:0.125 34:0.2 36:0.14285714 37:0.5 38:0.28571429 39:0.28571429 
-2 0:0.39773131 1:0.45345554 2:0.44874296 3:0.15532702 4:0.50807702 5:0.43749125 6:0.57126337 7:0.41804125 8:0.49575433 9:0.63388507 10:0.37749075 11:0.46333894 12:0.47706967 13:0.22816917 14:0.29534144 15:0.37846688 16:0.35294118 17:0.25 18:0.21428571 20:0.31707317 21:0.4 24:0.33333333 25:0.14285714 27:0.076923077 30:0.33333333 31:0.375 34:0.2 36:0.42857143 38:0.14285714 39:0.14285714 
0.1468358582687873 0:0.20293526 1:0.39763469 2:0.38081742 3:0.15532702 5:0.34228862 6:0.57126337 7:0.5727733 8:0.40397576 9:0.31853432 10:0.4926825 11:0.00028057526 12:0.031158069 13:0.0089006465 14:0.044877491 15:0.088942347 16:0.058823529 18:0.071428571 20:0.048780488 21:0.1 23:0.5 25:0.14285714 30:0.33333333 31:0.125 39:0.14285714 
2 0:0.4556684 1:0.77605069 2:0.33341178 3:0.2310101 4:0.014706028 5:0.68350154 6:1 7:0.62196938 8:0.5521913 9:0.27371164 10:0.44274086 11:0.00028057526 12:0.031158069 13:0.0089006465 14:0.044877491 15:0.16620003 16:0.058823529 18:0.28571429 19:0.28571429 20:0.097560976 21:0.2 29:0.14285714 31:0.375 37:0.5 38:0.14285714 39:0.14285714 
-2 0:0.23447626 1:0.36524275 2:0.52505326 3:0.15532702 4:0.050445597 5:0.37446496 6:0.50637835 7:0.26047085 8:0.24432365 9:0.40222313 10:0.31913625 11:0.26487164 12:0.23783387 13:0.16779305 14:0.33188672 15:0.10312484 16:0.17647059 17:0.125 18:0.21428571 19:0.14285714 20:0.17073171 23:0.25 24:0.16666667 25:0.14285714 26:0.2 27:0.076923077 28:0.16666667 30:0.33333333 32:0.25 35:0.28571429 40:0.125 42:0.25 
2 0:0.34780437 1:0.53067019 2:0.67401425 3:0.15532702 4:0.14510619 5:0.55948448 6:0.87005568 7:0.49383879 8:0.43553212 9:0.54176167 10:0.35680699 11:0.42100958 12:0.23927671 13:0.49330497 14:0.34355731 15:0.18792428 16:0.17647059 18:0.28571429 19:0.14285714 20:0.14634146 24:0.16666667 25:0.14285714 26:0.2 27:0.076923077 29:0.14285714 30:0.66666667 31:0.125 35:0.14285714 39:0.14285714 41:0.33333333 
-2 0:0.20177431 1:0.42331478 2:0.5629538 3:0.15532702 4:0.093810147 5:0.33758356 6:0.40044853 7:0.51402041 8:0.57327438 9:0.31853432 10:0.4926825 11:0.00028057526 12:0.031158069 13:0.0089006465 14:0.044877491 15:0.085172966 16:0.11764706 18:0.14285714 20:0.024390244 21:0.1 25:0.14285714 29:0.14285714 30:0.33333333 32:0.25 36:0.14285714 
-1.424451699151473 0:0.30440599 1:0.56433921 2:1 3:0.15532702 4:0.053357489 5:0.35932437 6:0.66009012 7:0.60861613 8:0.50286137 9:0.31853432 10:0.4926825 11:0.00028057526 12:0.031158069 13:0.0089006465 14:0.044877491 15:0.13176606 16:0.17647059 17:0.125 18:0.21428571 19:0.14285714 20:0.073170732 21:0.1 25:0.14285714 30:0.33333333 31:0.25 32:0.25 36:0.28571429 
2 0:0.47454857 1:0.41994501 2:0.39619284 3:0.2310101 4:0.23274134 5:0.48129092 6:0.66009012 7:0.26343862 8:0.24432365 9:0.53546879 10:0.318509 11:0.46266495 12:0.29440715 13:0.12976506 14:0.092203679 15:0.26761547 16:0.64705882 17:0.75 18:0.5 19:0.42857143 20:0.53658537 21:0.2 24:0.16666667 25:0.14285714 26:0.2 27:0.46153846 28:0.16666667 29:0.28571429 31:0.125 32:0.25 34:0.6 35:0.14285714 37:0.5 38:0.14285714 39:0.28571429 40:0.25 42:0.25 
-2 0:0.74743438 1:0.54615233 2:0.30076488 3:0.2310101 4:0.5223244 5:0.63743896 6:0.87005568 7:0.40014689 8:0.3218437 9:0.66964968 10:0.31344319 11:0.53739114 12:0.64563636 13:0.034984557 14:0.17154563 15:0.44110564 16:0.52941176 17:0.25 18:0.78571429 19:0.71428571 20:0.58536585 21:0.1 24:0.16666667 25:0.28571429 27:0.23076923 28:0.16666667 29:0.57142857 31:0.375 32:0.25 34:0.4 35:0.28571429 36:0.28571429 37:0.5 38:0.14285714 39:0.28571429 40:0.375 
2 0:0.51695847 1:0.71437252 2:0.33341178 3:0.15532702 4:0.4039374 5:0.66416973 6:1 7:0.69743393 8:0.37760919 9:0.81513336 10:0.4457854 11:0.70866889 12:0.28252917 13:0.76391112 14:0.30766407 15:0.34635369 16:0.23529412 17:0.125 18:0.35714286 19:0.28571429 20:0.17073171 21:0.1 27:0.076923077 30:0.33333333 31:0.625 34:0.2 36:0.14285714 38:0.28571429 
-2 0:0.53576614 1:0.73761758 2:0.38081742 3:0.15532702 4:0.078498486 5:0.59535177 6:1 7:0.6028109 8:0.615963 9:0.72117417 10:0.59518196 11:0.38352788 12:0.073994487 13:0.35319587 14:0.030246129 15:0.14255424 16:0.11764706 18:0.42857143 19:0.57142857 20:0.17073171 21:0.2 24:0.16666667 26:0.2 30:0.33333333 31:0.375 36:0.14285714 39:0.14285714 40:0.125 41:0.33333333 
-2 0:0.42024994 1:0.85806939 2:0.30951371 3:0.2310101 4:0.16958018 5:0.77456824 6:1 7:0.90656259 8:0.92804689 9:0.31853432 10:0.4926825 11:0.00028057526 12:0.031158069 13:0.0089006465 14:0.044877491 15:0.19684217 16:0.11764706 18:0.28571429 19:0.28571429 20:0.048780488 29:0.14285714 31:0.375 36:0.14285714 37:0.5 38:0.14285714 
-2 0:0.57349886 1:0.44950254 2:0.44874296 3:0.2310101 4:0.42697164 5:0.47047779 6:0.74011136 7:0.44399061 8:0.3218437 9:0.51615252 10:0.36011089 11:0.3761223 12:0.18056197 13:0.090023696 14:0.022788884 15:0.41346103 16:0.41176471 17:0.125 18:0.5 19:0.14285714 20:0.6097561 21:0.5 24:0.5 25:0.14285714 27:0.23076923 28:0.16666667 29:0.42857143 31:0.125 34:0.2 35:0.28571429 36:0.14285714 37:0.5 38:0.28571429 39:0.28571429 40:0.375 42:0.25 
-0.5439072617757961 0:0.63923426 1:0.65244357 2:0.30076488 3:0.2310101 4:0.12300308 5:0.79175919 6:1 7:0.56791842 8:0.43198263 9:0.64684759 10:0.48885447 11:0.19702304 12:0.3097491 13:0.032006668 14:0.029609311 15:0.19954278 16:0.23529412 17:0.125 18:0.5 19:0.57142857 20:0.31707317 21:0.1 24:0.66666667 27:0.23076923 29:0.14285714 31:0.5 35:0.28571429 37:0.5 40:0.25 
-0.9808514173317882 0:0.38310684 1:0.71024296 2:0.83292138 3:0.2310101 4:0.21791703 5:0.57062708 6:0.87576514 7:0.70841169 8:0.60028484 9:0.31853432 10:0.4926825 11:0.00028057526 12:0.031158069 13:0.0089006465 14:0.044877491 15:0.20056463 16:0.11764706 18:0.28571429 19:0.14285714 20:0.073170732 23:0.25 24:0.16666667 26:0.2 27:0.076923077 29:0.28571429 31:0.125 37:0.5 
2 0:0.39426347 1:0.4387949 2:0.33341178 3:0.15532702 4:0.16608249 5:0.46442943 6:0.49942297 7:0.42116732 8:0.24432365 9:0.59805641 10:0.27942424 11:0.45303867 12:0.45956024 13:0.28434502 14:0.091435844 15:0.27781634 16:0.23529412 17:0.125 18:0.42857143 19:0.14285714 20:0.34146341 21:0.1 23:0.5 24:0.33333333 25:0.14285714 27:0.076923077 28:0.16666667 29:0.42857143 30:0.33333333 34:0.2 35:0.14285714 38:0.28571429 40:0.375 
2 0:0.28629614 1:0.44773905 2:0.30076488 3:0.2310101 4:0.13525987 5:0.52647336 6:0.62547662 7:0.51345076 8:0.43908966 9:0.51962614 10:0.35743249 11:0.32163159 12:0.10570846 13:0.37888659 14:0.1518679 15:0.095401604 16:0.29411765 17:0.25 18:0.21428571 19:0.14285714 20:0.14634146 21:0.2 24:0.16666667 26:0.2 27:0.15384615 29:0.14285714 34:0.2 36:0.14285714 37:0.5 40:0.125 
-2 0:0.25813996 1:0.47856648 2:0.44874296 3:0.2310101 4:0.014706028 5:0.37919391 6:0.44131905 7:0.61524339 8:0.5521913 9:0.31853432 10:0.4926825 11:0.00028057526 12:0.031158069 13:0.0089006465 14:0.044877491 15:0.042068445 16:0.058823529 18:0.071428571 20:0.073170732 21:0.5 29:0.14285714 37:0.5 42:0.25 
-2 0:0.472744 1:0.74640441 2:0.30951371 3:0.2310101 4:0.34136038 5:0.60444986 6:0.87576514 7:0.72132194 8:0.87023863 9:0.66068511 10:0.60863836 11:0.00028057526 12:0.031158069 13:0.0089006465 14:0.044877491 15:0.33159937 16:0.17647059 18:0.35714286 19:0.14285714 20:0.12195122 24:0.16666667 25:0.14285714 26:0.6 27:0.076923077 31:0.25 36:0.14285714 37:0.5 
-2 0:0.31876189 1:0.49151241 2:0.44874296 3:0.15532702 4:0.085935897 5:0.40844101 6:0.49942297 7:0.51703821 8:0.44802221 9:0.56834043 10:0.32145437 11:0.44568973 12:0.12091119 13:0.52172034 14:0.17368597 15:0.10250154 16:0.11764706 18:0.28571429 19:0.14285714 20:0.14634146 21:0.1 24:0.16666667 25:0.28571429 27:0.076923077 29:0.14285714 30:0.33333333 39:0.14285714 40:0.375 
-2 0:0.29756779 1:0.59813702 2:0.44874296 3:0.2310101 4:0.11201387 5:0.48628282 6:1 7:0.6336464 8:0.52922793 9:0.31853432 10:0.4926825 11:0.00028057526 12:0.031158069 13:0.0089006465 14:0.044877491 15:0.11564962 16:0.11764706 18:0.14285714 19:0.14285714 20:0.048780488 21:0.2 23:0.25 31:0.25 36:0.14285714 37:0.5 
-2 0:0.19202265 1:0.33006026 2:0.84026244 3:0.15532702 4:0.025457692 5:0.30868491 6:0.44702851 7:0.35155126 8:0.37050216 9:0.31166905 10:0.3698368 11:0.00028057526 12:0.031158069 13:0.0089006465 14:0.044877491 15:0.023255444 16:0.23529412 17:0.25 18:0.071428571 20:0.12195122 21:0.2 25:0.28571429 26:0.2 27:0.076923077 30:0.33333333 34:0.2 35:0.14285714 36:0.14285714 
2 0:0.4379081 1:0.61667136 2:0.39698548 3:0.2310101 4:0.22643537 5:0.52628298 6:0.53585526 7:0.63615152 8:0.59268776 9:0.60681075 10:0.48199208 11:0.34328366 12:0.31156199 13:0.3405605 14:0.41354222 15:0.29677291 16:0.11764706 18:0.35714286 19:0.14285714 20:0.17073171 21:0.1 24:0.16666667 25:0.28571429 26:0.2 31:0.25 32:0.25 34:0.2 37:0.5 38:0.14285714 40:0.125 
-2 0:0.16216734 1:0.3112578 2:0.30076488 3:0.15532702 4:0.05603698 5:0.27014342 6:0.28010434 7:0.40665543 8:0.4486661 9:0.31853432 10:0.4926825 11:0.00028057526 12:0.031158069 13:0.0089006465 14:0.044877491 15:0.033546263 16:0.11764706 18:0.071428571 20:0.048780488 21:0.1 24:0.16666667 25:0.14285714 27:0.076923077 30:0.33333333 39:0.14285714 40:0.125 
2 0:0.16363251 1:0.30335882 2:0.39619284 3:0.2310101 4:0.086054668 5:0.23802728 6:0.401065 7:0.49296673 8:0.43908966 9:0.31853432 10:0.4926825 11:0.00028057526 12:0.031158069 13:0.0089006465 14:0.044877491 15:0.06045178 16:0.23529412 17:0.125 18:0.071428571 20:0.073170732 23:0.25 24:0.16666667 25:0.14285714 27:0.076923077 29:0.14285714 34:0.2 36:0.14285714 37:0.5 
2 0:0.22761891 1:0.44993308 2:0.44874296 3:0.2310101 4:0.045374477 5:0.36174681 6:0.49942297 7:0.61724056 8:0.49701259 9:0.31853432 10:0.4926825 11:0.00028057526 12:0.031158069 13:0.0089006465 14:0.044877491 15:0.022276757 16:0.11764706 18:0.14285714 19:0.14285714 20:0.048780488 21:0.1 36:0.14285714 37:0.5 39:0.14285714 40:0.25 42:0.25 
0.9328502074470963 0:0.52186609 1:0.46350482 2:0.39698548 3:0.15532702 4:0.54169741 5:0.56957807 6:0.74971148 7:0.4188629 8:0.37050216 9:0.57808544 10:0.25930579 11:0.33152332 12:0.48535405 13:0.011491213 14:0.027065185 15:0.51180116 16:0.47058824 17:0.25 18:0.42857143 19:0.14285714 20:0.48780488 21:0.3 24:0.66666667 26:0.2 27:0.23076923 28:0.16666667 30:0.33333333 31:0.375 34:0.2 35:0.14285714 36:0.28571429 38:0.14285714 39:0.14285714 40:0.25 42:0.25 
-2 0:0.46185028 1:0.56227703 2:0.44874296 3:0.15532702 4:0.24900122 5:0.51764259 6:0.74971148 7:0.40267312 8:0.49560238 9:0.47424333 10:0.4715075 11:0.22447526 12:0.53400363 13:0.10520615 14:0.16764956 15:0.26008033 16:0.29411765 17:0.125 18:0.42857143 19:0.28571429 20:0.24390244 21:0.2 24:0.16666667 25:0.14285714 26:0.2 27:0.15384615 30:0.33333333 31:0.25 32:0.25 34:0.2 36:0.14285714 40:0.25 
-2 0:0.29348316 1:0.43817147 2:0.52505326 3:0.15532702 4:0.25321219 5:0.51505651 6:1 7:0.28901614 8:0.24432365 9:0.57490447 10:0.26241012 11:0.54927882 12:0.12920785 13:0.61103571 14:0.17599295 15:0.19527522 16:0.35294118 17:0.375 18:0.21428571 19:0.14285714 20:0.17073171 25:0.14285714 27:0.23076923 28:0.16666667 29:0.14285714 30:0.33333333 31:0.25 36:0.14285714 39:0.14285714 42:0.25 
-2 0:0.28468752 1:0.57084699 2:0.84026244 3:0.15532702 4:0.097307843 5:0.37456348 6:0.53585526 7:0.55428758 8:0.63537638 9:0.31853432 10:0.4926825 11:0.00028057526 12:0.031158069 13:0.0089006465 14:0.044877491 15:0.16365194 16:0.058823529 18:0.21428571 19:0.14285714 20:0.048780488 21:0.1 23:0.25 26:0.2 30:0.33333333 31:0.125 32:0.25 38:0.14285714 
2 0:0.37499498 1:0.4237541 2:0.30932665 3:0.2310101 4:0.14783656 5:0.41984114 6:0.75153028 7:0.38166117 8:0.53640507 9:0.499873 10:0.24240531 11:0.29249997 12:0.4590698 13:0.13520268 14:0.0063618768 15:0.23471216 16:0.23529412 18:0.35714286 19:0.28571429 20:0.34146341 24:0.33333333 25:0.14285714 26:0.6 27:0.076923077 28:0.16666667 34:0.2 35:0.28571429 37:0.5 38:0.28571429 39:0.42857143 40:0.125 41:0.33333333 
-2 0:0.34788399 1:0.59843127 2:1 3:0.15532702 4:0.20932171 5:0.44741459 6:0.51843472 7:0.56775181 8:0.60885597 9:0.53918586 10:0.73853349 11:0.00028057526 12:0.031158069 13:0.0089006465 14:0.044877491 15:0.21719398 16:0.11764706 18:0.21428571 20:0.097560976 21:0.3 27:0.076923077 30:0.33333333 31:0.25 39:0.14285714 40:0.125 
-2 0:0.21608789 1:0.45869612 2:0.34197122 3:0.2310101 4:0.031819683 5:0.34636039 6:0.44131905 7:0.61092986 8:0.64496945 9:0.31853432 10:0.4926825 11:0.00028057526 12:0.031158069 13:0.0089006465 14:0.044877491 15:0.064565897 16:0.058823529 18:0.14285714 20:0.024390244 21:0.1 23:0.25 25:0.14285714 29:0.14285714 32:0.25 37:0.5 
2 0:0.28621893 1:0.40021368 2:0.30076488 3:0.15532702 4:0.066912283 5:0.36489394 6:0.63061321 7:0.44513146 8:0.30935361 9:0.39539567 10:0.33522236 11:0.20929776 12:0.10186981 13:0.13954302 14:0.042075776 15:0.21961844 16:0.23529412 18:0.14285714 20:0.2195122 21:0.2 25:0.14285714 27:0.15384615 28:0.16666667 30:0.33333333 31:0.25 35:0.28571429 38:0.14285714 39:0.14285714 42:0.25 
-2 0:0.41466782 1:0.49754484 2:0.67818633 3:0.15532702 4:0.21775798 5:0.46326669 6:0.61976716 7:0.45351499 8:0.49071083 9:0.45823434 10:0.35891616 11:0.2316323 12:0.28684885 13:0.072639672 14:0.13536783 15:0.17690372 16:0.23529412 18:0.28571429 19:0.14285714 20:0.26829268 21:0.3 24:0.16666667 27:0.076923077 29:0.14285714 30:0.33333333 31:0.125 34:0.4 35:0.14285714 38:0.14285714 40:0.25 42:0.5 
2 0:0.1362632 1:0.24736216 2:0.33341178 3:0.15532702 4:0.029412056 5:0.24882147 6:0.23135349 7:0.40385459 8:0.37050216 9:0.21537018 10:0.33112157 11:0.00028057526 12:0.031158069 13:0.0089006465 14:0.044877491 15:0.011574399 16:0.23529412 17:0.25 18:0.071428571 20:0.12195122 21:0.2 27:0.23076923 30:0.33333333 32:0.25 38:0.14285714 39:0.28571429 
2 0:0.24046776 1:0.51896 2:0.44874296 3:0.2310101 4:0.026140564 5:0.39616782 6:0.57126337 7:0.63372615 8:0.61418128 9:0.31853432 10:0.4926825 11:0.00028057526 12:0.031158069 13:0.0089006465 14:0.044877491 15:0.095644751 16:0.058823529 18:0.071428571 20:0.024390244 21:0.1 24:0.16666667 25:0.14285714 31:0.125 37:0.5 42:0.25 
2 0:0.42051822 1:0.54248676 2:0.67818633 3:0.15532702 4:0.086173439 5:0.44297955 6:0.49942297 7:0.49872548 8:0.4486661 9:0.60546814 10:0.4435931 11:0.36311236 12:0.3970436 13:0.2568289 14:0.39753494 15:0.11088088 16:0.11764706 18:0.35714286 19:0.28571429 20:0.2195122 21:0.3 24:0.16666667 25:0.14285714 29:0.28571429 30:0.33333333 34:0.2 35:0.28571429 40:0.375 
-2 0:0.33116804 1:0.50823953 2:0.33341178 3:0.15532702 4:0.31066821 5:0.42465505 6:0.61976716 7:0.48360505 8:0.4486661 9:0.46478244 10:0.36204137 11:0.37724631 12:0.63466003 13:0.44291834 14:0.91098855 15:0.4156139 16:0.23529412 17:0.125 18:0.28571429 19:0.14285714 20:0.14634146 24:0.16666667 27:0.076923077 28:0.16666667 29:0.14285714 30:0.33333333 31:0.25 34:0.2 35:0.14285714 38:0.14285714 40:0.125 
-2 0:0.25895723 1:0.48008161 2:0.5629538 3:0.2310101 4:0.22697279 5:0.36834757 6:0.39419986 7:0.53226138 8:0.55367726 9:0.31853432 10:0.4926825 11:0.00028057526 12:0.031158069 13:0.0089006465 14:0.044877491 15:0.14869335 16:0.17647059 18:0.21428571 20:0.073170732 26:0.2 27:0.076923077 29:0.14285714 32:0.25 34:0.2 37:0.5 39:0.28571429 
-2 0:0.33609763 1:0.42471408 2:0.44874296 3:0.15532702 4:0.048645968 5:0.57193529 6:0.63061321 7:0.33626655 8:0.37050216 9:0.49704106 10:0.37848186 11:0.31182015 12:0.20943444 13:0.12875752 14:0.019203939 15:0.12004867 16:0.29411765 17:0.25 18:0.21428571 19:0.14285714 20:0.26829268 21:0.3 27:0.23076923 29:0.14285714 30:0.33333333 31:0.125 35:0.14285714 36:0.14285714 38:0.28571429 39:0.14285714 40:0.125 42:0.25 
-2 0:0.60375827 1:0.53693524 3:0.2310101 4:0.40295283 5:0.58548814 6:1 7:0.40679662 8:0.24432365 9:0.66823625 10:0.3751927 11:0.53234808 12:0.36630486 13:0.36811345 14:0.064740214 15:0.54403201 16:0.41176471 17:0.25 18:0.57142857 19:0.42857143 20:0.43902439 21:0.2 23:0.5 24:0.16666667 27:0.15384615 28:0.33333333 29:0.42857143 31:0.5 34:0.2 35:0.14285714 36:0.14285714 37:0.5 38:0.28571429 40:0.125 
-2 0:0.43704897 1:0.65099807 2:0.67818633 3:0.2310101 4:0.33725705 5:0.6368767 6:1 7:0.51036814 8:0.5521913 9:0.58858413 10:0.506802 11:0.25703091 12:0.0613861 13:0.30450891 14:0.08825901 15:0.18269647 16:0.23529412 18:0.35714286 19:0.28571429 20:0.14634146 21:0.2 26:0.2 27:0.15384615 31:0.25 36:0.14285714 37:0.5 40:0.25 
-0.1899282328012208 0:0.44335995 1:0.5066231 2:0.84026244 3:0.15532702 4:0.072272341 5:0.43223574 6:0.61976716 7:0.48160698 8:0.59268776 9:0.45926892 10:0.41323166 11:0.27469729 12:0.38684999 13:0.13931825 14:0.095630615 15:0.16006872 16:0.058823529 18:0.42857143 19:0.28571429 20:0.29268293 24:0.33333333 25:0.28571429 26:0.2 29:0.28571429 30:0.33333333 32:0.5 35:0.42857143 38:0.28571429 39:0.14285714 40:0.125 
-2 0:0.44600766 1:0.56948958 2:0.44874296 3:0.15532702 4:0.052684625 5:0.42871514 6:0.75153028 7:0.46611641 8:0.4486661 9:0.5492208 10:0.37739162 11:0.36373885 12:0.22135241 13:0.13752789 14:0.07065909 15:0.13885495 16:0.17647059 18:0.35714286 19:0.28571429 20:0.2195122 21:0.3 24:0.16666667 26:0.4 27:0.076923077 30:0.33333333 31:0.125 34:0.2 35:0.14285714 39:0.14285714 40:0.25 
1.742506689476715 0:0.27908475 1:0.43801599 2:0.39619284 3:0.2310101 4:0.077202587 5:0.34414631 6:0.61976716 7:0.37640049 8:0.49701259 9:0.53493666 10:0.38694144 11:0.42983598 12:0.19816247 13:0.5034672 14:0.28455253 15:0.11660092 16:0.17647059 18:0.21428571 19:0.14285714 20:0.14634146 25:0.28571429 27:0.076923077 29:0.28571429 35:0.14285714 37:1 38:0.14285714 39:0.14285714 40:0.125 
2 0:0.24209361 1:0.40432163 2:0.38081742 3:0.2310101 4:0.086978368 5:0.38290306 6:0.61976716 7:0.40212299 8:0.43198263 9:0.27543041 10:0.35259266 11:0.00028057526 12:0.031158069 13:0.0089006465 14:0.044877491 15:0.047178543 16:0.17647059 17:0.125 18:0.14285714 19:0.14285714 20:0.12195122 21:0.3 27:0.076923077 29:0.14285714 34:0.2 37:0.5 38:0.14285714 39:0.14285714 40:0.125 
-2 0:0.31785692 1:0.54894924 2:1 3:0.2310101 4:0.30570586 5:0.54287578 6:1 7:0.27323767 8:0.32248759 9:0.20175825 10:0.36257005 11:0.00028057526 12:0.031158069 13:0.0089006465 14:0.044877491 15:0.26954141 16:0.23529412 17:0.125 18:0.21428571 19:0.14285714 20:0.097560976 24:0.16666667 25:0.14285714 27:0.076923077 28:0.16666667 31:0.375 36:0.14285714 37:0.5 
-2 0:0.23072066 1:0.42773375 2:0.44874296 3:0.15532702 4:0.11884565 5:0.37251458 6:0.57126337 7:0.43292648 8:0.49071083 9:0.31853432 10:0.4926825 11:0.00028057526 12:0.031158069 13:0.0089006465 14:0.044877491 15:0.11676944 16:0.11764706 18:0.071428571 20:0.073170732 21:0.2 23:0.25 25:0.14285714 30:0.33333333 31:0.125 36:0.14285714 42:0.25 
-2 0:0.54999939 1:0.62299065 2:1 3:0.2310101 4:0.15738835 5:0.48598669 6:0.57126337 7:0.56449868 8:0.49701259 9:0.54682113 10:0.41274984 11:0.38489976 12:0.41594716 13:0.2953621 14:0.071877463 15:0.30234868 16:0.17647059 18:0.35714286 20:0.26829268 21:0.3 26:0.2 27:0.15384615 31:0.375 35:0.28571429 37:0.5 39:0.28571429 40:0.125 42:0.25 
2 0:0.29735726 1:0.55127155 2:0.84026244 3:0.15532702 4:0.17476386 5:0.37390855 6:0.74971148 7:0.55900576 8:0.56616735 9:0.31853432 10:0.4926825 11:0.00028057526 12:0.031158069 13:0.0089006465 14:0.044877491 15:0.13086529 16:0.17647059 18:0.21428571 19:0.14285714 20:0.073170732 21:0.1 25:0.14285714 26:0.2 27:0.076923077 30:0.33333333 31:0.125 36:0.14285714 40:0.125 
2 0:0.35914953 1:0.46073184 2:0.44874296 3:0.15532702 4:0.03393994 5:0.53709016 6:0.74971148 7:0.41814637 8:0.43553212 9:0.47016268 10:0.44467048 11:0.22085659 12:0.20352569 13:0.178173 14:0.087816446 15:0.13681552 16:0.23529412 17:0.25 18:0.28571429 19:0.14285714 20:0.24390244 21:0.3 24:0.16666667 25:0.14285714 27:0.076923077 29:0.14285714 30:0.33333333 31:0.125 32:0.25 34:0.2 36:0.14285714 39:0.28571429 40:0.125 
-2 0:0.56745257 1:0.6391689 2:0.44874296 3:0.15532702 4:0.033450713 5:0.57587411 6:0.74971148 7:0.55839232 8:0.49071083 9:0.57396283 10:0.55581139 11:0.31739893 12:0.35368892 13:0.14103231 14:0.0063890233 15:0.18172577 16:0.11764706 18:0.57142857 19:0.57142857 20:0.26829268 21:0.2 24:0.33333333 26:0.2 27:0.076923077 29:0.14285714 30:0.33333333 31:0.125 35:0.14285714 38:0.14285714 40:0.625 
2 0:0.29497153 1:0.51123609 2:0.44874296 3:0.2310101 4:0.2138496 5:0.33485232 6:0.57126337 7:0.54701474 8:0.49701259 9:0.30534844 10:0.47799074 11:0.00028057526 12:0.031158069 13:0.0089006465 14:0.044877491 15:0.21452663 16:0.17647059 18:0.14285714 20:0.097560976 21:0.2 31:0.25 34:0.2 36:0.14285714 37:0.5 38:0.14285714 39:0.14285714 
-2 0:0.26774746 1:0.49637785 2:0.67818633 3:0.2310101 4:0.0068317783 5:0.42724194 6:0.61976716 7:0.45593672 8:0.50950268 9:0.31853432 10:0.4926825 11:0.00028057526 12:0.031158069 13:0.0089006465 14:0.044877491 15:0.026688355 16:0.058823529 18:0.14285714 19:0.14285714 20:0.073170732 21:0.1 24:0.16666667 25:0.28571429 29:0.14285714 37:0.5 40:0.125 42:0.25 
-2 0:0.38929837 1:0.66667861 2:0.83292138 3:0.2310101 4:0.031819683 5:0.61771599 6:0.87005568 7:0.46756322 8:0.64496945 9:0.4622537 10:0.65281531 11:0.00028057526 12:0.031158069 13:0.0089006465 14:0.044877491 15:0.041303522 16:0.058823529 18:0.35714286 19:0.42857143 20:0.097560976 24:0.5 29:0.14285714 31:0.125 32:0.25 37:0.5 40:0.25 
2 0:0.25686123 1:0.39290913 2:0.30076488 3:0.15532702 4:0.11884565 5:0.39853446 6:0.48156528 7:0.41768806 8:0.49071083 9:0.53405512 10:0.38422676 11:0.37541715 12:0.25873161 13:0.39396493 14:0.25845756 15:0.14922365 16:0.17647059 18:0.14285714 20:0.17073171 21:0.2 25:0.28571429 27:0.076923077 30:0.33333333 31:0.125 34:0.2 35:0.14285714 38:0.28571429 41:0.33333333 
-2 0:0.43500617 1:0.55783491 2:0.67818633 3:0.2310101 4:0.12046164 5:0.58780333 6:1 7:0.36930869 8:0.43893771 9:0.44649255 10:0.42248065 11:0.2207015 12:0.24228135 13:0.16089684 14:0.21143736 15:0.14491718 16:0.29411765 17:0.25 18:0.35714286 19:0.42857143 20:0.2195122 25:0.14285714 26:0.2 27:0.076923077 29:0.14285714 31:0.25 34:0.4 35:0.14285714 37:1 38:0.14285714 39:0.14285714 40:0.125 
2 0:0.39904759 1:0.56864229 2:0.84026244 3:0.2310101 4:0.10601639 5:0.56163007 6:0.62547662 7:0.54870143 8:0.53640507 9:0.54975526 10:0.46898615 11:0.26759361 12:0.18931514 13:0.21086451 14:0.10121306 15:0.1355077 16:0.17647059 18:0.35714286 19:0.28571429 20:0.17073171 23:0.25 26:0.6 27:0.076923077 34:0.2 35:0.28571429 37:0.5 39:0.14285714 40:0.25 
-2 0:0.56360604 1:0.46886469 2:0.67818633 3:0.2310101 4:0.30881148 5:0.52448554 6:0.87005568 7:0.28903614 8:0.3218437 9:0.56940351 10:0.2132486 11:0.55558532 12:0.59743999 13:0.017897785 14:0.069155794 15:0.45679256 16:0.35294118 18:0.57142857 19:0.14285714 20:0.53658537 21:0.1 23:0.25 24:0.66666667 25:0.42857143 26:0.2 27:0.076923077 28:0.33333333 29:0.28571429 30:0.33333333 31:0.25 32:0.25 34:0.2 35:0.14285714 37:0.5 38:0.14285714 40:0.25 42:0.5 
2 0:0.40327707 1:0.43485608 2:0.44874296 3:0.15532702 4:0.23482041 5:0.51110748 6:1 7:0.37169444 8:0.24432365 9:0.6049554 10:0.34579465 11:0.45961922 12:0.23710891 13:0.21641421 14:0.057729613 15:0.2659964 16:0.35294118 17:0.125 18:0.28571429 19:0.14285714 20:0.36585366 21:0.2 24:0.16666667 26:0.2 27:0.23076923 28:0.16666667 30:0.33333333 31:0.25 35:0.28571429 36:0.14285714 38:0.28571429 39:0.14285714 40:0.125 42:0.5 
-2 0:0.18613772 1:0.3450813 2:0.34197122 3:0.15532702 4:0.01632202 5:0.40277734 6:0.75153028 7:0.60503649 8:0.27779725 9:0.31853432 10:0.4926825 11:0.00028057526 12:0.031158069 13:0.0089006465 14:0.044877491 15:0.087610415 16:0.17647059 17:0.125 18:0.14285714 19:0.14285714 20:0.073170732 23:0.25 26:0.4 27:0.076923077 28:0.16666667 30:0.33333333 35:0.14285714 39:0.14285714 
